{"layers": 3, "neurons_per_layer": [2500, 15, 2, 3], "weights": [[], [[0.0, 0.80310607, -0.68374324, -0.9939244, -0.33725733, 0.6162963, 0.3237344, 0.509768, 0.87635756, -0.6258848, 0.71356726, 0.07013857, -0.09549153, 0.7981107, 0.1956147, 0.49163568], [0.0, 0.85557604, -0.45422667, 0.38563597, 0.5269451, 0.64656067, 0.2511369, 0.8770113, -0.29123133, -0.74906087, 0.11553109, -0.43102425, 0.68056893, -0.012095809, -0.32966274, 0.40285122], [0.0, -0.50969166, 0.43292654, 0.36952817, -0.8433304, 0.92140174, -0.054751515, -0.2575137, -0.024828792, -0.5446517, 0.6761801, -0.13161004, -0.7791548, -0.089104295, -0.15056717, -0.17099702], [0.0, 0.6898649, -0.07964003, -0.6836474, -0.7387159, -0.50284, 0.91470957, -0.53643197, -0.88716364, -0.56494755, 0.86403704, -0.10271752, 0.30149257, -0.27215046, 0.59374714, 0.2644254], [0.0, 0.73412347, -0.48132175, 0.747102, -0.8974817, 0.40960205, -0.087872624, 0.6021087, -0.46285933, -0.30400866, -0.13388884, 0.049140334, 0.18443406, -0.04950893, 0.94342303, 0.44544637], [0.0, 0.9513252, -0.14265358, 0.67312145, -0.59987015, -0.59047884, 0.09092176, -0.8937707, 0.14455068, 0.58587384, 0.21130526, 0.12571299, 0.558465, 0.3910662, 0.8438151, 0.45867956], [0.0, -0.2490946, 0.43361342, 0.33747423, -0.93709135, 0.2816919, 0.37121117, -0.82564974, -0.0029553175, 0.32262933, -0.20933855, -0.21244967, 0.41283166, 0.8481221, 0.3394946, -0.1534599], [0.0, -0.028526664, -0.6093115, 0.5277171, -0.0718106, 0.7938247, -0.079542756, 0.7779832, -0.9466686, -0.94454026, -0.98982596, 0.64002275, 0.48283422, -0.2562489, 0.7014947, -0.7840924], [0.0, -0.94035506, 0.15936291, -0.30892032, -0.424946, 0.42530358, 0.7517631, 0.14260256, -0.54648226, 0.2919351, 0.7829149, -0.39810652, -0.046542525, -0.53898424, -0.7261908, -0.36463064], [0.0, 0.039099574, -0.35292453, 0.45328534, -0.33545035, -0.9712901, 0.5875094, -0.733999, -0.7084124, -0.71491146, -0.8212383, 0.20208919, 0.2366625, 0.07865226, 0.8287482, -0.61664766], [0.0, 0.4094001, -0.22976911, -0.062119603, 0.30727494, -0.16436422, 0.2872616, -0.7510464, 0.32697046, -0.115005374, -0.73360896, 0.8985238, 0.76540256, -0.16478598, -0.8369818, -0.8606427], [0.0, 0.6222296, -0.06102693, -0.4005677, 0.13161528, -0.80394554, -0.7763326, -0.5498528, 0.6329193, -0.40658492, -0.7304914, 0.82569504, 0.019606948, -0.9652653, -0.46140045, 0.98886657], [0.0, -0.31329387, -0.31289262, -0.87878966, 0.8795314, -0.5105149, -0.45551318, 0.6557355, 0.6267941, 0.63346696, -0.20530117, -0.9936454, -0.28517693, -0.90090466, -0.93411803, -0.19333184], [0.0, -0.5165073, -0.432584, 0.77199006, 0.3177806, -0.4330787, -0.8362832, -0.9940989, -0.14090502, -0.20838392, 0.09530175, 0.50471926, 0.8495095, 0.31555307, 0.22323883, -0.7519202], [0.0, 0.6320317, -0.7906301, 0.63014245, -0.45354503, 0.15617669, 0.24430454, 0.26994932, -0.54247016, 0.49061716, 0.009183526, 0.161013, -0.7247913, -0.29530925, 0.6367316, 0.36502683], [0.0, -0.5979635, -0.17892039, -0.044864535, -0.8208232, 0.8613446, 0.5368724, -0.08466637, -0.54701227, 0.4836713, -0.6704583, -0.9941163, 0.25034106, 0.0062071085, -0.40919608, -0.257075], [0.0, 0.42915618, -0.19948566, 0.6681504, 0.9145243, 0.32134473, 0.57621336, 0.88309646, -0.8051152, -0.9736066, -0.07946885, 0.5952003, 0.30133617, 0.76651764, 0.17547333, -0.7473793], [0.0, -0.7399881, -0.5118126, 0.9962778, 0.7620435, 0.6123717, 0.2040838, 0.79230905, 0.4198693, -0.8480835, -0.9297855, 0.45861185, -0.09744775, -0.55545086, -0.61075586, -0.7945521], [0.0, -0.0950495, 0.15278351, 0.70890355, 0.9819846, 0.9231224, 0.7312069, 0.7879305, 0.49758422, -0.6264503, -0.17836726, 0.26726592, -0.49197525, 0.40153158, -0.4605617, 0.85423565], [0.0, -0.6558652, 0.36160576, 0.57015014, -0.28561133, -0.25738305, 0.36886013, 0.50938153, 0.5161047, -0.89676523, -0.71128416, -0.0516001, 0.0056039095, 0.9343524, 0.6355245, -0.5564403], [0.0, -0.109868884, 0.07188642, -0.46684688, 0.94149065, 0.57377386, -0.12778437, 0.2882129, 0.70165634, 0.7581911, -0.73751426, 0.7298708, 0.80751586, 0.2561072, -0.6217784, 0.5313709], [0.0, 0.21782982, -0.74434066, -0.030858636, -0.9769187, 0.35234272, -0.6350944, -0.9662814, 0.64663506, 0.31691396, -0.79443717, 0.80274296, 0.9244063, -0.015179515, 0.49248254, -0.34109563], [0.0, 0.5183747, -0.1073581, -0.95935774, 0.5378854, 0.7928655, -0.8375673, 0.098976016, -0.33883494, 0.45441377, 0.9901962, -0.088407636, -0.4717514, 0.47337997, -0.8503635, -0.5848867], [0.0, 0.08070886, -0.78451633, -0.1474086, 0.021355033, -0.9508121, 0.014762282, 0.5039251, 0.6683161, -0.5705115, -0.83011246, 0.6579981, 0.9939451, -0.8888409, 0.5241258, -0.12939346], [0.0, 0.33043325, -0.42693418, -0.8911061, -0.19195998, 0.85301685, -0.86363554, 0.28342283, 0.5612066, -0.8557818, 0.4900657, -0.6804333, 0.64660287, -0.5777597, 0.64994335, 0.2615496], [0.0, 0.39786255, 0.038915277, -0.71115947, 0.043904424, -0.2744221, 0.752033, -0.60161966, 0.48022497, 0.86124945, 0.76274204, -0.9302983, -0.98789334, 0.00015032291, -0.3063218, -0.033727527], [0.0, -0.693192, 0.09342778, 0.4286369, 0.0910753, 0.2089845, 0.8158288, 0.95707774, -0.4677338, -0.4435417, 0.73463464, -0.44062132, -0.8110738, -0.45303196, 0.35032213, -0.44606942], [0.0, 0.032280803, 0.23439348, 0.28351963, -0.6783688, 0.10275304, -0.027371287, -0.8317447, -0.9857645, -0.3392772, 0.6615536, 0.5846875, 0.39954412, 0.83581996, 0.6706917, -0.56893367], [0.0, -0.6247701, 0.48339713, -0.35211056, -0.7522116, 0.22883093, 0.27847397, 0.07871497, -0.97766376, -0.6661377, 0.09208667, 0.1657108, 0.3569125, -0.91400814, 0.3385216, 0.03269279], [0.0, -0.8875489, 0.07843149, 0.50111103, 0.77264524, -0.47439712, 0.24017608, -0.7995367, -0.4305882, 0.27986825, 0.8288505, 0.7554679, -0.7049227, -0.11822927, 0.25355685, 0.80716324], [0.0, -0.5213575, 0.786057, -0.017185569, -0.44475406, 0.8646369, 0.43901503, -0.94513535, 0.8420737, -0.39715785, -0.42506188, -0.89236665, 0.8058593, 0.91819215, -0.76454306, 0.28043234], [0.0, -0.46053284, 0.97467995, -0.65751195, 0.23992956, -0.6312239, -0.83301353, 0.40562522, -0.029542804, 0.3928374, 0.57274365, 0.39461434, -0.0010255575, -0.69909596, -0.8298466, -0.4586758], [0.0, -0.91038275, -0.7500744, -0.36286372, 0.1252302, 0.14872563, -0.3899693, 0.6405585, 0.8002634, -0.772661, -0.851141, -0.8727672, -0.48738497, -0.36767763, 0.5620413, 0.97270703], [0.0, 0.9223635, 0.38332546, -0.018079877, -0.026016593, 0.8929944, 0.75507736, 0.644197, -0.66515183, 0.38943374, 0.93493104, -0.6437566, 0.29223502, 0.86274767, 0.3118695, -0.96845245], [0.0, 0.79357696, 0.043204904, 0.8551812, 0.5029726, -0.5386924, 0.8552029, 0.20332086, -0.5376937, 0.7837136, -0.24865544, 0.5275655, 0.18272436, -0.76990724, -0.8331909, 0.82374406], [0.0, 0.35781825, 0.52604294, -0.17185509, -0.12827313, -0.77493644, -0.87113094, 0.96094275, -0.694242, -0.12894976, 0.4739231, 0.044020772, 0.45465362, 0.94568014, 0.33407485, 0.10972059], [0.0, 0.3540138, 0.30281246, -0.47847432, 0.276219, -0.24896157, 0.66873217, -0.37389296, -0.3547346, -0.28829473, -0.6066479, 0.50240993, -0.020497918, 0.35415614, -0.4902789, -0.76539683], [0.0, -0.32322115, 0.13757813, -0.08250415, 0.18203533, -0.4512753, -0.9593253, -0.09695971, 0.04933107, -0.56548184, -0.9446955, 0.56476283, -0.6982186, 0.94932175, 0.86618876, 0.7428613], [0.0, 0.8603568, -0.7613063, -0.8360503, 0.17466009, -0.7980864, -0.20776784, 0.8251064, 0.5100694, -0.5353343, 0.33039796, 0.13837922, 0.14101303, 0.4382323, 0.97709155, 0.33990204], [0.0, 0.3665055, -0.2593264, -0.30648345, -0.62358755, 0.5072346, -0.2816493, 0.49576342, -0.969656, 0.83213115, -0.77738523, 0.29878128, 0.41491354, -0.1290015, 0.2661804, 0.54188895], [0.0, 0.96588063, 0.5649493, -0.6240863, 0.80125, -0.17857015, 0.20246422, 0.5085099, 0.043500304, 0.96388984, -0.11933553, -0.6495397, -0.050013423, 0.995368, -0.02466166, 0.28884494], [0.0, -0.25718635, 0.32219565, 0.6875193, -0.69816947, -0.7059083, 0.9045234, 0.53832865, 0.03464663, -0.07968724, 0.5618212, 0.60667133, 0.6203718, -0.387309, -0.6207289, 0.11026847], [0.0, 0.45545495, 0.83849144, -0.72821116, -0.99400187, 0.20993125, 0.41406834, -0.14137614, 0.63443303, -0.81405306, 0.89381886, -0.2308811, 0.6037717, -0.31335562, 0.47041857, -0.44688314], [0.0, -0.28515285, 0.532861, -0.38615698, -0.63695574, 0.48687685, -0.93779516, 0.7472987, 0.58200336, -0.3600003, 0.82072735, 0.6120634, -0.8591604, -0.6292927, 0.06816566, -0.8878436], [0.0, 0.4733261, 0.5669062, 0.05482638, -0.7315669, 0.9554653, -0.9659438, 0.78054905, -0.20327985, 0.5236902, -0.14353454, -0.7350452, 0.47368753, -0.7934754, 0.68677497, 0.14337409], [0.0, 0.24360311, -0.73624825, 0.36157453, 0.93518996, -0.636894, 0.18944895, 0.14872062, -0.5478284, -0.0059138536, -0.41799325, 0.5004115, 0.20334733, 0.85619783, 0.50696826, -0.40545028], [0.0, -0.2504031, -0.07224643, 0.12717259, 0.41818726, -0.6765163, -0.08883107, -0.9103992, -0.43930787, 0.86085343, -0.7008934, -0.708446, 0.5533166, 0.40709507, 0.88536286, -0.7694156], [0.0, -0.7668333, 0.92729354, -0.26572865, 0.9438393, -0.2531647, -0.29169148, 0.058935523, -0.378874, -0.8634527, -0.77016926, -0.7767625, -0.8171575, 0.029960275, -0.11849129, 0.11577284], [0.0, 0.20629776, -0.0451411, 0.027255416, 0.5205438, -0.8322947, -0.49554008, 0.40515363, 0.9704983, 0.9681542, 0.24634492, 0.5595689, -0.285186, -0.06257951, -0.74487877, 0.37564027], [0.0, -0.4193496, 0.71677375, -0.5882167, 0.14775741, 0.09698403, -0.91824985, -0.5898573, -0.9554589, 0.8337519, -0.523086, 0.7234967, 0.57557034, 0.39810765, -0.670557, 0.70938826], [0.0, -0.25018328, 0.19870532, -0.6131343, 0.04488027, -0.21412766, -0.11129367, -0.9867523, -0.77451825, -0.22783148, 0.85090685, -0.20175159, -0.24875963, -0.334444, 0.32996595, 0.59766555], [0.0, -0.67259264, 0.47073781, -0.53452295, 0.1384021, -0.75764203, 0.951453, -0.6700282, -0.7763941, -0.84615517, 0.93143296, 0.10249293, -0.8190093, 0.6972277, -0.8431275, -0.36468524], [0.0, 0.40139782, -0.40108436, 0.57368135, 0.6452775, 0.05540836, 0.31535828, -0.23316324, 0.6440897, 0.57882667, -0.9557054, -0.72029614, -0.43277234, 0.45099247, -0.45257968, 0.22475421], [0.0, -0.7593641, -0.09003556, -0.08252704, 0.079615, 0.5342338, -0.71653247, -0.11031759, 0.39874232, 0.62729025, 0.82369924, 0.80071235, -0.340805, 0.84831977, 0.45553792, 0.5074794], [0.0, -0.6607733, -0.7237892, -0.62257284, -0.81133556, 0.6133826, 0.7951822, 0.83415604, -0.59901804, 0.8683865, 0.9877522, -0.38135403, 0.044373155, -0.7498634, 0.27397764, -0.7441704], [0.0, -0.98007107, 0.07306135, 0.5544877, -0.8942814, 0.41434848, 0.83632517, 0.88327456, 0.72543454, -0.46333402, -0.9343536, 0.2889086, 0.29497564, 0.84655905, 0.2899531, 0.24387491], [0.0, -0.10803902, -0.3419394, -0.86178374, 0.7809074, 0.6406605, -0.8044567, -0.74011683, -0.32438534, -0.3225481, -0.6783309, 0.74105096, 0.6221938, 0.7519431, 0.9379163, -0.17590868], [0.0, 0.6654928, -0.8730614, 0.9746051, -0.6427531, 0.4553398, -0.2439121, -0.43587416, 0.8599992, 0.8390105, 0.8428676, 0.29173553, 0.6823745, 0.32368004, -0.64194274, -0.51658005], [0.0, -0.72281075, 0.8254659, -0.55414194, 0.9921615, 0.3058809, -0.27128595, -0.9234605, 0.2806636, -0.27613848, -0.5723893, 0.45385993, -0.011508107, -0.42952198, -0.6901803, -5.6385994e-05], [0.0, 0.16949785, 0.5205717, 0.5479281, -0.44023794, 0.8310244, -0.22558415, -0.112656, -0.4060635, 0.93286085, -0.19802034, -0.3377139, -0.6921272, -0.13451135, 0.007870555, -0.30193752], [0.0, 0.14667332, -0.0048538446, -0.4938683, -0.1910137, -0.19297111, -0.8610654, 0.8167672, 0.21068442, 0.29125202, 0.049413323, -0.9534545, 0.31718552, -0.13052166, 0.17987144, 0.4995898], [0.0, -0.15785658, -0.43950194, 0.75463915, 0.84496975, 0.7403965, -0.00057280064, -0.73704195, -0.092416406, 0.8009312, 0.97814035, -0.8780327, 0.28013408, 0.21134412, -0.7984474, -0.13804209], [0.0, -0.6479919, -0.73090386, -0.70692635, 0.7241435, -0.4132871, -0.62421745, -0.7285745, 0.18070185, -0.3144433, 0.87279296, 0.6416862, -0.854156, -0.33439296, -0.90325046, 0.565763], [0.0, 0.26866972, 0.859267, 0.9447148, -0.070140004, 0.707253, -0.25792307, -0.2600159, 0.65975404, -0.58360976, 0.1627363, -0.8946562, 0.015459895, 0.9021139, 0.7580006, 0.016676307], [0.0, 0.23514736, -0.46994323, 0.5332339, -0.79262185, 0.7265527, -0.69757414, -0.48078507, 0.46922433, 0.16554987, -0.9353826, -0.13216555, -0.26239437, 0.076331735, 0.36348832, -0.35095376], [0.0, 0.109850526, 0.5410347, 0.19671118, 0.18748248, 0.7225826, -0.1555301, 0.9394362, -0.62946916, -0.24752438, -0.9725652, 0.60450244, 0.9118254, 0.323619, 0.37191308, -0.8569422], [0.0, -0.38867587, 0.13289917, 0.66606927, -0.317254, -0.46094626, 0.29833138, 0.28624475, 0.3624581, -0.013626695, -0.8158977, -0.04282534, -0.7168207, -0.04766023, -0.8593712, 0.32170308], [0.0, 0.7692833, -0.6205606, -0.007372737, 0.36699545, -0.16173637, 0.72225475, -0.7509346, -0.737216, 0.5303445, 0.7265847, 0.1106087, 0.8510003, -0.18433821, 0.9850347, 0.3891877], [0.0, 0.6489992, 0.42839634, -0.56867975, -0.18716562, 0.6315427, 0.66090846, 0.69551635, -0.007187724, -0.5011961, 0.14711249, -0.7955978, -0.3850848, -0.45419687, 0.96898365, 0.97779465], [0.0, 0.76149464, -0.82250214, 0.8873396, 0.72878075, -0.8052149, 0.6935966, -0.92650676, 0.24230897, 0.37214434, 0.3275882, 0.98764634, 0.626858, 0.4199804, 0.5225365, -0.09508836], [0.0, 0.31720865, 0.27332485, -0.49926347, -0.6759145, 0.71648884, 0.6057751, -0.30783862, -0.72496104, -0.6383779, 0.04460609, -0.9086039, -0.7856157, 0.55138636, 0.70112824, -0.7987008], [0.0, -0.70340466, -0.31159824, 0.62799454, -0.3524241, -0.7632861, 0.812953, 0.14792788, 0.28292143, -0.22807038, 0.2196883, -0.61766833, -0.50382704, 0.41555345, 0.30668175, 0.6450329], [0.0, 0.94513774, 0.47624552, 0.40822518, 0.49069273, 0.19125736, -0.12827504, -0.7401178, 0.72498345, 0.5223553, -0.33623022, -0.9002099, -0.2278198, -0.83626556, -0.9505756, 0.29344213], [0.0, -0.03994429, 0.5911181, 0.17357457, -0.5102348, 0.99043083, -0.84165835, 0.7805927, 0.5677645, -0.5609614, 0.39695203, 0.11378372, 0.32248318, -0.6131148, 0.22167766, -0.2634067], [0.0, -0.7520845, 0.89188147, 0.9749112, 0.57875156, 0.47142303, 0.023629308, 0.55478406, 0.7284746, -0.9902439, 0.7919085, -0.9157381, 0.5004964, 0.20719492, 0.695282, -0.57411164], [0.0, -0.0047894716, -0.8958199, 0.15293252, 0.78966117, 0.8238747, 0.56959724, -0.87700486, -0.8915067, 0.46883047, 0.7230177, 0.90092707, 0.7850642, -0.022129655, -0.09331429, -0.68642306], [0.0, -0.6830354, 0.024008393, 0.2636782, 0.21189988, 0.35087788, -0.7660825, 0.6321914, -0.0028744936, -0.46298403, -0.34265202, 0.36585844, 0.49336207, -0.1428796, 0.717432, -0.3865816], [0.0, -0.9004402, -0.96444917, -0.5420179, 0.08789194, 0.90118384, -0.7245228, 0.6662798, 0.43731773, 0.2791437, -0.0775162, -0.85742855, -0.64233184, 0.37931073, 0.43865454, -0.8436625], [0.0, -0.8351457, 0.6593044, -0.85746646, -0.078912854, 0.1507622, 0.053531766, 0.38586104, -0.859288, 0.06252372, -0.7606642, -0.8816681, -0.8901229, 0.36429894, -0.819875, -0.17735684], [0.0, 0.42479694, -0.62977624, 0.6256075, 0.61841655, -0.38431162, -0.4417984, -0.1851567, 0.9006562, 0.36727846, 0.48312652, 0.2848543, 0.1011554, -0.1732508, 0.78101754, 0.052951932], [0.0, -0.8050873, -0.020392299, 0.23887837, -0.373177, 0.20310819, -0.45898455, 0.71206903, -0.9412823, 0.03157699, -0.24237955, -0.60554355, 0.47221458, 0.4964496, 0.5553663, -0.44548792], [0.0, -0.7957039, 0.7459464, -0.6940377, 0.22383106, -0.7531111, 0.14724028, -0.5618598, -0.42000717, 0.33971775, 0.19955313, 0.93044424, 0.18352687, 0.6333344, -0.8262718, 0.5447762], [0.0, -0.09953463, -0.90530205, -0.7471762, -0.96730375, -0.31943554, -0.03400767, 0.25392973, 0.32466757, 0.32598102, -0.7312956, -0.37089056, -0.21736896, 0.61631966, 0.9906585, 0.3142208], [0.0, 0.5553038, 0.47425592, -0.33172482, 0.2975992, -0.5832092, -0.7938061, -0.65222406, -0.7724273, -0.18048322, 0.8519511, 0.37411535, -0.49366277, -0.925308, -0.44503015, 0.39642155], [0.0, 0.54788566, 0.31355488, -0.8512008, 0.33730972, -0.27319926, 0.83571196, -0.26454276, -0.44418758, 0.6873982, -0.06727636, 0.46910965, -0.8423271, 0.2216152, 0.49759686, 0.062710166], [0.0, -0.23339689, 0.97035956, -0.96568847, 0.7588732, -0.29295033, -0.6723716, 0.65682125, 0.35171688, -0.9963944, -0.47272462, -0.22488773, 0.19501603, 0.59664917, 0.3407005, -0.3784544], [0.0, -0.57719415, -0.23463452, 0.20465648, -0.35214967, 0.951797, 0.87899494, 0.21196735, 0.8416841, -0.3569507, -0.61874145, -0.15337288, -0.6570699, 0.7471597, 0.43812954, 0.9806905], [0.0, -0.26563066, 0.65760326, -0.5075595, -0.14984381, 0.7043567, -0.6869974, -0.6411364, -0.09428775, -0.93832517, -0.13817322, 0.28018415, -0.05883944, 0.7799494, 0.7241583, 0.5685785], [0.0, -0.014292598, 0.7446706, 0.89907265, -0.80116963, -0.86908364, -0.3051464, 0.6686022, 0.3718325, 0.3541113, -0.9691858, -0.31157774, -0.55687493, -0.42085022, -0.55432004, 0.9229548], [0.0, 0.09594977, -0.49733156, 0.07799804, -0.60359377, 0.028801799, 0.66110706, -0.7604165, 0.59269595, 0.41564596, -0.12918913, 0.36216748, -0.6178171, -0.7644415, -0.6552334, 0.34680808], [0.0, 0.3857361, -0.2164439, 0.26420724, 0.85152936, -0.9765892, -0.9956827, 0.033590913, 0.34050643, -0.33138865, -0.20131171, -0.636317, 0.41186583, 0.93710923, 0.9877305, -0.63596296], [0.0, -0.90134835, 0.33742702, -0.7348814, 0.100303054, 0.29800308, 0.25333297, -0.9713397, 0.63290787, -0.13223803, 0.9486089, 0.18822896, -0.2487117, -0.74828863, 0.051273227, 0.24959219], [0.0, 0.17093408, 0.8450172, 0.8955698, -0.3418259, -0.9108424, -0.27690428, 0.96413445, -0.98903203, 0.47183907, 0.8213842, 0.4509629, -0.43303555, -0.71383905, 0.14765513, -0.062098622], [0.0, 0.36045134, -0.41934246, 0.66916347, -0.6705637, 0.30931032, 0.81986046, -0.11257398, 0.96406674, 0.13687551, 0.3878268, 0.04337609, 0.3284613, -0.7989936, 0.5810733, 0.06555712], [0.0, 0.85210466, 0.78613305, -0.69584775, -0.54678553, 0.53900623, 0.52547956, -0.44642562, -0.53896445, -0.0771116, -0.8637581, -0.11023033, -0.9203985, 0.7200141, 0.6972101, -0.98979855], [0.0, 0.2306205, 0.1356622, 0.79351616, 0.51861143, 0.874419, 0.9396038, -0.10478246, -0.39278883, 0.29572737, -0.91313124, 0.20826232, -0.56624097, 0.7789531, -0.8305304, -0.5061328], [0.0, -0.22142684, 0.71233416, 0.23009264, -0.6280885, 0.6537881, -0.23462594, -0.49026746, -0.68245006, -0.89796615, 0.20281756, -0.6647332, -0.12578881, 0.22610867, -0.23887241, 0.95296407], [0.0, -0.016324162, -0.9684155, 0.18634117, -0.8076451, -0.9992943, 0.51340675, -0.25614613, 0.36750257, 0.9455495, -0.6097564, -0.12666023, -0.7954111, -0.90450025, 0.20635855, 0.99191475], [0.0, 0.61546874, -0.012757897, 0.6304984, 0.8050053, -0.3576395, -0.93761206, 0.039552808, 0.48794234, 0.89376855, -0.38447112, 0.00027382374, -0.7566111, -0.40078753, 0.36481082, -0.7562201], [0.0, -0.3984012, 0.10168588, -0.30997986, -0.48367637, -0.27780718, -0.063554406, -0.60804933, -0.26296324, 0.5220871, -0.47496885, 0.14817202, 0.46368897, -0.13002264, 0.51780033, 0.837554], [0.0, -0.98145366, 0.4621135, 0.42939103, 0.2618028, -0.85458565, -0.6632731, -0.9856329, -0.75598454, 0.20911014, 0.55289006, 0.11988008, -0.33731955, -0.84205294, -0.49989003, 0.6767237], [0.0, 0.6338823, -0.3635897, 0.23382056, 0.7588198, -0.47302288, 0.5290029, -0.84456134, -0.12771428, 0.5471523, -0.0851804, 0.60679865, 0.5160897, 0.20881855, 0.8528223, -0.29742402], [0.0, -0.96055126, 0.6157172, -0.32699102, -0.32170838, -0.28556365, 0.48966706, 0.807734, -0.17941034, -0.9211757, 0.68592, -0.80334973, 0.93191123, -0.44695348, -0.5490126, 0.24076355], [0.0, -0.07186687, 0.6386187, 0.6140344, 0.12500513, -0.16364276, -0.7940743, -0.84448767, -0.4765386, -0.1457864, 0.3144437, -0.8967769, -0.98120093, 0.4336685, -0.041917443, 0.26518023], [0.0, 0.9877939, -0.77085805, 0.61009336, 0.75164056, 0.33109844, 0.16925752, 0.74843836, -0.5287561, 0.32166255, -0.57849663, 0.004783511, 0.15923822, -0.93889904, 0.38271105, 0.912364], [0.0, -0.71276736, -0.14209759, -0.26147908, 0.26477826, 0.7364998, -0.65790606, -0.6452067, 0.700546, -0.038309455, -0.31775802, 0.060266852, 0.14817727, 0.3935839, 0.058086753, -0.96500945], [0.0, -0.54902166, 0.9708891, 0.7829497, -0.14148915, -0.36904687, -0.9555037, 0.94860697, -0.24207246, -0.1869129, -0.4089536, -0.644938, 0.07621491, 0.24271333, 0.11779916, -0.0932039], [0.0, -0.59661764, -0.33167213, 0.45414126, -0.30107635, -0.20169008, -0.4221055, 0.15393555, -0.12332618, -0.014619708, -0.13083875, 0.481655, 0.6791749, 0.9047754, 0.70312524, 0.96543384], [0.0, 0.015346885, 0.24233925, 0.9133754, 0.003681779, 0.59100056, -0.029807925, -0.16424787, 0.6958623, 0.1426884, -0.38258642, 0.7140703, 0.72580314, -0.56175464, 0.060481906, -0.3959412], [0.0, -0.4586901, -0.8652952, -0.37047666, -0.8160548, 0.13271105, -0.82460904, -0.9019742, -0.4784345, -0.11202371, 0.3319732, -0.01188314, -0.90735555, 0.7185168, -0.20917547, 0.04669416], [0.0, 0.12605035, 0.06479037, -0.4843313, 0.9624553, 0.35553014, -0.6168999, 0.41962564, 0.08881247, 0.9680865, 0.84640646, -0.7691474, -0.5025694, -0.14692938, 0.7674589, 0.44755018], [0.0, -0.386913, 0.25072968, 0.7941916, -0.3813359, -0.34418362, 0.08470714, -0.7172127, 0.33040845, -0.21945822, -0.06434333, -0.8505013, 0.2775935, 0.47468317, -0.34033197, -0.38892525], [0.0, -0.603223, -0.27319354, -0.5744857, -0.60382575, -0.7913532, -0.7890935, -0.5215959, 0.63708806, 0.9850607, 0.25048292, 0.27733576, -0.5442795, 0.1734742, -0.47207493, 0.35197866], [0.0, -0.057266116, 0.9022579, 0.91623044, -0.13324964, -0.6855023, 0.6199329, 0.7223568, -0.46224445, -0.8252528, -0.88369346, 0.17625797, -0.87425303, -0.4807431, -0.45974845, 0.6930294], [0.0, 0.5100126, -0.8094282, 0.8524456, 0.54792786, -0.8335326, 0.06808889, -0.93663144, 0.20562637, -0.37250513, -0.5370757, 0.9321325, 0.95296717, 0.023609519, 0.93093824, -0.9843743], [0.0, -0.31278843, -0.19805443, 0.035488725, 0.22640955, -0.39056176, -0.14466989, -0.2236675, 0.4647709, -0.30678004, -0.44358343, 0.9516609, 0.4051696, -0.52119726, -0.30286497, -0.22580492], [0.0, 0.89372873, 0.6827493, 0.7813301, 0.4851123, -0.6994157, -0.0842098, 0.70524216, -0.34005278, -0.09741199, 0.36450517, 0.15460598, -0.88046527, 0.37875974, -0.14635146, 0.22455275], [0.0, 0.80476, -0.48919767, 0.23884594, 0.16535771, -0.6422579, -0.18844068, -0.3300385, 0.01683557, 0.6731396, 0.8073783, -0.60466594, 0.51924205, -0.8633821, 0.4667169, 0.8814571], [0.0, -0.24666679, 0.6104729, 0.12621343, -0.57835025, -0.48620886, -0.44770235, 0.59610367, 0.65981364, -0.22002566, 0.8495736, -0.44374412, -0.14351165, 0.38939035, 0.6430857, -0.5497698], [0.0, 0.55877686, -0.8478315, 0.3125738, 0.46514308, 0.19129169, 0.37534034, -0.3770439, 0.70773745, 0.80237937, 0.29406464, 0.108507276, 0.2522217, -0.5973634, 0.10807717, 0.030680776], [0.0, 0.58734536, 0.18301284, 0.84155273, -0.8135729, -0.6171848, -0.060525775, -0.7792027, 0.36528862, -0.74991345, 0.76006055, 0.3868631, 0.7866826, 0.9842491, 0.0017529726, 0.75363517], [0.0, 0.032923102, 0.7581148, -0.35234064, 0.33643186, -0.8732121, -0.28770298, 0.7778642, -0.5930149, -0.24115598, 0.6767268, -0.14291441, 0.6176255, 0.08151901, -0.4124338, -0.71468544], [0.0, 0.32016957, 0.00883472, 0.88310504, 0.27950966, -0.49684328, -0.1562506, -0.39908642, -0.062157035, 0.71154046, -0.5830752, -0.592421, 0.5722375, -0.7620046, -0.99754643, 0.31417835], [0.0, 0.34948575, -0.6788535, -0.60690993, -0.023599267, 0.5607791, -0.4939236, 0.7249799, 0.62419844, 0.8175533, 0.18833363, -0.13505399, 0.3056394, -0.42908973, 0.04543054, -0.23672473], [0.0, -0.5436925, 0.083949685, 0.27088344, -0.5729334, 0.0021446943, 0.33160055, -0.010333896, -0.61714643, -0.26297086, 0.91896033, -0.91579556, -0.330445, -0.44329375, -0.6375611, 0.070620894], [0.0, 0.46117556, -0.0072723627, -0.25557274, -0.42099923, 0.0688709, 0.9042294, -0.23422205, 0.72494555, -0.7564633, 0.67783976, -0.73043704, -0.45003623, 0.87084293, -0.5886826, -0.32672328], [0.0, 0.25239527, -0.7526367, -0.76513505, -0.032890916, 0.006095767, -0.7272835, -0.65039086, 0.5555985, 0.12400448, 0.1179589, -0.51944155, 0.18576181, 0.6832819, 0.68358517, 0.6423645], [0.0, 0.29541934, -0.73936605, 0.62218785, 0.4964851, -0.56452125, 0.7207351, 0.9684057, 0.78771853, 0.8681078, -0.7261355, -0.6865773, -0.48519558, 0.31758678, -0.038844943, 0.10435879], [0.0, -0.5933916, -0.77964854, 0.28548157, -0.3282277, -0.9346013, -0.120762944, -0.6379626, -0.4909889, 0.84406185, 0.8136766, -0.6985843, 0.034332633, -0.25740522, -0.92372465, -0.5404455], [0.0, -0.22394001, 0.39171112, -0.19870293, -0.23287642, -0.9953544, -0.97827387, 0.11876404, 0.33387554, -0.76604676, -0.044486403, -0.00967443, 0.39619005, 0.75482345, 0.4498409, 0.5772543], [0.0, 0.99502516, 0.18357813, -0.97248864, -0.32200044, 0.6842828, 0.9627936, -0.44318694, 0.103116155, -0.6347611, 0.83940744, -0.6061978, 0.3798021, -0.73877, -0.8824692, -0.35266155], [0.0, 0.8705888, 0.23134482, -0.23571837, 0.12066519, 0.6331527, -0.114779115, 0.88002443, 0.04840815, 0.14069998, -0.84360576, 0.49190915, 0.74203444, 0.114284396, -0.92144275, 0.16380537], [0.0, -0.87568855, 0.7406106, 0.4746157, -0.27634758, 0.52686834, 0.7764082, -0.7645607, -0.2751748, -0.93455577, 0.20288002, -0.8648062, 0.59776425, -0.1701814, 0.63982964, -0.948323], [0.0, -0.7540052, 0.24658453, 0.917747, 0.22136772, -0.10334599, -0.26285046, -0.20236456, 0.8276565, -0.8147557, 0.33785212, -0.303276, -0.13639629, -0.44573087, 0.49656737, 0.7469406], [0.0, 0.01992929, -0.81064606, -0.9847181, 0.97860384, 0.23051369, 0.6308305, -0.0058733225, -0.60800666, -0.4780063, -0.77861667, -0.60555834, -0.13145316, 0.49211895, 0.019091487, 0.3300749], [0.0, 0.6183014, -0.299555, -0.28127545, -0.34138817, 0.5165918, 0.68121004, -0.6881614, 0.6326618, -0.9269018, 0.2734481, -0.092864394, -0.0006197691, 0.5875945, -0.5688059, 0.9010296], [0.0, 0.20726073, -0.74113727, 0.02807939, -0.43784994, -0.22043812, 0.72784257, -0.39648527, 0.4811684, 0.86284924, -0.73821306, 0.21368301, 0.6136167, 0.16081989, 0.8880551, 0.3439306], [0.0, -0.3377661, -0.5713665, -0.17700827, 0.48703134, -0.61440057, -0.4950692, -0.17384398, 0.8247137, 0.6274998, -0.68801975, -0.3140642, -0.431009, -0.19342172, 0.38217914, -0.25161904], [0.0, 0.8359449, 0.115395665, 0.63183117, -0.577445, -0.4429726, 0.4202355, -0.31896776, 0.10846579, 0.2876798, 0.7845886, -0.13767827, 0.38287556, -0.34465545, 0.24020445, -0.29324478], [0.0, -0.899441, 0.81130195, 0.038840175, -0.4144022, -0.3603801, 0.29921567, -0.9484706, -0.8156483, 0.95891476, 0.5929818, 0.20184672, -0.42163008, 0.544441, -0.52961487, -0.40491575], [0.0, 0.17268765, -0.066946864, 0.8520942, -0.12652075, 0.33511698, 0.32120454, 0.86141133, 0.020842671, 0.29340684, 0.63703847, -0.687279, 0.8697779, -0.07849562, -0.3584301, -0.69582033], [0.0, -0.77549577, 0.2858349, -0.44702405, -0.09527314, -0.19014037, -0.70230937, -0.30395836, -0.34858412, -0.7699325, 0.90658927, -0.20219362, 0.098811984, -0.806226, 0.8024342, 0.7194195], [0.0, 0.40916097, -0.25654906, 0.70212054, -0.5039241, 0.729789, -0.12137568, 0.4059769, -0.7736187, -0.692781, 0.22071159, 0.22171128, -0.55075186, -0.79722285, -0.66448855, -0.7741611], [0.0, 0.22285163, 0.082989335, -0.99859977, 0.7935314, 0.9214792, 0.61673474, -0.908803, -0.37858027, 0.13372505, -0.6860843, -0.15275228, -0.37453812, -0.46352237, 0.66116905, 0.17577374], [0.0, -0.32224315, 0.49278438, -0.15135348, 0.7837422, -0.69686604, -0.38222045, 0.18386018, 0.3873793, -0.76149774, -0.4102065, -0.8544321, -0.58962744, 0.553432, 0.11677301, 0.38192427], [0.0, 0.26437104, -0.90942526, 0.5541744, -0.7119858, -0.49203008, -0.8352759, 0.95062375, -0.24632585, 0.90356255, -0.03689611, -0.041828036, 0.8122225, -0.3573267, -0.8301847, -0.67944145], [0.0, -0.5629274, -0.81796956, -0.2355777, 0.18974578, -0.8094208, -0.79082036, 0.33411062, 0.5347054, 0.27587235, -0.036756635, -0.8620014, -0.3529083, 0.07143891, 0.30271924, -0.09173882], [0.0, -0.86458516, 0.43910563, -0.56528085, -0.32453364, 0.40872586, -0.995033, 0.49324858, -0.4445886, 0.34568822, 0.21924722, 0.9739473, -0.9833286, -0.8360629, -0.103277326, 0.45751917], [0.0, -0.7442858, 0.09550989, -0.54282373, 0.39039767, -0.026563764, -0.42956775, 0.4833175, -0.76366305, -0.4313833, -0.6961949, -0.97906876, -0.5102789, -0.2156409, -0.81010604, 0.94705606], [0.0, 0.4724511, 0.30215132, -0.20351112, 0.61273146, 0.64306164, -0.24606788, 0.20930278, 0.11832297, 0.79297614, -0.03160298, 0.25589097, 0.17158067, 0.29216993, 0.010176778, -0.97129893], [0.0, -0.7529981, -0.6525471, -0.73981833, -0.09092033, -0.6051139, -0.028019786, 0.025182128, -0.5014984, -0.76611876, -0.5961277, -0.7716322, 0.23918927, 0.53371644, 0.87577796, -0.15234578], [0.0, 0.9555454, -0.35632008, -0.7054627, -0.9476466, 0.29082, 0.29394376, 0.29291356, -0.23656595, 0.3308369, 0.07434666, 0.91626453, 0.40875995, -0.35258645, 0.63793087, -0.9963932], [0.0, 0.055285573, 0.76157546, 0.88770866, -0.988657, -0.8516755, 0.24948204, 0.8244915, -0.08930862, 0.5695777, 0.8709631, 0.5978751, 0.51472616, 0.7840295, 0.29346383, -0.43575972], [0.0, 0.40748775, 0.71593547, -0.9118936, -0.13836372, -0.052235246, -0.30136508, -0.04358828, 0.8672273, 0.7594218, 0.39736474, -0.41219848, 0.3519119, -0.32087892, 0.11983669, -0.20227635], [0.0, 0.41470182, -0.8690562, -0.5830726, 0.68301225, 0.99216247, -0.70100856, 0.0660733, 0.43265426, -0.27058238, 0.15122902, -0.4955737, -0.62330097, -0.6859834, 0.12863481, -0.9117315], [0.0, -0.35596603, -0.43150038, -0.23749983, -0.9580097, 0.61639905, 0.22334468, -0.002120614, -0.7982571, -0.06993067, -0.30455393, 0.29527986, -0.73861885, -0.10054171, -0.8079381, -0.25463003], [0.0, -0.98281217, -0.18974197, -0.10678613, -0.2884478, -0.31479806, 0.7532613, 0.1906203, -0.31036013, 0.74199724, -0.10153663, 0.8153312, 0.45013535, 0.01237762, -0.003827691, 0.096592784], [0.0, 0.22133696, -0.96221495, 0.5446763, -0.94525194, 0.3159386, 0.81418395, -0.514291, -0.20153368, 0.24690735, -0.31771082, 0.4866246, 0.809273, 0.0060538054, -0.3833725, 0.0315367], [0.0, -0.6454878, 0.838357, -0.7227173, 0.8713548, 0.33548248, 0.08678281, 0.17561162, -0.69087434, 0.14775002, 0.53564024, 0.9130318, 0.34893286, 0.18027508, -0.17326057, -0.47571105], [0.0, -0.83388424, 0.06508529, 0.49328578, -0.21596944, 0.09608877, 0.75278115, 0.13955986, -0.33472222, 0.5332258, 0.01822555, 0.7400358, -0.97129536, 0.6562109, 0.19129646, 0.8809092], [0.0, 0.72797203, -0.19451058, 0.0930804, -0.5757238, -0.103227735, -0.3981325, 0.28668106, -0.9659693, 0.21938264, -0.90310717, -0.4710557, 0.010433555, -0.97564244, 0.5574825, 0.5773039], [0.0, -0.9900837, -0.6848743, -0.6730008, -0.40863508, 0.7814808, -0.5449495, -0.9083321, -0.868459, 0.77543163, 0.8370571, -0.51510614, 0.8126116, -0.110712886, 0.49309075, 0.09104407], [0.0, 0.50382686, 0.88437986, -0.84719515, 0.32066596, -0.6905098, -0.6832197, 0.8771808, 0.06606734, -0.47757787, 0.12862122, 0.16899431, 0.07313001, 0.8745053, 0.21098983, -0.47791785], [0.0, -0.064264655, -0.86902547, 0.15125477, -0.12935674, 0.10007942, -0.79593134, -0.6611874, -0.84633636, -0.656353, 0.76689076, 0.13844693, 0.54334855, -0.9259362, 0.083756804, -0.41087097], [0.0, -0.5227005, 0.76605654, -0.72028303, 0.49038947, -0.54906696, -0.93051124, 0.8963616, 0.4108001, 0.8643732, -0.9088285, 0.5919888, -0.42763585, -0.9561105, 0.4556855, -0.8648572], [0.0, -0.7700727, 0.27456844, -0.96829224, 0.34222353, -0.094473004, 0.5699434, -0.9045348, 0.5256479, 0.28581464, -0.8200531, -0.6019408, 0.7832277, -0.071738124, 0.32612693, -0.57340425], [0.0, 0.8263335, -0.53499097, -0.3747229, -0.19688785, -0.36553663, -0.6030645, -0.303106, -0.30896825, -0.1887368, -0.60988325, -0.13731039, 0.123539805, -0.26927322, -0.9672947, -0.7676933], [0.0, 0.63285685, 0.8758795, -0.10771215, 0.15446079, -0.94365406, -0.8702812, -0.6535225, 0.58220625, 0.95519876, 0.34061086, -0.84392095, 0.35820115, -0.3065676, -0.89579487, -0.16419685], [0.0, 0.8755369, 0.21880925, 0.48072088, -0.44516867, -0.4536273, 0.869138, -0.42719907, 0.3052789, 0.12947738, -0.7284868, 0.028021216, -0.90954685, -0.9588475, -0.9141176, 0.42154205], [0.0, -0.38433164, 0.9975159, -0.112180114, 0.04668653, -0.5328471, -0.2805814, 0.2779833, 0.31588566, 0.017092109, 0.42929304, 0.17637694, 0.32786095, 0.4248773, 0.9647188, 0.042083144], [0.0, 0.3102473, 0.44408906, 0.4495641, 0.13400519, -0.47065872, -0.07119119, 0.009946942, -0.8672924, 0.38196695, 0.5448322, -0.47402447, 0.0074213743, 0.5884197, 0.71289015, -0.5387785], [0.0, 0.10322869, -0.10748494, -0.0018063784, -0.39412755, -0.20314324, 0.83847547, 0.504951, -0.4943146, -0.49024338, -0.6896858, 0.39127862, -0.984982, -0.1974467, -0.89070797, 0.36453807], [0.0, -0.7169893, 0.4513749, 0.11813223, 0.11366832, 0.04001367, 0.78704953, 0.34022582, 0.6871476, 0.9470167, 0.57398534, 0.938787, 0.26903927, -0.33767456, 0.6206877, -0.19289649], [0.0, 0.7961302, 0.39778554, 0.41955578, 0.5868249, -0.8620379, -0.5047645, -0.40033263, -0.1641308, -0.74386907, 0.92870975, 0.59519863, -0.3396551, 0.66592956, 0.20101154, -0.26504034], [0.0, -0.9812975, -0.030581117, 0.8781631, 0.73543954, -0.011948705, -0.60284156, 0.005862117, 0.9920752, -0.59619707, -0.4146952, 0.3663057, -0.29913372, -0.8347857, -0.42841, 0.001691699], [0.0, 0.36612165, -0.72751904, 0.73669195, 0.6117699, -0.63198876, 0.96999526, -0.3064925, -0.823719, 0.5601032, 0.48087513, -0.45026773, 0.033801436, 0.6722007, -0.4698822, -0.76423836], [0.0, -0.8642266, 0.7841072, 0.06914675, 0.78969383, 0.66360617, -0.1644963, 0.81485033, 0.43828762, -0.038775563, -0.2406553, -0.9176805, 0.846066, -0.7480421, -0.7011497, 0.2724849], [0.0, -0.082423806, 0.29786313, -0.9944749, 0.45223558, 0.40284836, -0.09784305, 0.41284645, -0.79434085, -0.27431387, -0.34324664, -0.6001808, -0.045856833, -0.44923252, 0.5481825, 0.92685056], [0.0, -0.47309417, -0.0099083185, 0.31856763, -0.7678938, 0.107149005, 0.37623465, 0.70482755, 0.63047814, -0.31015772, -0.35915345, 0.45553577, 0.10963571, 0.8097584, 0.03707087, -0.7439201], [0.0, 0.4607967, 0.92594886, 0.60023904, -0.7343087, -0.7900057, -0.5339808, 0.3577994, 0.71707845, 0.9816985, 0.23948252, -0.9287317, 0.6583338, -0.09087098, -0.58711904, -0.22627223], [0.0, 0.9832089, -0.57574314, -0.26069635, 0.7958331, 0.45395052, 0.49833596, 0.5052302, 0.6482229, -0.66129756, -0.60959405, 0.9791422, 0.015342832, -0.9126129, 0.9096513, -0.41729516], [0.0, -0.019810796, -0.5969011, -0.14145958, 0.15768254, 0.9365511, -0.9880531, -0.732368, 0.09372413, 0.19655955, 0.83720064, -0.8248496, 0.0115379095, -0.8869698, 0.34786475, 0.58224654], [0.0, 0.21329534, 0.21983469, -0.15722239, -0.009276271, -0.26167005, -0.98047066, -0.8567748, 0.030572057, 0.59076214, 0.88211584, 0.34246743, 0.13835132, 0.4641577, -0.05055082, -0.59718865], [0.0, 0.92182946, -0.4449367, 0.553288, -0.03492415, 0.376675, 0.061536193, -0.08321226, -0.39806312, -0.85984015, 0.17163432, 0.9813187, 0.6168177, -0.15235746, 0.80747914, 0.5484531], [0.0, -0.50838226, -0.36299437, 0.21476734, 0.1714865, -0.7386985, 0.19645274, -0.31736296, -0.898839, 0.4383613, -0.8823142, 0.06355989, 0.023855805, 0.12598765, -0.6752696, 0.6412897], [0.0, 0.061930537, 0.42790234, -0.45770305, -0.5697028, 0.50778055, 0.926177, -0.8785715, 0.36987102, -0.45395225, -0.98476243, 0.006889701, 0.8937478, -0.5527579, -0.45353216, -0.009574771], [0.0, -0.44383544, -0.48776835, -0.323538, -0.41816777, 0.5113845, -0.6724441, 0.9059129, -0.35202903, 0.5147846, -0.2320739, 0.76579547, -0.026489615, 0.40440953, 0.3875748, -0.2362634], [0.0, 0.16569126, 0.42589748, -0.877136, 0.3383206, 0.15997112, 0.6117282, 0.28208125, 0.97821355, 0.91980886, 0.3337854, -0.551593, 0.46822155, -0.233657, 0.55305576, -0.21644461], [0.0, 0.05498135, -0.12564313, 0.14966238, -0.6916568, -0.12968314, -0.0668515, -0.005685687, -0.92105365, 0.42924345, 0.5335305, -0.54098886, -0.23458898, 0.5393374, -0.29349107, -0.48290223], [0.0, 0.09385264, -0.7899654, 0.26103342, 0.06137812, -0.89310217, -0.76557803, -0.8319123, 0.07601559, 0.33808577, -0.14822114, -0.18595874, 0.7714608, -0.021984935, 0.13546216, -0.17765391], [0.0, 0.76211286, 0.45403802, 0.70716095, -0.4340722, -0.73187304, -0.0048407316, -0.84633756, 0.98013973, -0.49864167, -0.7037797, 0.43018568, 0.8999307, 0.9046624, 0.1058861, -0.22738302], [0.0, -0.8681636, -0.21850598, 0.6083355, -0.8930719, 0.46439493, 0.5176537, -0.9154887, -0.79189897, 0.43104804, -0.12707269, 0.756593, -0.95796347, 0.72664046, 0.1364187, 0.4013859], [0.0, 0.29277742, -0.8494046, -0.9890852, 0.361076, -0.31486672, 0.45987833, 0.11125982, -0.24938118, -0.38188142, -0.6879096, 0.5349598, 0.75284743, -0.073771834, -0.7573681, -0.9102032], [0.0, -0.7564764, -0.30958813, -0.6317663, 0.9193685, 0.1733104, 0.15937674, 0.44603717, 0.6607039, -0.35768527, 0.4645847, -0.6890707, -0.9001491, -0.21378338, -0.83062553, 0.012160897], [0.0, -0.6880362, -0.13760865, 0.89967203, -0.88400245, -0.08296096, -0.6198823, -0.044505477, 0.03251183, -0.7427418, 0.10422456, -0.2261473, -0.172248, -0.5616786, -0.8461065, 0.823015], [0.0, 0.044242024, -0.3674981, 0.22959268, -0.21920073, -0.14891922, 0.87431407, -0.049884915, -0.848757, -0.92162395, 0.96723104, 0.63659835, 0.30464566, -0.6350794, 0.103140235, 0.10764229], [0.0, 0.7095804, 0.37202227, 0.8429198, -0.6092233, 0.96462274, 0.9212854, -0.94241786, 0.9612696, 0.8529377, 0.5464418, 0.5223465, 0.6180322, -0.6300249, 0.74647284, -0.672045], [0.0, -0.5754973, -0.21373928, 0.25264084, -0.46681446, 0.6315615, -0.25262278, 0.84029126, 0.8297243, -0.72203207, -0.41504472, -0.7004969, -0.051431537, 0.28734672, 0.99048805, -0.8137922], [0.0, 0.43172538, 0.39232504, -0.8267176, -0.6177358, 0.88597083, -0.40699452, -0.76557374, 0.3850969, 0.036125064, 0.41032016, -0.11621201, 0.21430957, -0.16428483, 0.46440423, -0.9074788], [0.0, -0.40604538, 0.97780156, 0.4540738, 0.49655044, 0.7468145, 0.9202018, -0.75627303, 0.892313, 0.48888433, -0.056486964, 0.4592439, -0.09032357, 0.3761605, -0.122348666, -0.76157093], [0.0, -0.9359362, 0.28889358, -0.2934546, 0.9737637, 0.025403619, 0.72332525, -0.8114891, 0.05320418, 0.69708824, 0.8291848, -0.23802793, -0.80881286, -0.49456638, -0.002215743, 0.5680921], [0.0, -0.93477035, 0.4552611, 0.40561926, -0.21226013, 0.8214264, -0.059543967, -0.24393284, 0.09182036, -0.8144884, -0.8576033, -0.58161944, 0.09544265, -0.62593985, 0.22469461, 0.8188362], [0.0, -0.8638327, 0.8130634, 0.7573347, -0.7789304, -0.5829665, -0.8608146, 0.7473271, -0.14438188, -0.7330878, -0.6432693, 0.12328255, 0.906749, -0.42347497, -0.82641745, 0.73878765], [0.0, 0.06724322, 0.59596753, 0.99078417, -0.77713084, 0.79366803, 0.5607743, 0.1552943, 0.11895764, 0.6392865, 0.95040464, 0.9354186, -0.38819116, -0.050634027, 0.7338183, -0.5713219], [0.0, 0.61712193, -0.266725, 0.19574249, 0.11665928, 0.78321433, -0.011175275, 0.21333396, 0.9623852, 0.42144287, -0.9412577, 0.27725112, -0.03371775, -0.70719886, -0.09798205, -0.6464102], [0.0, 0.22937548, -0.95533204, -0.696095, 0.13629973, 0.8709018, -0.7635052, 0.79674315, -0.3544876, -0.83433485, 0.7595229, 0.57281876, -0.65513873, -0.33563584, 0.48475778, -0.82005334], [0.0, 0.6912105, -0.68367386, 0.61638784, 0.08880627, -0.57148737, 0.51807, -0.35830992, -0.09143746, -0.50377744, 0.09681308, 0.68687916, -0.4860949, 0.53629375, -0.4216115, -0.42002434], [0.0, -0.6269858, -0.21077907, -0.18498576, 0.09711659, 0.96400785, -0.17367065, -0.97777486, -0.8093536, -0.3074476, 0.11332214, 0.7948499, 0.678277, 0.30269563, 0.6068888, -0.81880546], [0.0, 0.06336272, 0.79111934, 0.5508797, -0.8737254, 0.6296928, -0.11672199, 0.7670212, -0.8123081, -0.815804, -0.15548456, 0.62872386, 0.68343186, -0.6675296, -0.08469784, -0.607387], [0.0, 0.012942672, 0.29157317, 0.15918458, -0.49806088, 0.77034974, 0.10016358, 0.9220178, 0.18790042, -0.9020817, 0.5127542, -0.33603352, 0.5882268, -0.35380763, 0.43642533, -0.14918005], [0.0, -0.9346664, -0.6350794, -0.8254733, 0.15557086, 0.17422402, -0.6386447, 0.9880576, 0.01950562, 0.97967076, 0.3752247, 0.86050534, 0.063761115, 0.35769188, 0.0529114, -0.80844426], [0.0, 0.453987, -0.74669766, -0.047319055, 0.1759733, 0.82840776, -0.40137666, 0.8019631, 0.120642066, -0.4795708, -0.9995098, 0.4089216, 0.22826517, 0.039552093, 0.6828177, 0.9013648], [0.0, 0.5091052, 0.043255925, 0.5837729, -0.21947348, 0.29196417, 0.35555017, 0.0040727854, 0.021887422, 0.6027045, 0.20882022, 0.5030551, -0.90221524, -0.1431154, -0.76768637, 0.97819066], [0.0, -0.9490235, -0.6112456, 0.8313978, 0.13463366, 0.6589911, -0.030836225, -0.22165501, 0.99890137, -0.9325125, 0.71366787, -0.62709737, -0.035137534, 0.62171674, -0.9603524, -0.39200515], [0.0, -0.339539, 0.56764746, 0.19853914, -0.32052702, 0.5616398, -0.08192408, 0.27358472, -0.20376241, 0.37051785, -0.24084938, -0.26390547, 0.40394032, -0.9358635, 0.50532055, 0.886106], [0.0, 0.19276655, 0.22287667, -0.69108534, -0.7857139, -0.15505564, -0.24760664, -0.84251547, 0.88055587, -0.09988153, 0.80723476, -0.92715144, -0.042033076, -0.3798501, 0.6168208, -0.47730058], [0.0, -0.62899137, 0.8391206, 0.54080176, -0.8040087, 0.43618906, 0.6388891, -0.86625195, -0.48969406, -0.60939854, 0.5011544, 0.20420444, -0.45504683, -0.70086217, 0.21744883, -0.97771764], [0.0, 0.529346, 0.068759084, -0.82815266, 0.32554018, -0.7640343, 0.98839307, 0.53679204, -0.17112982, 0.51073384, 0.10892141, -0.20152652, 0.24929082, -0.32077187, 0.88326454, -0.15606868], [0.0, -0.85144496, 0.9350343, 0.036391616, 0.6576984, 0.0445143, 0.8422036, -0.22838128, 0.0871166, -0.1206063, -0.030076146, -0.73322415, 0.31494224, -0.8674717, -0.0011934042, -0.111489415], [0.0, 0.099671006, -0.30903453, 0.046063542, -0.40307587, 0.55214953, -0.7222464, 0.890388, 0.13146818, 0.76455927, 0.4435295, -0.84638524, -0.48766297, -0.9806657, -0.2276417, 0.6428859], [0.0, -0.7558389, -0.28684753, -0.2890088, 0.9597428, -0.3954062, -0.99361897, 0.32268703, 0.9544568, 0.85310006, -0.49089664, 0.64434695, 0.9897282, 0.5097661, 0.19762719, -0.54273766], [0.0, -0.7905514, -0.37471622, 0.9716227, 0.49072373, -0.017193198, -0.3301682, 0.25834763, 0.07515228, -0.5068335, 0.38524234, 0.6002536, 0.3637079, -0.8634167, 0.07364786, -0.34088176], [0.0, 0.40576565, -0.16296399, -0.29548877, -0.64534235, 0.9839375, 0.7080157, -0.07941091, -0.6933818, -0.2797014, 0.5576947, 0.60341096, 0.6022332, 0.49004304, 0.67188287, 0.4543153], [0.0, 0.303352, -0.757746, -0.07492077, 0.73689556, -0.8730762, 0.62865496, 0.43668044, -0.41143078, -0.6884265, -0.3170516, 0.82330775, -0.41033095, 0.5738225, 0.5168154, 0.101395965], [0.0, -0.7281239, -0.80302453, -0.41620463, 0.08136356, -0.69768596, 0.8070071, -0.32419533, 0.95429397, -0.77137136, 0.2090131, 0.78611517, 0.9384053, -0.3743598, 0.81859326, 0.7912805], [0.0, 0.58914685, 0.08302963, 0.2903012, -0.27393407, 0.5866802, 0.031647563, -0.6613996, -0.7012627, 0.0052593946, 0.92954016, 0.0028127432, -0.13684332, 0.69796896, 0.081065774, -0.11292088], [0.0, 0.65322065, 0.5925448, -0.85062885, 0.9878702, 0.9882517, 0.29955494, -0.17212999, -0.4682986, 0.6489122, 0.89278316, 0.18491518, -0.04422605, 0.4915644, 0.1839248, -0.106524825], [0.0, 0.9893117, 0.60579705, 0.43065703, -0.57821506, 0.26177132, -0.09601581, -0.4698586, -0.6746495, 0.3406402, 0.8763952, -0.97174907, 0.3502313, 0.43903744, 0.12551534, 0.13719785], [0.0, -0.9445281, 0.6644912, 0.021885276, -0.7721734, -0.5684168, -0.5141284, -0.07977402, 0.8477602, 0.7497041, 0.4431013, 0.013579011, 0.7069614, 0.5450797, -0.7817955, 0.057299256], [0.0, -0.40336865, -0.8776586, -0.06094134, -0.7892847, 0.93046546, -0.9425297, 0.79841256, 0.6995859, 0.5310166, 0.42730963, 0.14846122, 0.38997376, -0.15057504, 0.27686274, -0.77788067], [0.0, -0.13395655, -0.69042206, 0.9964247, -0.18179762, -0.5053975, 0.49264133, -0.68792295, -0.26327246, -0.53639835, -0.69715905, -0.70937276, 0.14826357, -0.9300382, 0.79248166, -0.00017154217], [0.0, -0.2697901, -0.24854028, 0.74482226, 0.5581558, -0.34383935, -0.28067392, 0.004734397, -0.91081214, -0.52497, -0.044756055, -0.11833084, -0.5048558, -0.7693219, -0.6412406, 0.14476192], [0.0, -0.13209307, -0.22122252, 0.5431235, -0.49829596, 0.7756407, -0.17412293, 0.03091228, 0.33411086, 0.9627569, -0.067709565, -0.64599776, -0.6000127, 0.6261933, -0.29968733, 0.8343799], [0.0, 0.9594605, -0.1398691, -0.49219078, 0.8950629, -0.63811207, 0.40888703, 0.37157023, -0.06682289, -0.46857566, 0.012278199, -0.12028825, 0.25561154, 0.51958776, -0.38700956, 0.50678515], [0.0, -0.5515613, 0.4050411, -0.23938835, 0.8312774, -0.47927827, -0.24107778, -0.9397898, -0.7366903, -0.55499333, 0.5426073, 0.06889236, -0.53906435, -0.20493662, -0.05298817, -0.22663558], [0.0, -0.76960397, -0.91617465, 0.99464846, 0.10507572, -0.7691691, 0.8745649, 0.3021673, 0.36621654, 0.038420796, 0.11499274, 0.9710345, -0.37663406, -0.036865592, 0.25451744, 0.9034593], [0.0, 0.039114833, 0.28116405, -0.93021655, -0.9627428, 0.7100477, 0.90463495, -0.54148, -0.19317591, -0.33564395, 0.6751666, 0.39501822, -0.32297176, 0.9089911, -0.24309123, -0.40003318], [0.0, 0.7706194, 0.2559284, 0.6312349, 0.5931828, -0.9147377, -0.58051676, 0.7192056, -0.2839102, -0.1840328, 0.17912853, 0.9655435, -0.95617986, 0.23318589, -0.39837283, 0.5802047], [0.0, -0.12334931, -0.90962625, -0.19842327, -0.13148296, 0.6475849, -0.54749435, -0.55993456, -0.038557887, -0.50474805, 0.010437608, 0.31391323, 0.88672924, -0.5227625, 0.38649952, 0.3712479], [0.0, -0.68505263, 0.6956651, 0.8170459, 0.8266678, 0.71129894, -0.7907741, -0.89262605, 0.7881317, -0.08857334, 0.112003446, 0.4067551, -0.5629379, -0.019388556, 0.96867037, -0.14691961], [0.0, 0.8101969, 0.64594674, -0.45413417, -0.47862524, -0.20825827, -0.8364575, -0.21501338, 0.7915478, 0.7720704, -0.5708665, -0.14704645, -0.33013052, 0.16855395, 0.09749353, -0.28006095], [0.0, 0.7370813, 0.3279289, -0.39865988, -0.84185815, -0.61494344, 0.19576037, 0.16588843, -0.8145263, -0.61432856, -0.76158476, -0.761708, -0.35830873, -0.6727457, 0.12354624, -0.8724556], [0.0, -0.7345691, 0.051763892, -0.5141184, -0.58737534, -0.6638231, -0.10361588, 0.5962763, 0.73176646, 0.6709306, 0.9251356, 0.09313071, -0.83375645, -0.043422103, 0.20193303, 0.25916445], [0.0, -0.5107793, 0.27999556, -0.33430904, -0.25984138, -0.11716282, -0.20905316, 0.8388374, 0.31921446, 0.07036793, 0.042449832, 0.4714669, -0.48732346, -0.073786855, 0.82598495, -0.90776515], [0.0, 0.307963, 0.070495486, -0.1014601, -0.4283437, 0.6435561, -0.6818211, 0.67735624, -0.055390954, 0.96794176, 0.76198363, -0.8738189, -0.21733296, -0.26832026, -0.48911947, -0.31756037], [0.0, -0.3669178, 0.09738886, 0.66177154, -0.27699536, 0.7099023, -0.49517435, -0.6292448, -0.12343395, -0.55433315, 0.9710169, 0.49148, -0.30096787, -0.57841533, -0.051308036, -0.7736032], [0.0, 0.1987611, -0.061558366, 0.32650864, -0.2933194, 0.39587653, 0.51249003, -0.37445706, -0.90932226, 0.10711753, -0.77001333, -0.75002027, 0.7254331, -0.7815232, -0.2279898, 0.87594104], [0.0, 0.5315423, -0.05336106, -0.7842648, -0.8127382, -0.6391897, -0.9218719, -0.07976091, -0.8387296, -0.74017644, 0.30912793, 0.15258586, 0.86682796, -0.89629865, -0.63550353, 0.17541444], [0.0, -0.03788507, -0.2943253, 0.3293165, -0.29004115, -0.29197305, 0.107742906, 0.59400153, -0.8385544, -0.27002472, -0.49913567, 0.42188132, 0.96814394, -0.4697296, 0.58011866, 0.9792428], [0.0, 0.33119643, 0.14743936, -0.48126262, 0.92395043, -0.1611141, -0.3214056, -0.8879154, 0.7171309, 0.8616824, -0.67953825, -0.36769193, -0.4074301, 0.93719435, -0.8529606, 0.46187508], [0.0, -0.594937, 0.22013462, -0.6807761, -0.16490948, 0.07509649, -0.8171191, 0.49197376, -0.41220158, 0.7721181, -0.24972045, -0.059055448, -0.74243975, -0.66914535, 0.89380217, 0.65498996], [0.0, 0.5793891, -0.10732567, -0.8000369, 0.44846117, 0.37765896, 0.9185114, 0.12836802, -0.6808603, -0.4057271, 0.9490831, 0.67158484, 0.5335207, 0.37912834, -0.6633258, -0.2971024], [0.0, -0.36662143, -0.017441392, 0.3876897, 0.78825164, -0.35689253, 0.68206286, 0.09289634, -0.09190786, 0.5389304, 0.070583224, 0.52044916, -0.05005586, 0.6002724, 0.50706005, -0.045565486], [0.0, 0.7247143, -0.47883838, -0.9707649, 0.5744107, 0.11407554, -0.63244677, 0.7875509, 0.1058656, -0.2747268, 0.80029917, -0.6138553, 0.8372946, -0.6256697, -0.8022375, -0.15184224], [0.0, 0.018227935, 0.47327983, -0.9056492, -0.7297149, -0.23939121, -0.6465616, 0.30569375, -0.8574109, 0.15252364, -0.12059367, 0.2945112, -0.6780555, -0.9139266, 0.100779176, 0.60896873], [0.0, -0.0905751, 0.27545083, 0.95019484, 0.0165838, -0.29043525, -0.025933862, -0.7300322, -0.30080694, 0.45084178, -0.37402242, 0.03955829, -0.8723235, -0.3585195, -0.5412895, -0.92952275], [0.0, 0.7838588, -0.9127586, 0.16607249, -0.022531629, 0.307634, -0.81356573, 0.974267, 0.16313136, -0.022317767, -0.76812005, -0.8584187, -0.37826914, -0.9962623, 0.020728946, 0.6910615], [0.0, 0.021359324, 0.31818664, -0.63258886, 0.5077529, 0.7554784, -0.3394994, 0.9603889, 0.67811084, -0.9261899, -0.03771174, 0.15354002, -0.016284347, 0.49437273, -0.65391946, -0.2605409], [0.0, 0.7398014, -0.12080729, -0.73473144, 0.29065287, -0.80882883, 0.85480547, -0.32032865, -0.90873647, 0.84320736, 0.87783647, 0.56012154, -0.8915112, -0.09871662, -0.021374822, -0.7520015], [0.0, -0.118664384, 0.031197906, 0.48831737, 0.19756234, 0.43580997, -0.16892374, 0.48944175, -0.3796596, -0.5190794, -0.5047316, 0.41413343, -0.27251047, 0.5616791, -0.113621354, -0.26833123], [0.0, 0.9530072, -0.959383, -0.012474656, 0.27483237, -0.29565114, -0.9053228, 0.4831413, 0.60106254, 0.0038944483, 0.35999358, 0.036409736, -0.7449825, 0.3866068, 0.99992466, -0.8001528], [0.0, -0.42666382, 0.3542744, -0.6191258, -0.34827918, 0.5531404, 0.69068646, 0.14041793, 0.901917, 0.7324383, 0.64985776, 0.56574607, 0.64403534, 0.9157276, -0.12487352, -0.18038404], [0.0, 0.32643545, -0.7010679, -0.837327, 0.6857252, -0.70546985, 0.7825427, 0.18214309, -0.54044527, -0.7991669, 0.37520182, -0.33035153, 0.6889081, 0.81523204, -0.4873914, 0.54912996], [0.0, -0.101260304, 0.5814388, 0.7674792, 0.9285073, -0.60025376, -0.98063016, 0.19365418, -0.6593859, -0.67621946, 0.13547385, 0.9243467, 0.399495, 0.17516005, 0.23834383, -0.8498311], [0.0, 0.77763915, -0.0340966, -0.73143363, -0.500472, -0.79576516, -0.12344229, 0.12091696, 0.31860316, 0.33725512, -0.053959966, -0.9044812, 0.4385599, 0.4768263, 0.41095388, -0.65297556], [0.0, 0.6165376, 0.034121633, 0.5343504, 0.96551824, -0.7527919, 0.5556886, 0.2908162, 0.32297957, 0.086981416, 0.79655576, 0.73314905, -0.7762382, -0.13873279, -0.6504562, -0.9242861], [0.0, 0.86139846, -0.76934314, -0.28611416, -0.34477156, 0.6463492, -0.2376703, 0.010203242, -0.11269605, 0.19081223, 0.18860996, -0.113919616, 0.481439, 0.6550691, 0.10108006, 0.16170156], [0.0, -0.24446523, -0.04488361, 0.26150596, -0.5237219, -0.36329502, -0.4509465, 0.60382915, -0.9664533, -0.9885595, -0.6303849, 0.66712, 0.59969187, -0.050494075, -0.9214237, -0.50671], [0.0, -0.093488574, 0.38013613, 0.21838892, 0.57575727, 0.36572134, -0.8877411, 0.2831427, 0.03764379, -0.35829967, 0.37955344, 0.3966366, 0.25291097, -0.8561897, -0.07539809, -0.0045357943], [0.0, 0.30058253, -0.054165244, -0.79547286, 0.7464111, 0.30868495, 0.1461693, 0.6874058, -0.8064866, 0.14338267, -0.79819727, -0.37129992, -0.35887545, 0.33749974, 0.48441064, 0.30975163], [0.0, 0.47885144, -0.6888144, -0.5908763, -0.26024932, -0.58444566, -0.88193727, -0.741873, -0.5503401, 0.16032398, 0.35422242, 0.25968754, 0.17968524, 0.9326265, 0.86434793, 0.45703876], [0.0, 0.661824, 0.7438569, 0.14116347, 0.18240511, -0.62112373, -0.78406, -0.012479186, 0.12416041, 0.8689406, 0.6443355, -0.8347094, -0.44181222, -0.8975971, 0.060761094, -0.62069553], [0.0, 0.06165898, 0.36312735, 0.42494166, 0.013537526, 0.32456672, -0.7876978, -0.5106744, -0.4911229, -0.21091568, -0.49131697, 0.2642554, -0.95159316, 0.83412695, -0.33411092, 0.25104558], [0.0, -0.4727754, -0.8089814, -0.8984828, -0.17938864, -0.19070661, -0.4412281, -0.5671913, 0.102968335, 0.5140245, 0.55143857, -0.618782, -0.16413343, -0.8451333, -0.20528352, 0.53637385], [0.0, 0.96609545, -0.14246023, -0.7997894, 0.08984959, 0.6144619, -0.6805768, -0.2688536, -0.55684847, -0.74969506, -0.87498426, -0.5611746, -0.85450983, -0.40999955, 0.34384954, -0.8696294], [0.0, -0.10948551, 0.63748646, -0.31506675, 0.85663724, 0.73105, 0.37568104, 0.7060633, 0.24836147, -0.34120888, 0.6430187, 0.7477915, -0.7092564, -0.17540085, -0.9950466, -0.8210354], [0.0, -0.16116726, -0.07637966, -0.6463442, -0.014054894, 0.5934162, 0.25158322, 0.18485916, -0.60112447, -0.99471664, -0.07022345, -0.8946779, -0.1637367, -0.027876496, 0.6098716, -0.93675995], [0.0, 0.48580897, -0.81159043, -0.6996274, 0.34742582, 0.114045024, 0.62070894, -0.81395364, -0.56079, -0.92512465, 0.108783364, -0.30962604, -0.0052307844, 0.98601604, -0.83801913, -0.739151], [0.0, 0.5968573, -0.5636944, -0.96477866, -0.86570525, 0.910856, 0.66676116, -0.009453654, -0.66820073, -0.1886915, -0.66064405, -0.83653355, -0.86421204, -0.5587985, -0.6275785, 0.4666592], [0.0, 0.031247973, 0.20190442, -0.7655275, 0.4683007, 0.028072476, -0.04069698, 0.73919415, 0.26129878, 0.29226363, 0.10973036, -0.51414293, 0.18155038, 0.018065095, -0.55210847, 0.6316531], [0.0, 0.84167314, -0.6041495, -0.659117, -0.3270418, 0.009652495, 0.7007394, 0.46734726, -0.12273419, 0.14022195, -0.96537375, 0.73450637, -0.77452564, -0.027458787, 0.72414565, -0.3430938], [0.0, 0.5911236, -0.54337925, -0.8049214, 0.5396838, 0.021568894, -0.26575416, -0.5474314, -0.26419133, 0.71870637, 0.040973544, -0.6523266, -0.46978492, -0.28437322, -0.06765044, 0.47307003], [0.0, -0.34575862, 0.21815383, -0.23681152, 0.31148684, 0.6666906, -0.44959587, -0.47901577, -0.23080933, 0.38694346, 0.11072838, -0.3946609, -0.7688551, -0.15549505, 0.6054034, -0.35712093], [0.0, -0.06590712, 0.31953967, 0.025034547, -0.9206295, 0.6793828, 0.7932956, -0.8217616, 0.015407205, -0.9870374, 0.19172418, 0.23029673, -0.8147559, -0.16859162, -0.379044, 0.8509011], [0.0, 0.44778097, -0.30366796, 0.6658282, -0.36745042, 0.19520342, -0.7559657, -0.6173019, -0.9400449, -0.28197974, -0.6556146, 0.102093816, 0.9095328, 0.87119627, 0.67742395, -0.014692903], [0.0, -0.76480937, 0.20290053, 0.060073256, 0.41143835, 0.60734797, 0.4120916, 0.523247, -0.59449524, -0.83818436, 0.15613544, -0.99480724, 0.15040958, 0.75163937, 0.63548446, -0.48121947], [0.0, 0.569355, 0.3148209, -0.59316367, 0.6419163, 0.76792026, -0.6972902, 0.03743732, 0.9952705, -0.04186499, 0.04384315, 0.53278494, -0.32704777, 0.5447974, 0.9114826, -0.6938045], [0.0, 0.34862912, 0.5262923, -0.25263423, 0.02356255, -0.09810674, -0.8149092, 0.64199066, -0.23015058, 0.7341411, 0.7028384, -0.92087674, -0.41672915, -0.017555118, 0.63534784, -0.6020085], [0.0, 0.47366154, 0.24808156, 0.7733474, 0.56608796, -0.40752548, 0.006186366, -0.8800552, -0.9904506, 0.43269265, -0.35519046, 0.3906597, -0.22095144, 0.93778324, -0.50864285, 0.50954556], [0.0, -0.7734959, 0.7421689, -0.52258986, 0.32109773, 0.7225585, -0.20343935, -0.91911364, 0.3279065, 0.91410995, -0.16877115, 0.53332806, 0.9445627, 0.74299455, -0.20702398, 0.45865762], [0.0, -0.0034624338, -0.0101162195, -0.86642575, 0.88070965, 0.27441752, -0.97267985, -0.47127527, -0.77313495, -0.31867617, 0.16869223, 0.2545408, 0.12644494, -0.7451849, 0.2452923, -0.64640856], [0.0, -0.1809243, 0.5668974, -0.32185668, 0.69445586, -0.1744467, -0.81533146, 0.24857628, 0.6233649, 0.6809509, -0.28336328, -0.46166557, 0.34080303, -0.430695, 0.21592891, -0.7796304], [0.0, 0.029429793, 0.44798076, -0.7450199, 0.09434426, -0.8180647, 0.014312148, 0.8018863, -0.22385514, 0.5977812, 0.03845775, 0.22243083, 0.001463294, -0.726145, -0.37371486, 0.05777514], [0.0, -0.4989745, 0.35704815, -0.36746973, 0.4491905, 0.5557146, 0.44506395, -0.5825018, -0.7954848, 0.77379465, -0.84104514, 0.13791263, 0.05536616, 0.7336333, 0.8595345, -0.96697736], [0.0, 0.21504247, 0.873744, 0.09297001, 0.63315606, 0.20301211, -0.024772048, 0.47586763, 0.9696431, 0.19764721, 0.4790877, 0.63794804, 0.30675328, 0.286353, 0.5886066, -0.5670182], [0.0, -0.7472739, -0.54937595, 0.55726504, -0.8417263, -0.6542647, -0.21622813, -0.5992691, -0.8688817, 0.88148975, -0.8669691, -0.48993295, -0.349199, 0.39764416, -0.9524183, -0.3895716], [0.0, 0.77840114, 0.4445566, 0.70366836, -0.46245784, 0.09154999, 0.42667472, 0.87174153, 0.17428124, 0.80671954, 0.18924415, -0.6598742, -0.45933408, 0.15808833, -0.21559441, 0.2112273], [0.0, -0.73075867, 0.53501606, 0.8164704, -0.04908502, 0.51446915, 0.5049789, -0.6505647, 0.32566726, -0.050814986, -0.65458465, -0.28493875, 0.77100015, 0.7097957, -0.7621443, 0.89369583], [0.0, -0.093520045, 0.17651665, -0.12825811, 0.73888063, -0.032375216, -0.061009765, 0.29101002, 0.6895292, 0.7084451, -0.5508806, -0.15821946, 0.20272315, -0.5959322, 0.7082119, -0.62261266], [0.0, 0.008274913, 0.24625099, -0.087649465, -0.93421054, -0.01890266, -0.81106925, 0.564553, -0.8909533, -0.48127192, -0.997488, -0.27093023, -0.8018322, -0.5895309, -0.5406119, 0.76214886], [0.0, -0.23732913, 0.27691066, 0.9510703, -0.50242084, -0.40988344, -0.64337707, 0.9357445, 0.47322953, -0.5216705, -0.27300376, 0.5128696, 0.12863004, 0.3860916, -0.29130882, 0.08515942], [0.0, 0.63914776, -0.58184093, 0.78381777, -0.08142769, -0.32681555, -0.516015, 0.70676804, 0.33429778, -0.85860467, 0.22309792, -0.67933464, 0.99837995, -0.4437546, 0.778476, -0.7914748], [0.0, 0.99898577, 0.9349363, 0.58452725, -0.5887634, 0.24085844, -0.19038379, 0.2646581, -0.026521087, 0.5418277, 0.099874616, -0.002133727, 0.07257068, -0.6230683, -0.51196665, -0.79477787], [0.0, 0.89144754, 0.5066509, -0.5731599, -0.783586, -0.6741102, 0.97062397, -0.28686208, 0.53188515, 0.08010137, 0.6140168, 0.9400699, -0.5141501, 0.79887176, -0.71258163, 0.42540824], [0.0, -0.9038472, 0.119959, 0.0053898096, 0.025075316, -0.8016696, -0.07521784, 0.3465954, 0.047611833, -0.8065734, -0.81355476, -0.940505, 0.3044001, -0.6553519, -0.4028179, 0.0072039366], [0.0, -0.77480793, -0.07454741, 0.2634288, -0.9029081, -0.6050903, 0.22760522, 0.7958801, -0.27341288, -0.23204887, 0.96659803, -0.8392055, -0.40753144, -0.62706304, -0.005707383, -0.45670456], [0.0, 0.5575018, 0.9797535, 0.7271633, 0.69078016, 0.42300403, 0.809813, 0.79876685, 0.23884523, 0.7749553, -0.7832751, 0.29173553, 0.10572398, 0.4747249, -0.3412456, 0.46882713], [0.0, 0.98393774, -0.23839796, 0.10329473, -0.8242254, 0.59128, -0.43475217, 0.81395197, -0.4395432, 0.27411878, -0.24672854, 0.5747752, 0.845695, -0.19345748, -0.31929058, 0.327263], [0.0, -0.5144715, 0.7648618, -0.0023680925, -0.26194376, -0.369538, 0.3793887, -0.78625894, -0.29651302, 0.31515062, 0.2674371, -0.8327384, -0.6536579, -0.24202049, -0.26329297, 0.6146853], [0.0, 0.8023665, 0.734401, 0.39206135, -0.2649073, 0.27415168, 0.819422, -0.4805159, -0.3730101, -0.83802295, 0.5044477, -0.18417966, -0.34615844, -0.3360328, 0.5159433, -0.076446414], [0.0, 0.7807472, 0.46591318, -0.65482974, -0.9296677, 0.18403494, 0.5827038, -0.7422068, 0.94398355, -0.9365897, 0.24110329, -0.6310799, 0.75674796, 0.0946151, 0.7357583, 0.07280147], [0.0, -0.5529484, -0.11677587, -0.3623671, -0.28033394, -0.2613842, -0.72968197, 0.80124617, -0.8249433, 0.33264983, -0.619996, 0.6429565, 0.98318005, -0.71774507, -0.840549, 0.12584531], [0.0, 0.19805992, -0.922287, -0.76349974, 0.73164344, -0.8848264, -0.39511555, 0.75488114, -0.3105685, 0.0901798, -0.6341758, -0.1829201, -0.9341998, -0.7460184, -0.71091866, 0.77498555], [0.0, -0.7876854, 0.8545296, -0.64541936, 0.7123699, 0.62111163, -0.58713764, -0.26559347, -0.49139112, -0.684726, 0.060843587, 0.7027173, -0.760268, 0.19401324, -0.87154293, 0.9237187], [0.0, -0.6501713, -0.27138823, 0.44838297, -0.27051967, 0.7091408, -0.19894087, -0.6573515, 0.63380814, 0.8287971, 0.23092091, -0.74356604, -0.9632087, 0.60528564, 0.51339364, 0.18963087], [0.0, 0.95283365, -0.61609215, -0.72397065, 0.20872939, 0.5764537, -0.32212824, -0.8480842, 0.51375914, 0.63365364, -0.43240303, 0.90930223, 0.5658169, -0.5500588, -0.9515424, 0.90777946], [0.0, 0.7690737, -0.10911453, -0.9515681, 0.22351635, 0.1876663, -0.7583022, 0.5341623, 0.95728683, -0.7239182, 0.015315652, 0.42344224, -0.058323026, -0.5410871, 0.11477959, 0.13059819], [0.0, -0.4106397, -0.2202779, 0.81377697, -0.5022072, -0.35172075, 0.35941947, -0.3299815, 0.21150148, -0.013784766, -0.23724163, -0.21958458, 0.06979406, -0.04945934, 0.74763703, 0.5851579], [0.0, 0.8538773, -0.4608943, 0.7363243, -0.32948703, -0.03613627, -0.18016326, 0.8050728, 0.48630345, 0.64477706, 0.2895707, 0.94546986, -0.3460235, 0.21131718, -0.30118483, -0.4926793], [0.0, -0.75121427, -0.46388882, -0.234429, 0.72939014, -0.45023006, 0.79663706, 0.8375523, 0.952121, 0.49760425, -0.6005303, 0.20206726, -0.9608619, 0.10797727, 0.7514875, -0.91274333], [0.0, -0.64715266, 0.41727865, 0.044315457, -0.42997187, 0.9664333, 0.5497954, -0.3173923, -0.47401255, -0.038137317, 0.83786774, 0.86843634, -0.9538598, -0.35832614, -0.2599451, -0.74013424], [0.0, 0.48619497, 0.31259, 0.4473952, -0.94219494, 0.4013585, 0.90733695, -0.618957, 0.022062182, -0.52278584, 0.8979144, -0.9364984, 0.5580969, -0.991688, 0.37721145, 0.18424499], [0.0, -0.46196526, 0.21770895, 0.26528108, 0.8912735, 0.48626435, 0.64930344, 0.99895954, 0.3060044, -0.032821298, -0.24112856, -0.0026193857, 0.8286772, -0.547213, -0.20987093, -0.48834532], [0.0, -0.15090787, 0.87796664, 0.8854804, -0.5498342, -0.26629227, 0.70169115, -0.18491709, -0.45673245, -0.9503753, -0.15285337, 0.74872255, 0.68597794, -0.13402116, 0.3324393, -0.19778597], [0.0, 0.026051402, 0.60537267, -0.0007702112, -0.59515566, 0.34287918, 0.42490637, -0.5170898, -0.15743291, -0.79367924, 0.97324157, 0.24597228, -0.34226674, -0.75188065, -0.79927635, 0.880749], [0.0, -0.5169746, 0.08707917, -0.30940336, -0.8888347, -0.20895875, 0.45535052, 0.091308, -0.71662116, -0.22806966, 0.77870345, 0.755512, 0.5727651, -0.520394, 0.30264914, -0.72295976], [0.0, 0.9815154, 0.3337158, -0.50292367, 0.70811534, -0.82072735, -0.13288367, -0.082485795, -0.7922323, 0.32606232, 0.97479844, -0.10010469, -0.6136293, -0.9129524, 0.98126674, -0.24082863], [0.0, -0.95073867, -0.5687098, 0.4081508, 0.054762483, -0.6904454, -0.68224573, 0.70189404, -0.15389669, -0.30539078, 0.83755803, -0.43546385, -0.7400887, 0.12824571, 0.4352764, -0.23645937], [0.0, -0.5421731, -0.14676559, 0.759835, -0.26410836, 0.14118278, -0.1677798, -0.8598964, 0.14963543, 0.7541759, -0.8669472, 0.64500546, 0.27370918, 0.16839015, -0.8295939, -0.9275701], [0.0, -0.27537054, 0.7084682, 0.6771517, 0.8991449, -0.22759044, 0.35892212, -0.69776964, -0.512664, 0.8200376, 0.08388126, 0.008746505, 0.46191657, 0.063926816, 0.26790392, 0.3161031], [0.0, 0.8658693, 0.52766395, 0.6526027, -0.56190556, -0.96549916, 0.42897284, 0.8822162, -0.6840863, -0.72416496, 0.530967, 0.94113445, 0.3554939, 0.30408967, -0.6058685, -0.47071975], [0.0, -0.53077596, -0.27895588, -0.32495683, 0.8996222, 0.03206265, -0.8929174, -0.78823924, 0.3686205, 0.81995034, -0.4078192, -0.11185634, -0.8169699, -0.9661188, 0.5377073, -0.054424167], [0.0, -0.10332835, 0.57342863, -0.12111366, -0.14580977, 0.85180783, 0.47049558, -0.33424133, -0.6508014, -0.31075162, -0.05536759, 0.012478471, 0.55809927, 0.6565335, 0.025371432, 0.13790691], [0.0, -0.99363184, 0.15461695, -0.83219075, 0.22657835, 0.8889284, 0.7359445, 0.8206241, 0.8985989, -0.15459621, -0.8555827, 0.41563952, -0.6911349, -0.68442154, -0.3392281, -0.9842169], [0.0, -0.8983774, -0.7830994, 0.38064444, -0.009222865, 0.027291656, -0.18413746, 0.028378367, -0.62728024, -0.5369312, -0.23115957, 0.29994643, -0.63599324, 0.06624639, 0.21216238, 0.6605084], [0.0, -0.4071142, 0.052615523, 0.35003674, 0.5981426, -0.82271266, -0.61615103, -0.19225824, 0.9531436, 0.7639055, -0.8069768, 0.9620738, -0.1864661, 0.04627669, -0.35443515, 0.8789604], [0.0, -0.23448408, -0.24804151, -0.24491298, -0.8155782, 0.9861524, 0.66260815, -0.21622217, 0.62833047, -0.8568485, -0.17524016, -0.04421699, 0.8947942, 0.045764327, 0.6719675, 0.3112167], [0.0, 0.14048755, 0.9789243, -0.9340217, -0.40115923, -0.94223166, 0.97583866, -0.36775082, -0.16795504, -0.7014396, -0.3540048, -0.6595719, 0.34467733, 0.51950836, 0.81225085, 0.8317039], [0.0, -0.9677479, -0.5500888, 0.78536844, -0.59440035, -0.19378269, 0.776078, -0.65425324, 0.9323182, 0.6738293, 0.4621917, 0.43326557, 0.38271868, -0.8209667, -0.8045902, -0.05942452], [0.0, 0.21156561, 0.21106017, 0.8954382, -0.35964936, -0.18377054, 0.72755456, 0.39099753, -0.9901054, 0.38339174, 0.5184481, -0.67612386, -0.2894966, -0.008902669, -0.3199889, 0.099877], [0.0, 0.16091692, 0.98265934, 0.32908762, 0.23552835, -0.53971785, -0.1438514, 0.04691565, 0.9601891, 0.00022757053, 0.14245951, 0.25486743, -0.18671715, 0.5285983, -0.62729883, -0.5013856], [0.0, 0.22737014, -0.60518616, 0.60368824, -0.25611085, 0.729372, -0.37744135, 0.9046562, 0.12675321, 0.65751195, -0.54331607, -0.25804633, -0.668123, 0.68157005, -0.10838997, 0.5961602], [0.0, 0.51920366, -0.96911, -0.9736068, -0.6440306, 0.8243177, -0.9848552, 0.3123747, 0.7589669, 0.18602479, -0.22603953, -0.21566689, -0.14093077, -0.3742215, -0.86606073, -0.81953955], [0.0, -0.5134739, -0.66947865, -0.17319643, -0.9281826, -0.9513676, 0.23567879, 0.9364011, -0.7482202, 0.37295234, -0.29312462, -0.05597794, -0.26074046, -0.19428194, 0.67151976, -0.9665189], [0.0, 0.45678675, 0.123382926, -0.025906444, 0.7927768, 0.37746322, -0.607269, -0.94947743, -0.020771384, 0.25159752, -0.61426467, -0.5507285, -0.8231416, -0.18755376, -0.6077849, -0.2174381], [0.0, -0.41257995, 0.5516374, 0.84977865, 0.5677786, 0.9572146, -0.8064239, 0.85416675, -0.45724314, -0.31821746, -0.62681437, -0.10176504, -0.7463772, 0.33328474, 0.7133601, 0.21214545], [0.0, 0.67886686, -0.61825246, -0.6917472, 0.7046418, 0.12303603, 0.60174036, 0.9777119, -0.23613298, 0.1596452, 0.17182696, -0.74845695, -0.4047665, -0.90772176, -0.69164777, 0.6670611], [0.0, -0.058997035, 0.726789, -0.22036779, -0.98416877, -0.9272795, 0.87443876, -0.43901604, -0.509623, -0.3756737, -0.9350097, -0.5748195, -0.81022024, -0.17747796, -0.34814352, -0.13232052], [0.0, 0.09955275, 0.4992522, 0.39914, -0.43247885, -0.31525105, 0.4022287, 0.061685443, -0.43012184, -0.8543534, 0.4216863, -0.65999436, -0.40584224, -0.66867805, 0.9273672, -0.40181273], [0.0, 0.49285042, 0.46451533, 0.27291334, 0.75046945, 0.8974385, 0.2850684, -0.31776422, -0.12937081, -0.79050255, 0.7340834, 0.49640024, -0.3151664, 0.88256955, 0.86408186, -0.01788652], [0.0, 0.5850651, 0.9582062, -0.57335466, 0.18809712, 0.44670236, -0.6671498, -0.28528374, -0.826529, -0.9840529, 0.5936341, 0.11070645, -0.9491849, -0.61239094, -0.19498265, 0.5941174], [0.0, -0.4012317, -0.021340966, 0.34669673, 0.44702256, 0.9058943, 0.29410255, 0.2126733, 0.32991874, 0.9132409, 0.21368253, -0.35029, -0.26939434, 0.823014, 0.7554257, -0.08072817], [0.0, -0.6678891, -0.46898, -0.26818198, -0.7833035, -0.13241208, 0.88284206, -0.36094254, -0.1975497, -0.9957545, 0.58015203, 0.7376065, 0.92288494, -0.68649197, 0.39285147, 0.9997604], [0.0, 0.90846324, -0.29376167, -0.8593402, 0.8541336, 0.43845952, 0.10192382, -0.8993988, 0.25382936, -0.7084136, -0.43463796, 0.44259202, -0.18445456, -0.6297896, 0.6177654, 0.98264694], [0.0, -0.465676, 0.085235715, 0.3255583, -0.82104754, 0.9058461, 0.37159216, -0.74606895, -0.3088085, 0.036281943, -0.87825084, 0.7934239, -0.89381456, -0.08115232, -0.41167492, -0.669173], [0.0, -0.67223644, 0.71638393, 0.42561352, 0.4660102, 0.3807627, -0.5804457, -0.29525942, -0.17932141, 0.16636121, 0.5605979, 0.11271894, 0.51157665, -0.34448856, -0.82709813, -0.7595253], [0.0, 0.94542456, -0.69191504, 0.48037922, -0.5189099, -0.29900855, -0.2540595, -0.68272614, 0.6482661, 0.9204109, -0.7124355, -0.645833, -0.77924347, -0.29035658, 0.0056961775, -0.28461808], [0.0, -0.9496536, 0.32732236, -0.6250541, -0.21837676, 0.02430594, 0.7628548, 0.38688934, 0.050688624, 0.50136375, -0.62848234, -0.60831136, -0.16033018, -0.9375601, 0.4813677, 0.2721604], [0.0, 0.9843564, 0.6073744, 0.37101996, -0.6137287, -0.85084414, -0.9277425, 0.55676794, -0.19403493, -0.40600485, -0.21438396, 0.846318, 0.8358395, -0.92922354, -0.57821506, 0.74952483], [0.0, -0.50799054, 0.24614489, 0.76385474, 0.33160722, 0.98303294, -0.25611895, 0.79149246, 0.044948697, -0.9068761, -0.27557486, 0.5496104, -0.52591103, -0.50281113, -0.9220073, -0.60905], [0.0, -0.9574907, 0.78375316, 0.23213279, -0.236462, -0.21470678, -0.942523, -0.4427399, -0.9683964, -0.65599775, 0.47242272, -0.74253273, -0.30542606, 0.12810004, -0.58328766, -0.6866634], [0.0, -0.55152386, 0.11567414, -0.451755, -0.2455324, 0.18832624, 0.59642196, 0.124219775, 0.5339854, 0.98949933, -0.056325316, -0.8681574, -0.6287925, 0.17687571, -0.9472313, 0.09371698], [0.0, -0.357212, -0.69625735, 0.98887396, 0.7478664, 0.2773813, 0.04277575, 0.22554839, -0.12149894, -0.38037723, 0.30253303, -0.66703296, -0.6162631, -0.14219344, 0.56016827, 0.74772644], [0.0, -0.8989198, -0.04574859, 0.027886748, 0.26053584, -0.52549833, -0.09021318, 0.8379984, 0.28133142, -0.29832023, -0.42258996, 0.8995762, -0.098552346, -0.52631396, 0.058094144, 0.27472317], [0.0, -0.593172, -0.6302302, -0.6226837, -0.48707741, -0.74203825, -0.905699, 0.5143726, -0.8544557, 0.527359, -0.7756629, -0.53654736, 0.6292534, -0.9555571, -0.3537752, 0.55077815], [0.0, 0.54166126, -0.3953628, -0.72769976, 0.48239553, -0.337187, -0.9518187, -0.5509929, -0.32906407, -0.4480371, -0.6389451, -0.8520913, 0.052848935, -0.09431946, -0.052428365, -0.6005787], [0.0, 0.2824911, -0.00236547, -0.92245007, 0.086277366, -0.020246863, 0.1695534, -0.2534806, -0.07632792, 0.8382795, 0.7132487, -0.5704693, 0.2976228, 0.24256003, -0.44789618, 0.040310264], [0.0, 0.16586506, -0.5500285, -0.8026097, -0.71739197, -0.20589054, -0.7073314, -0.5643632, -0.95013, 0.28666532, 0.7044704, -0.5508291, -0.9462702, -0.4593131, -0.102298856, 0.9806421], [0.0, -0.58572906, 0.11650622, 0.51230145, 0.045635343, -0.7805593, 0.37360275, 0.8507161, 0.68343925, 0.8242185, 0.6293504, -0.9214611, 0.24865496, -0.113478065, -0.7436731, -0.8664737], [0.0, -0.9486079, -0.34391063, -0.3750798, 0.63323355, -0.06336677, -0.9718032, 0.6145787, 0.12592947, -0.82068944, -0.76531553, 0.1247648, -0.8304095, 0.0077666044, 0.43100655, 0.27481568], [0.0, 0.43374288, -0.5191724, 0.35145175, 0.43641675, 0.13302672, 0.4726454, -0.51565856, -0.96783495, 0.3289796, -0.33834904, 0.09293544, 0.6511507, 0.05596006, -0.3980927, -0.9441829], [0.0, -0.3722636, 0.6306765, 0.7783921, -0.36713165, 0.68684983, -0.5653667, -0.13316548, -0.5678908, -0.17403257, 0.9309714, -0.99730515, 0.561044, 0.39091313, 0.92310333, 0.57787895], [0.0, -0.69199204, -0.76490974, -0.74942183, 0.88435245, -0.901803, 0.9973538, -0.36683816, 0.39803636, 0.07102239, -0.9796529, -0.55444545, -0.63242626, -0.9588382, -0.25334495, 0.38947427], [0.0, 0.86020684, 0.81333303, 0.77628565, 0.15366733, -0.27651805, -0.748132, -0.06113541, -0.7647302, -0.18148625, 0.92158484, 0.55635405, 0.43315995, 0.64790154, 0.5374675, -0.28898615], [0.0, 0.12514532, -0.729229, -0.69283986, 0.9006567, -0.5526776, 0.2664479, 0.5389757, -0.40383095, 0.274727, -0.9123671, -0.7741327, -0.7346456, -0.5206775, -0.7890749, -0.41078824], [0.0, -0.4078979, -0.8355837, 0.47553933, -0.6375222, 0.3703872, -0.65962934, -0.2508301, 0.29505146, -0.34998912, -0.2698843, -0.58038014, 0.72254014, -0.5608937, -0.1584512, -0.08122957], [0.0, 0.9159198, -0.56319374, 0.15040767, 0.42570126, -0.46663564, 0.5371065, -0.97075844, 0.9768746, 0.4544357, -0.45867914, -0.6053106, 0.9218452, 0.41973603, -0.10030329, 0.12871897], [0.0, -0.5302927, -0.19123971, 0.37732375, 0.24722326, -0.74329114, 0.1509291, 0.84351635, 0.17230928, 0.46306193, 0.40560758, -0.78084254, 0.4419738, 0.24177802, -0.90331554, 0.88227606], [0.0, 0.38333762, -0.33385247, 0.56494784, 0.41788948, -0.9423413, -0.67328644, -0.40242833, -0.6165959, 0.78128076, -0.27163857, 0.13051617, -0.6270335, -0.58449286, -0.8816209, 0.6913314], [0.0, -0.17577755, 0.6167047, 0.8420155, -0.47691458, -0.41804594, -0.5016288, -0.11082542, 0.9553542, -0.6133949, -0.7557008, -0.9512942, 0.49728405, -0.50103396, -0.72724104, 0.9000461], [0.0, -0.5109872, 0.88255215, -0.61227864, -0.50297326, 0.8423214, -0.3658468, -0.74775314, -0.7659652, 0.69647455, -0.26495332, -0.44799703, 0.58047867, 0.51483035, 0.43777072, -0.6002657], [0.0, -0.42310423, 0.85145664, 0.7179496, -0.10607135, 0.70276093, 0.7521944, -0.47551125, 0.39098656, 0.55186796, 0.23633921, 0.45253408, 0.60139084, 0.44157135, 0.12867391, -0.46796125], [0.0, 0.7933359, 0.31689203, -0.30780476, -0.5153081, -0.82873034, 0.40552628, -0.12477696, -0.9147203, -0.793982, 0.13239658, -0.08320367, 0.1919626, 0.59067583, 0.78961754, 0.9127655], [0.0, 0.28743446, 0.08816779, 0.6857741, -0.32754678, -0.9728763, -0.5772864, -0.023352742, 0.22371161, -0.36304158, 0.23741424, 0.8362026, 0.22679865, -0.7601087, 0.44961226, -0.12302077], [0.0, 0.2637273, 0.91318107, 0.25030768, -0.13020527, -0.8516321, -0.2529754, -0.46169728, -0.7775948, -0.8307104, -0.72216034, 0.8405676, -0.18303573, 0.46472728, 0.12408173, 0.029055], [0.0, -0.42263955, 0.78075314, -0.20834196, -0.91166425, -0.074275374, -0.050403476, -0.99619627, 0.73836017, -0.10450232, -0.6390853, 0.749393, 0.29540074, 0.2382766, 0.62942386, 0.14647758], [0.0, 0.11860192, 0.92887425, 0.5548923, -0.60611933, 0.4771639, -0.2566914, 0.4845246, -0.75342965, 0.3237964, -0.47931308, 0.14388883, -0.70017934, 0.9494772, -0.35870022, -0.68450904], [0.0, 0.58965254, -0.525974, 0.070439935, -0.6752951, -0.4577579, 0.13410914, 0.785892, 0.44439042, -0.030017257, 0.6090138, 0.5393853, 0.9614756, -0.3629436, -0.62781477, -0.15943849], [0.0, 0.25812376, 0.9861114, -0.6420145, -0.68565154, -0.155254, -0.43224925, -0.095728755, -0.3378877, -0.50335306, 0.86674714, -0.06790984, 0.4961511, 0.4185413, 0.16427863, -0.46136636], [0.0, -0.43019432, -0.9727106, 0.061543345, -0.7538996, 0.17001665, -0.31698555, -0.68786645, -0.13810408, 0.59626174, -0.9087336, -0.14057314, 0.015514731, -0.8073878, 0.13844979, -0.5247106], [0.0, 0.8427658, -0.5876643, -0.827723, -0.7585285, 0.37412965, 0.09038484, -0.06862295, -0.5755617, 0.2384311, 0.26971066, 0.6048093, -0.35919374, -0.19819891, -0.07659757, -0.015966535], [0.0, -0.95581913, 0.8129642, -0.12768137, -0.15843046, 0.9444151, -0.37121695, -0.20296037, -0.6251135, 0.7088125, -0.44866484, -0.6606946, 0.53555655, 0.21696389, 0.035194516, 0.9979813], [0.0, 0.22743952, 0.34715497, 0.4940561, -0.9206257, 0.66076446, 0.70645404, -0.34115523, 0.40047824, -0.044727445, 0.13630116, 0.9278779, 0.22247374, 0.2908572, 0.12342465, -0.9777703], [0.0, -0.7852826, -0.10857928, 0.39329517, 0.749846, 0.06567013, 0.13833702, 0.45120084, -0.19448197, -0.49446172, -0.766341, 0.0073946714, 0.9959898, 0.30577838, 0.06825006, 0.4583012], [0.0, -0.38652796, -0.9757383, 0.9826989, 0.83080983, 0.7755804, -0.2565245, 0.9376981, 0.2895857, -0.9396963, 0.49183595, -0.90666175, -0.7150414, -0.35683483, 0.28771627, 0.4101385], [0.0, 0.88161826, -0.89129305, -0.17037976, -0.45883983, 0.70387006, -0.80622673, 0.732754, 0.5863128, 0.6110413, -0.6489773, 0.8560846, 0.73678994, -0.4720587, 0.6026759, 0.41471374], [0.0, 0.6923902, 0.17347252, -0.80865264, 0.16650379, 0.32566512, -0.7768421, -0.40359443, -0.807255, -0.8251929, 0.5048597, 0.68596625, -0.9378824, -0.68658566, -0.61987036, 0.106209874], [0.0, 0.005966544, -0.21819365, 0.76598144, 0.9071772, -0.70185685, -0.1299423, -0.5797638, -0.6482358, -0.7977824, 0.1188823, 0.3668908, 0.23447526, 0.6864824, 0.9798682, -0.45557135], [0.0, -0.7144189, -0.963279, 0.69667053, 0.47009814, -0.8104682, -0.482135, -0.7943592, -0.28827566, 0.6996908, -0.47768968, 0.57443094, -0.61711305, 0.10975158, -0.8269539, -0.12660277], [0.0, -0.502592, 0.7604244, -0.07083452, -0.8968067, 0.70691895, -0.82149196, -0.52602357, -0.664644, 0.741802, -0.40953106, 0.4404906, 0.7673681, -0.3343305, -0.6828699, -0.45627326], [0.0, -0.9069364, -0.98781943, 0.08547008, -0.6507914, -0.27162284, -0.34256643, 0.5059724, -0.3247425, 0.16617072, 0.3180002, 0.42010033, 0.1121608, -0.27483076, -0.2516269, 0.9029763], [0.0, 0.31101, 0.4480158, -0.14320648, -0.97263885, -0.058778167, -0.62028354, -0.95577145, -0.042054534, 0.87740636, -0.28190488, 0.11052334, 0.2409023, -0.26767486, -0.65421677, -0.04676807], [0.0, 0.15068018, -0.048714995, 0.96161866, 0.3838154, -0.47591466, -0.029170632, -0.94392633, 0.8042829, 0.860265, 0.97910285, -0.37940162, -0.17501009, -0.49227422, -0.39931482, -0.9596498], [0.0, 0.23628533, -0.20763433, 0.9689553, 0.7657738, -0.61945957, 0.104243636, 0.33588254, 0.58636904, 0.5339706, -0.47183412, -0.6163961, -0.33344167, -0.62129563, 0.40315735, -0.77105236], [0.0, 0.03044045, 0.067572, -0.44914645, -0.69289255, 0.9232092, -0.87265444, 0.50137305, -0.123343825, -0.8499789, 0.54602504, -0.23933804, 0.75868225, 0.67066383, 0.6890476, 0.49603522], [0.0, 0.17052376, -0.7441828, -0.42618197, -0.15381372, -0.9921365, -0.36464757, 0.24671876, -0.59996766, -0.2410096, -0.27046508, 0.06564772, 0.07373178, 0.8424959, 0.27030456, -0.53879565], [0.0, -0.59350175, -0.74916816, 0.66747856, 0.055351615, 0.1718682, 0.99641895, -0.6686857, 0.3031944, 0.15494525, 0.536983, 0.21233952, -0.028332114, 0.044004798, -0.41155952, 0.28906262], [0.0, 0.3532549, -0.98652506, 0.43300545, 0.9777062, 0.82026815, -0.44300383, -0.797065, 0.97658086, -0.47934264, 0.7967403, -0.5882942, -0.84487224, -0.5986635, -0.66526914, 0.44331443], [0.0, 0.777627, 0.87448955, 0.22169578, 0.8845973, 0.9043822, -0.02559936, -0.9940672, 0.1265415, -0.29813117, 0.33007324, -0.31713504, -0.67715025, -0.81548977, -0.68987584, -0.052900195], [0.0, 0.85532427, 0.23203838, 0.09575331, -0.6461451, 0.10800874, -0.46763486, 0.17982066, -0.12835872, 0.9628267, -0.82392216, 0.81582236, -0.006893754, 0.41436017, -0.41088027, -0.8535807], [0.0, 0.9808831, 0.54705644, -0.8878405, -0.42059654, 0.5272291, -0.37910074, 0.73679185, 0.5651591, -0.7256315, -0.78380823, -0.025900722, -0.6661389, -0.34622902, -0.55391496, -0.10927546], [0.0, -0.35056537, 0.89839697, -0.2575063, 0.122583985, 0.967818, 0.38775814, 0.54371476, -0.40935987, 0.69942045, 0.36615098, 0.09937847, 0.29245102, -0.48106855, -0.5700194, -0.5404698], [0.0, -0.6830516, 0.3899244, 0.12208831, 0.932255, 0.75792575, -0.38718933, -0.31088275, -0.5914363, -0.81155086, 0.09911907, -0.6969459, -0.65331054, 0.26066196, 0.33469427, -0.76225615], [0.0, -0.76375914, -0.7327013, -0.9448297, 0.20262492, 0.5889373, 0.7988343, -0.6969404, -0.95813704, -0.28499502, -0.69227433, 0.2735194, -0.049553275, -0.17313588, -0.15325129, -0.14703858], [0.0, -0.24641907, 0.09577596, 0.093467355, 0.25964844, 0.78957295, -0.5453734, -0.31458706, -0.5100886, 0.94238853, -0.04000175, 0.737293, 0.881114, -0.90261793, -0.96049356, 0.63359356], [0.0, -0.630646, -0.6119072, 0.5379894, 0.31206405, -0.34856743, -0.25107306, -0.5955054, 0.07202375, 0.5976777, -0.6350038, 0.8439119, 0.27428377, 0.7643895, 0.5269034, -0.3787467], [0.0, 0.8546848, -0.3216855, 0.05029714, 0.9662547, 0.3876375, -0.7567246, 0.98662734, -0.65669465, 0.21874106, -0.8463819, -0.83029675, -0.09654176, 0.12254965, -0.086683154, -0.92370915], [0.0, 0.33151472, 0.5938058, -0.5873894, -0.44123644, 0.9997182, 0.2610165, 0.83065844, 0.6051433, 0.66342664, 0.9186046, -0.11846888, 0.9416661, 0.5858114, -0.7205589, -0.96312785], [0.0, 0.36421287, 0.36560214, -0.019016623, 0.39947855, 0.62352777, -0.07400906, -0.17794335, 0.91442275, -0.07404077, -0.57189125, -0.5897576, 0.3779248, 0.8134556, 0.5489185, 0.30870497], [0.0, 0.6256435, -0.6023454, -0.37019128, -0.71966934, 0.61538243, 0.5946288, 0.67433167, 0.7404115, -0.73184896, 0.23107994, -0.87370086, 0.99976206, 0.45517814, -0.61752146, 0.9522245], [0.0, -0.36758083, 0.9796207, 0.05570042, 0.6003852, 0.81126213, 0.42362797, -0.7488694, -0.83788896, -0.4068715, -0.36467403, 0.23194969, -0.9006622, 0.51391006, -0.72809505, 0.2976917], [0.0, -0.37220138, -0.20165956, -0.5060007, -0.594201, 0.24028742, -0.55091375, 0.47142613, -0.05177939, -0.54773563, 0.81005526, -0.16606843, 0.6258898, -0.39929718, -0.7932732, 0.79748106], [0.0, 0.72022223, -0.012071013, 0.0029767752, 0.2002083, -0.5728697, -0.25849146, -0.7396884, -0.9379003, 0.12363899, 0.7008259, 0.23447573, -0.732661, -0.3054375, -0.8088634, -0.41094297], [0.0, 0.9411907, -0.5983836, -0.52598375, 0.7853184, 0.4991809, 0.13492906, -0.24962413, 0.8618932, -0.49359053, 0.87155056, -0.18298948, 0.4287449, -0.7149801, 0.44417107, 0.30760324], [0.0, 0.39013565, -0.9394784, -0.063545346, -0.7525153, -0.12096298, 0.07916081, 0.25749528, -0.8902893, -0.82576585, 0.13797104, -0.25642246, 0.8738229, -0.45385784, -0.7316444, 0.9583423], [0.0, -0.5205535, -0.65587187, -0.6060099, 0.41791737, 0.9121797, 0.7238581, -0.3596422, 0.07627666, -0.57937807, -0.4257366, -0.2888705, -0.15302432, 0.13745606, 0.5809927, -0.005830407], [0.0, 0.6686578, -0.24396718, -0.3693375, 0.12529004, 0.4700364, 0.5575385, -0.8208947, 0.65080595, 0.95227146, -0.7969632, -0.17928231, 0.22489941, -0.7503128, 0.51193166, -0.04928243], [0.0, -0.36323017, -0.26093262, -0.34585947, 0.50581527, -0.31434506, -0.20154607, 0.8070688, 0.3285147, 0.6038275, 0.871181, -0.8965738, -0.52077836, -0.39087814, -0.08694351, 0.8692877], [0.0, -0.8917761, -0.78608704, 0.24547589, -0.9225855, 0.62618804, 0.80138326, -0.69159937, -0.46827525, -0.29560608, 0.049954772, -0.79714036, 0.11169541, -0.1823889, -0.91435266, -0.66662526], [0.0, 0.75200796, -0.6138994, -0.7465334, -0.013732314, -0.15740144, -0.35468763, 0.122124076, -0.9110844, -0.2484895, 0.63980603, -0.643692, -0.21647847, -0.9106004, -0.55478686, 0.27976477], [0.0, -0.80977106, -0.32418817, -0.83851147, 0.78376174, -0.42037743, 0.7422662, 0.21768367, -0.78066945, 0.71568394, -0.50507706, -0.95941687, -0.7042227, 0.71433544, 0.88512564, 0.73095703], [0.0, -0.5891873, 0.26073158, -0.385287, 0.48243392, 0.88999224, 0.00637877, -0.7866225, 0.61838317, -0.7914102, 0.5863435, 0.847749, 0.35755765, 0.057554364, -0.67548275, 0.86860895], [0.0, 0.650053, 0.8074796, 0.3803624, 0.30826414, -0.12770998, -0.6995852, 0.29517448, -0.33098525, -0.12507117, 0.2921511, -0.05370891, 0.7766559, -0.32364887, 0.51757526, -0.13833153], [0.0, 0.80739856, 0.1703099, -0.0030027628, -0.1289984, 0.08413017, -0.910198, 0.2883488, -0.09676182, 0.30362117, 0.2826916, 0.4812721, 0.16734755, -0.32189816, 0.56816936, 0.4161867], [0.0, -0.7899456, -0.2803263, 0.4411844, -0.23027813, 0.34329426, -0.88319373, -0.48002452, 0.71071887, 0.97508144, -0.015034556, 0.835824, -0.7269826, -0.3274271, 0.26445997, -0.5050668], [0.0, -0.3182251, -0.12901294, -0.15149248, 0.5498111, -0.9408808, 0.23048222, 0.7965338, 0.7846601, 0.56790733, -0.33412594, -0.17941582, 0.4903127, -0.9954548, -0.8570628, -0.02395618], [0.0, -0.87379, 0.9333811, 0.17254698, -0.3216731, 0.52634, 0.72788954, 0.77954125, 0.7134824, 0.055971026, -0.58079976, -0.6545079, -0.52085656, 0.4298669, -0.16974151, 0.93289185], [0.0, 0.501853, -0.45757526, -0.76609945, -0.7419753, -0.09155166, 0.6723814, 0.5826247, 0.4466437, -0.08360541, 0.90645146, 0.48034298, 0.93142533, 0.0033591986, -0.7629218, 0.88870573], [0.0, 0.18381798, -0.19462383, 0.22611773, -0.62636733, 0.1726948, 0.14589322, 0.057445645, -0.7622752, -0.78474, -0.75810003, 0.44059718, -0.990433, 0.6300616, 0.8195245, -0.8589082], [0.0, -0.11846292, -0.88225245, 0.8427379, -0.67467237, 0.6726756, -0.60647196, -0.66840243, 0.69966245, 0.4501363, -0.54721254, 0.42899573, 0.08268058, 0.07618582, 0.7624893, -0.7771516], [0.0, -0.5793032, 0.85079217, -0.03292954, -0.47184867, 0.8287401, -0.9762981, 0.6027529, 0.17197907, -0.8298042, 0.7523191, -0.12296784, -0.45066708, -0.9433887, 0.49877608, 0.5944345], [0.0, -0.49012727, -0.68209004, 0.29752576, -0.7967725, 0.8281708, -0.2913043, -0.72044015, -0.4466576, -0.7360351, -0.3830189, -0.49727887, -0.8419564, 0.47973335, -0.92653203, 0.3891629], [0.0, -0.9906585, -0.94126177, -0.5276291, 0.08809006, -0.39386743, 0.9178889, 0.1365925, 0.010622382, 0.5978477, 0.7787585, -0.21827042, -0.7075522, -0.4950003, -0.09599292, -0.93740296], [0.0, 0.26919925, -0.9424441, -0.4948594, 0.70149136, -0.638036, -0.09639394, -0.9327731, 0.8962755, -0.19718444, 0.6723895, -0.12185824, 0.9083643, 0.8310392, -0.119003415, 0.7655194], [0.0, 0.6751585, 0.60077643, -0.23739636, 0.92805505, -0.7145598, 0.45673573, -0.9263725, -0.10081327, -0.76310253, -0.26943654, 0.8781781, -0.24641359, -0.3018419, -0.60598916, -0.05641401], [0.0, 0.11841977, -0.8484659, -0.7624757, -0.33873862, -0.34025782, 0.8843968, -0.097124696, -0.110232234, -0.21647918, -0.81867194, -0.1976, 0.4192425, -0.10156429, -0.6653192, 0.7962866], [0.0, 0.85692763, -0.031228423, 0.8311844, 0.64640045, -0.9868622, -0.93951035, 0.25294673, -0.47096342, 0.08404815, 0.4601344, -0.96283245, 0.6315646, -0.21742904, 0.61945224, -0.7026751], [0.0, 0.44339073, -0.5503923, -0.5660612, 0.18103373, -0.093942046, 0.0018581152, 0.033138633, -0.8813412, 0.24331486, 0.09017551, -0.31326026, 0.74599814, -0.7698734, 0.50951934, -0.44091505], [0.0, 0.88829875, -0.5435445, 0.2785226, 0.50966334, -0.71616554, -0.16898835, 0.8732717, -0.44181913, -0.82576394, 0.616235, 0.50932693, 0.25809014, 0.385121, -0.46998304, 0.26230133], [0.0, -0.012761235, -0.72418237, -0.63742924, -0.4344651, 0.101907134, -0.10786402, -0.8699627, -0.7804489, 0.84246516, 0.049420238, -0.12581956, 0.44475043, -0.05689299, 0.21787393, -0.5295364], [0.0, 0.3944291, 0.4929825, -0.46682423, 0.1322645, 0.83577585, -0.112727284, 0.06551826, -0.61100787, 0.23174083, 0.3779682, 0.07023275, -0.4673881, 0.3130468, 0.59337926, 0.7414243], [0.0, 0.8045964, 0.30357325, 0.19261754, -0.737818, 0.72508883, 0.5302913, 0.47557843, 0.8425591, 0.5093422, -0.33096665, 0.047210813, 0.25586832, 0.6875799, -0.6694765, 0.20483482], [0.0, -0.37779516, 0.37308943, -0.28270692, -0.44077438, -0.5216915, -0.344979, -0.94833493, 0.18625963, -0.29936737, 0.2707516, 0.7830782, 0.62355995, 0.7661469, 0.4915446, 0.47974336], [0.0, -0.8543885, -0.38599938, 0.121671796, -0.75032425, 0.7512002, -0.3921842, 0.8990278, -0.064494014, -0.08068764, -0.23383081, -0.2087909, 0.65416527, -0.9293387, 0.03209293, 0.35104764], [0.0, -0.3262238, 0.78505206, -0.8698218, -0.24130166, -0.4907741, 0.16276562, 0.14383662, 0.5402124, -0.94268894, -0.14052522, 0.23338997, -0.14807308, 0.27577364, 0.21732795, -0.045822024], [0.0, 0.4721719, 0.3235458, 0.5356562, -0.97942877, -0.19943559, -0.66873, -0.7658696, 0.05221808, -0.37304825, -0.39295524, -0.95271754, -0.45237154, -0.56688994, 0.2791971, -0.12110412], [0.0, 0.9175818, -0.6284852, -0.93531203, -0.6300442, 0.8869374, -0.65461016, 0.39533246, -0.28818673, 0.6949611, -0.8082154, 0.19393885, 0.50108194, -0.846138, 0.5659256, 0.4976982], [0.0, -0.55242246, -0.25499886, 0.21422517, -0.22782695, -0.8287945, 0.43405855, 0.6355071, -0.74444103, 0.8895328, -0.7427914, -0.7760134, -0.33104652, -0.5506913, -0.18914902, 0.018205047], [0.0, -0.15740168, 0.19580352, 0.36078084, -0.34672636, 0.99776554, 0.1137861, -0.88104105, -0.8639958, 0.49310577, -0.3393919, 0.75226855, 0.20860016, 0.9100168, 0.78593636, -0.7558296], [0.0, 0.45456064, -0.41410846, 0.12010348, -0.53716224, -0.15366948, 0.24152482, 0.47523487, 0.667537, 0.8647342, 0.54356074, 0.46429694, -0.8946881, 0.4826082, -0.20604718, 0.043849587], [0.0, 0.2524103, -0.43904227, -0.83845663, -0.11272395, -0.5935728, 0.16089094, 0.87109375, -0.50407046, -0.2355088, 0.8213537, 0.19503582, -0.053618312, -0.636538, 0.15804732, 0.68116236], [0.0, -0.08850896, 0.019365191, 0.18429077, 0.0900439, -0.7046373, -0.48649758, 0.7624943, -0.6446347, -0.7660804, 0.053765416, 0.8469422, 0.6669221, -0.67844725, 0.9003353, 0.86854386], [0.0, -0.4079699, 0.97408986, -0.34230465, -0.31171507, 0.7079401, -0.088539004, -0.20968044, 0.5780704, 0.95658517, 0.90361905, 0.18166053, -0.12830746, 0.93173933, -0.4166631, 0.2970041], [0.0, -0.035806537, -0.33331913, 0.7337537, 0.34697878, 0.7680478, -0.1810416, 0.31407988, 0.31598794, -0.5736026, 0.28554404, 0.5181799, -0.02022779, -0.43589848, -0.59472245, -0.96034884], [0.0, -0.29729718, 0.44187987, -0.29057735, 0.84345937, -0.60757846, -0.7728164, 0.22024214, 0.39802563, -0.9479525, 0.91202164, 0.80558515, -0.5537166, -0.95048475, 0.43232644, -0.769428], [0.0, -0.016133428, -0.8859463, 0.5897021, -0.29475564, 0.19826472, 0.14007294, -0.31317872, 0.005318761, -0.64926076, 0.6399298, -0.5396578, 0.7307284, 0.6063025, -0.68869495, 0.6531439], [0.0, -0.28859013, 0.6714947, 0.9348359, 0.65021706, -0.5027005, -0.8856869, 0.74312043, -0.33465332, -0.7439704, -0.12287772, -0.599791, -0.093321204, -0.8554137, 0.14510405, -0.7070358], [0.0, -0.50061315, 0.46458066, -0.9164822, -0.5976812, 0.29356492, -0.27034587, -0.037278295, -0.22845328, 0.007966638, -0.08317864, 0.5243783, 0.68492794, -0.6819341, -0.6220097, -0.98284173], [0.0, -0.4548964, -0.26329702, -0.6397507, 0.4785012, -0.43429083, 0.10910928, -0.11605728, -0.65658927, 0.51886654, -0.5846314, 0.8588271, -0.9738362, 0.4438342, -0.24547446, 0.9950185], [0.0, -0.9218819, -0.032289624, -0.9791367, 0.41090167, 0.5991967, -0.16767108, 0.46133006, 0.755347, -0.92646694, 0.6838126, 0.461609, 0.37432873, -0.6886704, 0.2792064, -0.60908073], [0.0, -0.74248266, -0.71219134, -0.32886523, 0.9196918, 0.5487237, 0.9562166, 0.54639244, 0.065381885, 0.13108218, 0.6366408, 0.18893111, -0.2866487, -0.42717928, 0.10343778, -0.3078813], [0.0, -0.005025029, 0.46704352, 0.9240694, -0.87815523, 0.096431136, 0.3845979, -0.26710385, 0.35247958, -0.056788087, 0.4137739, 0.9906397, -0.5513076, 0.7955322, -0.9599252, -0.047395825], [0.0, 0.3903023, 0.99241734, 0.99697065, -0.6888366, 0.93437934, -0.031608462, -0.4848377, -0.8966632, -0.6050133, -0.6568999, 0.015828252, 0.79000545, -0.6242022, -0.5286295, 0.43621838], [0.0, -0.31443042, -0.6765592, 0.15123856, -0.20040262, -0.5394713, -0.987272, -0.69384384, -0.05754006, 0.644614, 0.10588133, 0.964324, 0.05453098, 0.51459527, 0.18392885, 0.09492624], [0.0, 0.38649428, 0.2474457, -0.55013293, -0.36645955, -0.47644395, 0.08071482, 0.37326777, 0.7381382, 0.6792176, -0.25215358, -0.92569613, 0.62100315, 0.7196832, 0.14114416, -0.7169759], [0.0, 0.6251688, 0.38254058, -0.90040493, -0.7871382, -0.70169306, 0.13291132, -0.16606963, 0.82326174, 0.9443369, -0.4218406, -0.28062314, -0.85976195, 0.7458663, 0.70759153, -0.09446013], [0.0, 0.58650136, -0.32753175, 0.38891685, 0.0037924051, -0.8227849, 0.27966607, -0.87648463, -0.15296781, 0.785794, -0.6010725, 0.61422276, 0.3541602, -0.84521246, -0.41681212, -0.90761685], [0.0, -0.16198218, 0.59618235, -0.5579266, 0.8662157, -0.45861763, 0.87813497, 0.9735019, -0.7770333, -0.8730931, 0.61996174, -0.44242662, -0.5445289, -0.69410515, -0.97654915, -0.65536857], [0.0, 0.7692416, 0.97798896, -0.49679393, -0.4305882, 0.8214812, -0.26859874, -0.04078567, -0.7152562, -0.0035129786, 0.15702522, -0.5720753, 0.9036653, -0.5392379, -0.13819349, -0.16272604], [0.0, -0.7655184, -0.98452115, 0.39640367, 0.35056984, -0.07573187, 0.9395447, -0.6073355, -0.21936476, -0.7363076, -0.028669953, -0.118858695, 0.0016025305, -0.43570274, 0.08342278, 0.96286774], [0.0, 0.81384134, -0.83465004, -0.48338884, -0.65073085, -0.2787904, -0.5802633, -0.93720245, 0.31419933, 0.8491359, -0.46713012, -0.40007752, -0.8151717, 0.39037216, 0.20850432, 0.068026185], [0.0, -0.84720135, -0.31404155, -0.7632868, -0.3918802, -0.45898408, 0.6043551, -0.40102667, -0.28999466, -0.44476002, 0.27881467, -0.20784009, -0.9778912, -0.9104111, 0.59709096, -0.7251327], [0.0, 0.16552389, 0.91268945, -0.7089622, 0.23170936, -0.62055033, 0.62310624, -0.33662266, 0.46419036, 0.2089392, 0.7044411, -0.5745835, -0.7373462, 0.70653224, 0.7716806, -0.029898047], [0.0, 0.31785166, 0.039120078, 0.022577882, -0.155177, -0.29189938, 0.7368386, -0.35231775, -0.66725564, -0.67099285, -0.89438295, 0.9949684, 0.86385846, 0.42672694, -0.93659306, 0.6607466], [0.0, -0.54582876, -0.21837223, -0.8011887, 0.12464154, -0.202191, 0.34260237, 0.9007342, -0.8521695, -0.18256891, -0.3019535, 0.9629059, -0.3839211, 0.6399288, -0.88648295, 0.2720114], [0.0, 0.9461992, -0.80356693, -0.81323004, 0.19789708, -0.0648762, 0.8316109, -0.60939497, 0.69493914, 0.08191717, -0.05488932, 0.9934015, -0.6351888, -0.7666025, 0.43228018, 0.8206692], [0.0, -0.16730106, -0.36864275, -0.24557936, -0.2737164, -0.58990186, 0.17229807, -0.36944836, -0.086979985, 0.056776643, 0.38344705, -0.15413988, 0.40483272, -0.454668, -0.7206645, 0.77838635], [0.0, -0.8261497, -0.26298922, 0.41169536, 0.5674355, -0.18057525, -0.35528225, -0.18773544, 0.20042622, 0.43004572, -0.7889173, -0.9373343, -0.551099, -0.5654203, -0.9362161, -0.774966], [0.0, 0.68637633, 0.49942887, -0.7175517, -0.94772077, -0.64323497, -0.437267, 0.5512185, -0.48896688, 0.13939488, 0.9724622, 0.74288535, -0.0370301, 0.8491149, 0.3986889, 0.3813349], [0.0, 0.117830396, 0.5895896, -0.5399477, -0.7994013, 0.4109367, 0.20096147, -0.5985953, -0.57265085, 0.77322435, 0.6253302, -0.7462194, 0.64758444, -0.712595, 0.7699716, 0.62399316], [0.0, -0.8083825, 0.20060718, -0.05687082, -0.33046478, 0.72568107, 0.18157136, -0.5854344, -0.31411737, 0.92935777, 0.8848338, -0.6521795, 0.9105251, 0.78391004, -0.1416806, 0.32808936], [0.0, 0.60300374, 0.9772084, 0.91639113, -0.06830847, 0.10158074, -0.5212249, -0.14183986, -0.14763033, -0.68346524, 0.41889656, 0.6798165, 0.7625747, -0.8584156, 0.6918626, -0.4575724], [0.0, 0.6812334, 0.21072757, -0.35340136, 0.34914434, 0.17789304, 0.39967096, 0.17234695, -0.16739881, 0.8732476, 0.39424813, 0.83011913, -0.9846878, 0.2975124, 0.7390089, 0.25808108], [0.0, 0.21355498, 0.10461509, 0.43502057, 0.1979593, 0.44743884, -0.3342678, 0.27309382, -0.7480438, -0.38031334, -0.6161575, -0.46765488, -0.3454985, -0.034396768, 0.14335406, 0.64707565], [0.0, -0.3390128, 0.17398798, -0.8029535, -0.20507586, -0.68651724, -0.99053526, 0.19440997, -0.0184654, 0.17021763, -0.3511402, 0.3596331, 0.91264033, 0.9851477, -0.1955303, -0.6254933], [0.0, 0.63445044, 0.7146611, -0.32087702, 0.14940512, -0.69099545, -0.083379626, 0.91706204, 0.5775001, 0.8973832, 0.8422563, -0.55243486, -0.15521753, -0.7223437, -0.1987871, -0.9944835], [0.0, 0.23901427, 0.017484784, 0.10092366, 0.46821344, 0.108404994, -0.32249564, -0.74786043, 0.4276563, 0.52544785, 0.96294737, -0.6369629, 0.6039028, -0.3529243, -0.35606426, 0.83294773], [0.0, -0.6576185, 0.68369937, -0.33635014, -0.15461981, -0.6290574, -0.29533333, -0.42454022, -0.64790106, -0.90808344, 0.85332346, -0.68232155, -0.04587686, -0.30284852, -0.28654593, -0.055475593], [0.0, -0.7361069, 0.532279, 0.9054117, 0.26243722, -0.98533535, 0.76965, 0.5034931, 0.984287, -0.52330106, -0.14984643, 0.9807286, 0.9074211, 0.8969488, -0.7577419, -0.1961776], [0.0, 0.04286182, -0.6061997, -0.7853565, 0.031894088, 0.8919761, -0.87904716, -0.91374826, 0.0029877424, 0.3271712, -0.7010915, -0.30646485, 0.7842345, -0.2798981, 0.68115544, -0.99842334], [0.0, 0.5106919, -0.796221, -0.75450754, 0.32418883, 0.7234533, -0.25601095, 0.1447581, -0.39678735, 0.13526618, 0.16399133, -0.05170667, -0.6278002, 0.97314286, -0.86961436, -0.21414411], [0.0, 0.893502, -0.87285066, -0.58650964, 0.2965678, 0.6412866, -0.73382235, -0.51875705, -0.58183736, -0.4297077, -0.74453306, 0.98771405, 0.03658235, 0.06352794, -0.35320848, -0.27187246], [0.0, -0.3780319, 0.6919303, 0.9039781, -0.61806434, -0.9167311, 0.290722, 0.3619026, -0.5596697, 0.10232699, 0.46834862, 0.5355134, -0.45047063, -0.31281823, -0.64853334, 0.47045434], [0.0, -0.3456728, -0.99895763, -0.09208882, 0.8199351, 0.33016694, 0.8077984, 0.2495259, 0.3619269, -0.9595516, 0.48552597, 0.8002987, -0.22380674, 0.2810272, -0.64502144, 0.898324], [0.0, -0.044704318, -0.81648755, 0.7747271, -0.9599235, 0.8233092, -0.096416354, 0.9441879, 0.11720383, -0.68803716, 0.9944577, -0.61495227, 0.6732774, 0.58972096, -0.80504894, 0.021577716], [0.0, -0.70783734, 0.522882, 0.86248565, -0.58238953, 0.4694122, -0.49268597, 0.34883773, -0.8809571, 0.7990136, 0.78619075, 0.6219623, 0.04570639, -0.677902, 0.5876274, -0.23283231], [0.0, -0.9970002, -0.3078174, 0.49121225, 0.42322934, -0.016657472, 0.66619515, 0.8374903, -0.37697977, 0.6061475, 0.7384341, 0.045233607, 0.28825247, -0.2483319, -0.64457417, -0.045543313], [0.0, 0.8227136, -0.5199837, -0.8747716, 0.56980133, -0.71786165, -0.45268553, -0.9487076, 0.018356442, -0.57664293, 0.2961074, 0.94993377, 0.356125, 0.5438931, 0.510345, -0.409661], [0.0, 0.5971482, -0.4798314, -0.44410652, 0.15419376, -0.6084241, 0.49780452, -0.9875436, -0.52581733, -0.78178287, 0.82277465, 0.9729557, 0.27497613, 0.78849626, -0.006274581, 0.24837554], [0.0, -0.8053601, -0.6427231, -0.30279106, -0.9242029, -0.09418452, -0.35526246, 0.29163754, -0.12869012, 0.44794285, -0.011405826, -0.7942934, 0.4161483, 0.69591475, -0.62091273, 0.5436301], [0.0, 0.44867456, 0.29940212, -0.10851729, -0.47259325, 0.6881845, 0.93073726, 0.7669072, 0.058620095, -0.4072067, 0.3396033, 0.33633673, -0.7165632, 0.5767677, 0.16411746, 0.33454192], [0.0, 0.98415256, -0.0037451982, -0.8208289, 0.6689465, -0.75489235, 0.98278666, 0.11922014, 0.4062673, -0.38000077, -0.52751607, -0.04829943, -0.20704496, -0.017568946, 0.58074975, -0.33796543], [0.0, 0.46433318, -0.31560725, -0.4387855, -0.19829595, -0.74898005, -0.9495454, -0.78505445, 0.6178198, -0.8181224, -0.3889653, -0.29974788, 0.92058325, -0.24538672, 0.8604033, -0.47711486], [0.0, -0.2555613, 0.775831, 0.93413115, -0.24617779, 0.48004687, -0.6984484, -0.5069584, -0.73025465, 0.99412155, -0.6262667, -0.6717622, 0.33408272, 0.50531983, -0.3094365, 0.45063412], [0.0, 0.57764196, 0.22939861, -0.35830873, 0.17449701, -0.9993105, 0.54675007, -0.5881967, 0.5629442, 0.786808, -0.9735112, 0.9299879, 0.7033522, 0.7290218, -0.5045702, -0.81367683], [0.0, 0.2217089, -0.9383986, -0.010156274, -0.026200175, -0.5161461, 0.4337858, -0.7733972, -0.5513951, 0.14939892, -0.96835995, 0.5507312, 0.3432132, -0.64716554, -0.21989596, 0.16090453], [0.0, 0.083197474, -0.0040613413, 0.072245955, 0.5684614, 0.7867203, 0.35171235, 0.34600174, -0.6690273, 0.89803696, 0.29567397, -0.8024771, 0.9508288, -0.26674002, -0.6120407, 0.64427686], [0.0, 0.054484487, 0.86724114, -0.7997346, 0.31357086, -0.014209628, 0.12734425, -0.21482146, -0.68301845, -0.94588995, 0.49814332, 0.8882847, -0.3930158, 0.29483616, 0.377962, 0.8867912], [0.0, -0.2659523, -0.07280004, 0.18983519, 0.7645254, -0.3386528, 0.92506313, -0.7966716, -0.9622369, 0.24820673, -0.71666694, 0.40062892, 0.60429025, -0.63485503, -0.40039676, 0.6765218], [0.0, -0.7294016, -0.9874151, 0.9367161, 0.3860687, 0.236081, 0.08799112, 0.4305681, 0.890712, 0.94848776, 0.38793933, -0.88008094, 0.80620885, -0.722029, -0.9914596, 0.36586964], [0.0, 0.082322955, -0.7085252, 0.39488566, -0.26522607, 0.8284888, -0.21577632, -0.5045311, -0.9991133, 0.9968643, -0.8094914, -0.9200704, -0.18901098, 0.8771734, 0.014043212, 0.7607267], [0.0, -0.807816, -0.78533244, -0.2843427, 0.534502, 0.41902888, -0.47925442, -0.54746836, -0.6379249, 0.025144458, -0.48780864, 0.14865267, 0.43403494, -0.064525485, -0.42275327, 0.27856266], [0.0, 0.78360486, -0.9238236, 0.40303242, 0.4981991, 0.8751836, -0.41120666, -0.07461965, -0.20659506, -0.47344488, -0.14440382, -0.50697774, -0.78153276, 0.44642317, 0.67913175, -0.9551673], [0.0, 0.41021597, -0.6479614, 0.8220773, 0.77032375, -0.2495135, -0.45959944, -0.8035636, -0.3213839, 0.6836555, -0.37416977, -0.9177692, 0.80441594, 0.7671931, 0.83982587, 0.40825856], [0.0, -0.32291573, -0.67518663, -0.8222945, -0.30682606, -0.13320696, -0.26141256, -0.42892092, -0.8844998, -0.58636826, -0.9054928, -0.112882495, -0.18511593, -0.96718144, 0.89842844, 0.08253014], [0.0, 0.3331777, 0.13375032, 0.36840427, -0.28708977, -0.4485008, 0.6170826, -0.50486654, 0.8737948, -0.4044928, -0.92910385, -0.8899882, 0.68215656, 0.53411436, 0.47138846, -0.48776096], [0.0, -0.2436322, -0.15115368, 0.9667876, 0.06311071, 0.3164469, -0.35678858, -0.12393963, -0.28464502, -0.6524284, -0.96554613, -0.8802707, 0.53966, 0.8059728, -0.8676858, -0.008411288], [0.0, -0.17373884, -0.8762951, 0.43866503, 0.10177815, -0.72251654, 0.904413, -0.6072807, -0.038933635, -0.014968276, 0.79400396, 0.8672583, 0.104302764, -0.91437244, 0.93600345, -0.82926726], [0.0, -0.9732294, 0.5748124, 0.10927141, 0.30718458, 0.45649803, -0.67951655, -0.8653488, -0.6521368, -0.41368836, 