{"layers": 3, "neurons_per_layer": [2500, 10, 5, 3], "weights": [[], [[0.0, -0.39831656, -0.4917578, -0.60646117, 535.11084, 0.16020954, -0.40913287, 0.36873925, -5.90002, 0.819792, 0.584421], [0.0, -0.47338623, 1.1933014, -0.49146143, 534.02185, 0.33770502, 0.66444945, 0.4952165, -5.3959875, -0.57638454, -0.42018807], [0.0, -0.33887357, -0.5328056, 0.02821533, 535.0467, -0.76029944, 0.7797754, -0.63838935, -6.152138, -0.46607092, 0.69995576], [0.0, 0.7217815, 0.021916747, -0.047775347, 534.71484, -0.83797073, 0.121224776, -0.25620311, -5.6937923, 0.5532488, 0.8946522], [0.0, 0.08369315, 0.52351993, 0.32534137, 534.25854, 0.81452847, -0.18647872, -0.54884666, -6.869611, -0.22235057, 0.3797118], [0.0, -0.7738044, 0.30353564, -0.7086851, 534.49994, -0.756479, -0.24263988, 0.66624665, -6.866864, -0.9487124, 0.8579305], [0.0, -0.48144335, 0.7955161, 0.3467504, 534.5492, 0.29111588, -0.5617787, 0.370659, -6.9923563, 0.73554343, 0.28919476], [0.0, -0.6759286, 1.2680376, 0.9732953, 534.2084, 0.6736274, -0.79458356, 0.4296142, -5.523084, 0.49297526, 0.51263577], [0.0, 0.76296854, 0.93100554, 0.40961567, 535.59924, -0.7547157, 0.09241618, 0.43597376, -6.5641932, -0.9606367, 0.88128024], [0.0, -0.18186629, 0.3668136, -0.031232197, 535.64624, 0.06751621, -0.62631696, -0.9232476, -6.858988, -0.22700426, -0.48016346], [0.0, 0.7883315, 1.1013353, -0.10019644, 535.8219, 0.6038883, 0.26807848, 0.9160304, -7.035083, 0.92039126, 0.53302914], [0.0, -0.98653364, 0.27836412, -0.59833276, 535.81305, -0.610423, -0.25994268, 0.1517011, -5.443774, -0.50695753, -0.35858977], [0.0, -0.54824823, 1.1553931, 0.12366954, 535.55066, -0.7886057, -0.4632, -0.330702, -6.0766735, -0.115329474, 0.57551247], [0.0, -0.6017863, 0.47055644, -0.68080443, 534.45856, -0.10412586, -0.30330768, -0.89941835, -5.96191, 0.5565962, -0.642826], [0.0, 0.94182205, -0.49082893, -0.028368074, 535.1598, -0.75012755, -0.35289183, 0.02238214, -6.6834674, 0.3844333, 0.1362986], [0.0, 0.35059178, -0.53534263, -0.26102272, 534.6083, 0.99571943, -0.9982288, 0.22028482, -7.2512083, 0.58447164, -0.33578956], [0.0, -0.12900317, -0.5092818, 0.22353594, 535.9189, 0.9280503, 0.980072, 0.17251885, -5.6063175, -0.87472636, 0.26687187], [0.0, 0.993654, -0.035455108, -0.75806063, 534.7654, -0.40208954, -0.92531395, -0.37652677, -6.091152, 0.2652438, 0.7115558], [0.0, -0.48580712, 0.6385817, 0.15284817, 535.18475, -0.8832736, 0.65454745, 0.08353078, -6.797829, -0.47998407, -0.84997505], [0.0, 0.9654882, 1.2529056, 0.37401095, 535.01324, 0.19205606, -0.85685897, 0.48049414, -7.063633, -0.021236863, -0.849986], [0.0, -0.9813144, 1.0727665, 0.12708728, 535.5887, -0.8335304, -0.41647592, -0.4796843, -5.9714317, -0.48660472, -0.59938586], [0.0, -0.8111839, -0.16393387, -0.17537864, 535.2304, 0.18891275, 0.73338604, -0.3503391, -6.2364244, 0.6916713, 0.69138104], [0.0, -0.07732499, -0.18267477, -0.056434948, 534.61206, 0.3178097, 0.08042182, -0.0862304, -6.2555647, -0.95491296, 0.40171403], [0.0, 0.44281828, 1.2225044, 0.12222067, 535.79834, 0.9967158, -0.42035642, 0.9885256, -6.823407, -0.22449157, -0.049391087], [0.0, -0.73743105, 0.8970435, 0.93564445, 534.44446, 0.34999, -0.21987282, -0.9093802, -5.374234, -0.1773319, -0.5679959], [0.0, -0.8147309, 0.37237042, -0.75056857, 534.8749, -0.010506034, 0.09862842, -0.4248137, -6.248611, 0.17611745, 0.5321124], [0.0, -0.10188091, 0.75472087, 0.77718455, 534.6536, -0.5805556, -0.20086156, 0.94693995, -7.0653462, -0.5684707, -0.48130405], [0.0, -0.41335243, 0.3675086, 0.76051265, 534.8124, -0.6088595, 0.13315882, 0.057280898, -6.1510177, 0.55004853, 0.68438846], [0.0, -0.59438914, -0.11741102, -0.25276914, 534.81635, 0.022433162, 0.9645295, -0.95499015, -5.710067, 0.9454519, -0.9063868], [0.0, -0.01963675, 0.6707284, 0.8822275, 535.1403, -0.0114427805, -0.9411802, 0.94643474, -6.4502535, 0.95031375, 0.047096435], [0.0, -0.857918, -0.69101614, 0.9880641, 534.9807, -0.2810046, 0.03431334, -0.31315774, -6.363802, -0.57234216, 0.98464686], [0.0, 0.10448444, -0.39345378, -0.86645764, 535.00305, -0.5957367, -0.47632447, 0.9873929, -6.039537, -0.22656819, 0.7001675], [0.0, 0.31539166, 0.17279452, 0.86452895, 534.42615, 0.6646397, 0.7542188, -0.21097195, -5.9970236, -0.026909795, 0.83963615], [0.0, -0.5033178, -0.2558669, 0.97774464, 534.6419, 0.79914975, -0.27843228, 0.58730125, -7.298836, -0.4136677, 0.5832854], [0.0, 0.30298483, -0.068903565, -0.94184774, 534.5346, -0.76416254, 0.8733697, -0.8380766, -7.187923, 0.1687477, 0.41308945], [0.0, -0.9253421, 0.9682334, -0.66070575, 534.38074, 0.5295844, -0.13543354, -0.70453835, -6.291572, -0.61105156, -0.088225186], [0.0, -0.73675895, 0.28920954, -0.10253247, 533.9955, -0.5304555, 0.42662087, 0.88682985, -6.8773413, -0.62449527, -0.6857657], [0.0, 0.067292094, 0.69870275, 0.18488805, 534.5615, -0.91125464, -0.33897796, 0.5380666, -6.133291, 0.9794933, -0.43455327], [0.0, 0.51837516, 0.09918302, -0.38533655, 535.28406, 0.8458233, -0.2627019, -0.4707498, -6.650508, 0.74083394, 0.5057202], [0.0, 0.49146283, -0.6294009, -0.5117394, 535.69354, -0.7291794, -0.6889529, 0.9598825, -5.5415993, 0.6228773, -0.87647194], [0.0, 0.9096525, 0.11161679, 0.3492879, 534.6068, -0.53495425, -0.7410455, -0.030360103, -5.5914683, -0.34656337, -0.98198646], [0.0, 0.3726424, 0.46743578, -0.86533207, 534.61084, -0.57227606, -0.14016972, -0.73525286, -6.1732183, -0.9585481, 0.95854765], [0.0, -0.2546417, 1.2430215, 0.6464339, 534.5784, 0.7029729, -0.74784994, -0.80844617, -7.0284944, -0.54595613, -0.34872282], [0.0, 0.80757594, 1.1646435, 0.55429965, 534.943, -0.5357513, -0.06339823, -0.4059562, -6.3875976, -0.17327377, 0.17055029], [0.0, 0.058666825, -0.37311476, -0.4259235, 535.19476, 0.13489473, 0.14389338, -0.28541893, -6.8716455, -0.52068186, 0.397726], [0.0, 0.2666508, -0.3066002, 0.91442305, 535.43146, -0.9633906, -0.97091913, -0.49767822, -6.292324, -0.96321017, 0.5436085], [0.0, 0.97446775, 0.10921472, 0.07705418, 533.9727, 0.8390484, -0.18695055, -0.39044684, -6.382031, -0.690728, -0.8388247], [0.0, -0.21061242, 0.4679088, -0.040281136, 535.7555, -0.7144861, -0.26642433, -0.05572498, -6.4955115, -0.903421, -0.99530834], [0.0, 0.7667682, -0.15528166, -0.8230185, 535.1811, -0.14253962, -0.8260405, 0.0020772219, -6.587773, 0.6576008, 0.43813127], [0.0, -0.9194207, -0.43810004, -0.15520008, 535.41394, 0.060910583, -0.83506465, 0.2552098, -6.6432185, 0.7479293, 0.12640947], [0.0, 0.33717906, 0.39137143, 0.7768021, 535.0453, -0.73173475, 0.08581628, 0.20586312, -6.214026, 0.27903822, 0.94627386], [0.0, 0.5528736, 0.41418666, -0.32322612, 535.7293, 0.32239163, 0.06993331, -0.595673, -6.2128415, -0.49817947, 0.30150098], [0.0, -0.09373176, -0.5067832, -0.8500511, 535.5333, -0.0033766031, 0.13929285, -0.39930838, -7.1520596, 0.5163087, -0.27500594], [0.0, -0.92808986, -0.43445557, -0.7866153, 535.0163, 0.56251955, -0.8395283, -0.1631347, -6.956442, -0.9891587, -0.3005923], [0.0, -0.68412757, 0.7262711, -0.35965672, 535.5099, 0.20327151, 0.35302058, 0.9624834, -6.387459, -0.17855188, 0.80352145], [0.0, -0.9711852, 0.27126473, 0.97727925, 535.1861, 0.60793686, -0.06563626, 0.1405021, -5.7477083, 0.7711362, 0.75664145], [0.0, 0.30515182, 0.73435277, -0.27809516, 534.2929, -0.3856358, -0.50262827, -0.762692, -6.3677826, 0.82741207, 0.9692028], [0.0, 0.012277007, 0.40149635, -0.5516628, 534.0572, -0.4201936, 0.71071744, 0.49423063, -6.5142612, 0.58008164, -0.09836584], [0.0, -0.8113682, 0.564676, -0.3990604, 535.09796, -0.8550496, 0.5443859, 0.69080186, -6.6871195, -0.4200087, 0.8816238], [0.0, -0.44458336, -0.48665255, 0.36747733, 535.4945, 0.2396208, 0.22218694, 0.8901534, -6.3067408, 0.66890544, 0.30087656], [0.0, 0.5632858, 0.24238676, -0.37069717, 535.59564, 0.71699405, -0.4777049, 0.45016873, -5.7862115, 0.6090421, 0.5043879], [0.0, 0.016126513, -0.10876334, 0.3371233, 535.0277, -0.13062537, 0.52511144, -0.8328972, -7.1250267, -0.044333424, -0.60081923], [0.0, -0.9632251, -0.38847655, 0.68667966, 535.183, 0.5231197, -0.66959214, 0.89098454, -6.373582, -0.9988447, -0.25090802], [0.0, -0.19640553, -0.24762952, -0.53635347, 534.6726, -0.44231313, 0.7723193, 0.83312535, -6.212046, -0.20164129, 0.7890883], [0.0, -0.40610093, 0.20979017, -0.8443386, 535.50195, 0.55542326, -0.90287113, -0.44590396, -7.0829806, -1.0028836, 0.64546067], [0.0, 0.18010437, 0.6816949, 0.820401, 534.1545, -0.44898003, 0.0833403, -0.9789243, -5.559399, 0.9219913, 0.5748268], [0.0, 0.26999485, 0.30461806, -0.9973001, 535.7476, -0.0562371, 0.84980226, -0.18602788, -7.122216, 0.81072015, -0.2793969], [0.0, 0.04667318, -0.2033664, -0.8301756, 534.05743, -0.88310647, 0.6869838, -0.2041992, -5.793204, 0.5462069, -0.19460207], [0.0, 0.9450252, -0.1592642, -0.2884368, 534.7296, 0.101647496, 0.9059613, -0.8026755, -5.6873446, 0.757981, 0.6125882], [0.0, -0.05713737, -0.6508402, -0.98448247, 533.9625, -0.7846091, -0.40944448, -0.86020684, -6.9542265, 0.51324266, 0.8373721], [0.0, -0.6734121, 0.6296734, 0.5384217, 534.63165, -0.97699714, 0.16305794, 0.081321836, -6.7613287, 0.77824324, 0.79670745], [0.0, -0.82059956, 1.184427, -0.15872891, 534.5421, 0.82330036, -0.1155387, -0.28831095, -5.6472483, 0.5245263, -0.86431855], [0.0, 0.066666484, -0.009132981, 0.9343985, 535.9152, 0.28856647, -0.14301477, 0.09256542, -5.7308526, -0.3691552, -0.022988139], [0.0, 0.729481, 0.5135929, -0.9494924, 533.98926, -0.3058526, 0.8457649, -0.68531513, -5.4279375, -0.9100235, -0.7294182], [0.0, 0.08738172, 0.45727915, 0.22265713, 534.0203, 0.23899925, -0.80037403, -0.88135576, -6.4617476, -0.80084616, -0.80724114], [0.0, -0.46089453, 0.16422957, 0.89084035, 533.97644, 0.7635567, 0.65177274, -0.5019664, -5.446794, 0.49312618, -0.21597177], [0.0, 0.11473477, -0.4659087, 0.26383677, 535.9569, 0.80695486, 0.8315902, -0.07029331, -5.778066, -0.92800957, 0.6339317], [0.0, 0.8275962, -0.4755878, -0.94703716, 534.55865, -0.035754323, -0.2361971, -0.3808145, -5.7452216, 0.06006435, -0.37421715], [0.0, -0.3731255, -0.40392178, -0.22139175, 534.0069, -0.9412956, -0.74221325, 0.593807, -6.828435, -0.5268557, -0.58796394], [0.0, 0.66355896, 0.9784935, 0.69037944, 534.2682, -0.7180531, -0.44885483, -0.7701831, -5.3833795, -0.15998027, 0.16156977], [0.0, 0.9352727, 1.2900066, -0.29791942, 534.50946, -0.9833338, -0.2610673, -0.9005451, -6.166471, 0.44147447, 0.45101064], [0.0, -0.0096770525, -0.46391314, -0.21492203, 534.1583, -0.026892304, -0.9835665, -0.8568146, -6.518302, 0.8433122, -0.3349365], [0.0, -0.07474601, -0.17089164, 0.573222, 535.91565, -0.010275722, 0.2996637, 0.72049785, -6.8922405, 0.8016929, 0.24867672], [0.0, 0.20341098, -0.50870484, -0.4691998, 535.1371, 0.42255676, -0.86387706, 0.60259414, -6.6677594, 0.9679608, 0.12186211], [0.0, 0.21058643, 0.1346187, -0.79264945, 535.07965, -0.71201277, -0.48214784, 0.75865746, -6.2239985, 0.26723126, -0.69525856], [0.0, 0.6691282, -0.20984471, -0.826369, 535.1692, -0.29566234, -0.4017841, 0.53662133, -6.3207183, 0.38349298, -0.80882186], [0.0, -0.17008603, 0.853313, -0.76525444, 535.42865, 0.66506696, -0.30217734, 0.52577853, -5.505935, 0.84208816, -0.0017417053], [0.0, -0.89072394, 0.010695338, 0.13619415, 534.1913, 0.3345033, -0.49724284, 0.15314448, -6.610209, -0.963965, 0.93863994], [0.0, 0.23384082, -0.10898864, -0.85917515, 535.11304, -0.13531482, 0.3639268, -0.3779301, -5.769582, -0.3184066, -0.526312], [0.0, -0.28899592, 0.69481534, 0.35664073, 534.5155, 0.06321132, 0.35498253, -0.0037130117, -6.8651195, 0.4882317, -0.07640582], [0.0, -0.22652137, 0.16910976, 0.98474056, 535.84064, -0.64029956, -0.51274127, 0.64592004, -5.9560456, 0.119478256, -0.573171], [0.0, -0.7478664, 1.0471034, -0.6642286, 534.57336, -0.89312124, -0.5001294, -0.9448917, -6.22725, 0.6928274, 0.58738714], [0.0, -0.83293605, -0.11212194, 0.8991435, 535.0934, -0.9697106, -0.73075557, 0.92201686, -7.2305107, 0.10835937, 0.16006798], [0.0, 0.7792609, 1.2790573, 0.9931534, 534.7529, -0.96379876, 0.764549, 0.36519396, -7.251737, 0.061997924, -0.056555804], [0.0, -0.110060096, 0.16478318, 0.5365563, 534.5351, 0.5582833, 0.9320836, 0.66578126, -6.540484, 0.4860821, 0.33502382], [0.0, 0.028988957, 1.1078079, -0.82189053, 534.7564, -0.2859618, 0.08098592, -0.53045386, -6.8004756, -0.9413853, -0.96480817], [0.0, -0.600913, 1.2072952, 0.089018025, 535.8196, -0.8025689, 0.6180091, -0.33266443, -5.6178193, 0.30041412, 0.3360774], [0.0, 0.28338706, 1.1989334, 0.17545955, 534.79236, 0.3779782, -0.8803263, -0.46349925, -7.2456274, -0.42772534, 0.47883147], [0.0, -0.9107168, 1.0955553, 0.121623196, 535.0057, 0.2755133, -0.63200563, -0.6892054, -6.8823323, 0.76343507, -0.08261114], [0.0, 0.5997336, 0.5129525, -0.82000726, 534.1692, 0.35483897, -1.0063033, -0.36674327, -6.0866733, -0.14406607, -0.6119772], [0.0, -0.8495827, -0.6629607, -0.65771025, 534.4268, 0.66052127, 0.4861509, -0.05951464, -6.0880513, 0.7496435, 0.17388266], [0.0, 0.97688484, 0.28241032, 0.90430075, 534.183, 0.2790364, 0.73117733, -0.98386097, -7.16591, -0.8933547, -0.5353881], [0.0, -0.6403446, -0.64854425, 0.8812471, 535.02234, 0.30151355, -0.7708695, -0.6578648, -5.59583, 0.69717735, -0.15565807], [0.0, -0.25413936, -0.672738, -0.3788747, 535.68396, -0.81943417, 0.8467698, -0.98025537, -6.3818107, -0.88844067, 0.3453843], [0.0, 0.7468498, 0.94984156, 0.6506575, 535.82666, -0.0389992, -0.6600416, 0.38957655, -5.4022655, -0.8138171, 0.5532566], [0.0, -0.7036848, -0.58508915, -0.48568526, 535.5814, -0.6871345, -0.96339154, -0.9751842, -6.6823015, 0.92248005, 0.08913773], [0.0, 0.37313998, -0.6530301, -0.87959784, 534.62646, 0.025943875, 0.26155367, 0.36520708, -6.461951, -0.3076451, 0.24914569], [0.0, -0.41091365, -0.5652997, 0.7443622, 534.1121, -0.6712291, -0.50037354, 0.060144782, -5.9948115, -0.20420381, 0.12781304], [0.0, -0.47504324, -0.308329, 0.9480632, 535.82776, -0.9272342, 0.9709983, 0.46702945, -6.3894906, -0.5389068, -0.11755067], [0.0, -0.14477956, 0.6522071, -0.6552796, 535.40924, -0.75891876, -0.7886965, 0.38758695, -7.03036, -0.361985, 0.20793504], [0.0, -0.074074864, 0.23589462, 0.25227204, 535.5806, 0.84882617, 0.33389106, -0.90659165, -6.4471426, 0.1463559, -0.76204056], [0.0, -0.5284285, -0.13785017, -0.50621974, 534.54126, -0.78560066, -0.4295546, -0.92012286, -6.5062413, -0.88088685, 0.09168261], [0.0, -0.26031464, 0.7535898, 0.20520513, 535.78925, -0.5868682, 0.9458847, -0.6046862, -5.4702225, -0.3950236, -0.6456062], [0.0, -0.30699462, 0.97208077, 0.72998244, 535.4426, 0.49326503, -0.19002257, -0.81040907, -6.194208, 0.07420519, 0.5437878], [0.0, -0.97998524, -0.54404587, 0.2009701, 534.64404, 0.55629516, 0.33792415, -0.40190881, -7.350907, -0.44521, 0.3740539], [0.0, -0.57069606, -0.043234944, -0.23360188, 534.7114, 0.43855894, -0.6727884, -0.094504714, -6.171382, -0.39555886, -0.93458146], [0.0, 0.5311923, 0.24785584, -0.18777926, 534.1684, 0.4199227, -0.17238413, -0.46838635, -6.4208713, 0.72567433, 0.5592831], [0.0, -0.41646641, -0.14419067, 0.8548146, 535.3219, 0.44909012, -0.2930905, -0.5464031, -5.8215075, -0.9692877, 0.22753042], [0.0, -0.015715718, 0.8387285, -0.67080563, 535.09314, 0.5286212, -0.10305606, 0.62593055, -5.54385, 0.00406364, 0.28765863], [0.0, -0.33802933, -0.110211015, 0.6064134, 535.36914, 0.40992343, 0.9068284, -0.36753577, -7.074271, 0.87752956, -0.5074638], [0.0, -0.8969183, 0.23663157, 0.8171366, 535.4854, 0.8942363, -0.17054234, 0.4091369, -5.76479, -0.21649644, -0.33230078], [0.0, 0.99440336, 0.5502543, 0.5423241, 535.0734, -0.14077008, -0.75814533, 0.39455092, -6.2537556, 0.75405616, 0.53839093], [0.0, 0.84757113, -0.016985774, -0.21625264, 535.31915, -0.25498766, -0.4986674, 0.37022173, -6.5137215, -0.439297, -0.38881624], [0.0, 0.39782345, -0.47138637, 0.8441995, 534.17413, 0.26785696, -0.8051975, 0.26902282, -7.1522627, -0.49697545, 0.910353], [0.0, -0.34336013, 0.62164444, -0.07357796, 534.614, 0.27843225, -0.3737544, -0.25681776, -6.6047783, -0.27867296, 0.27527374], [0.0, -0.9632487, 1.2648833, 0.4055046, 534.38824, 0.42459667, 0.18221463, -0.4818055, -5.5850105, -0.3211017, -0.93984574], [0.0, 0.120832324, -0.060506463, 0.10195295, 534.81415, -0.9752543, 0.6221359, 0.30646694, -5.5936623, 0.68792504, -0.99694747], [0.0, 0.4075228, 0.0674395, 0.87934357, 535.883, -0.45803803, 0.8800757, -0.80771255, -6.7972026, -0.6447938, 0.85110646], [0.0, -0.028007865, 0.52708143, 0.07722799, 535.391, 0.41394436, -0.10481988, -0.42492718, -7.0454597, -0.17939398, 0.71723014], [0.0, 0.69139886, 0.67706126, 0.07398907, 535.6546, 0.25309002, -0.35573855, -0.919492, -6.6785316, 0.45865992, 0.77082473], [0.0, -0.12531221, 1.2234161, -0.107165895, 534.2788, -0.15636265, -0.50580806, -0.47994536, -7.332881, 0.2313154, 0.3476326], [0.0, 0.9233558, -0.23512661, 0.6383708, 535.4617, -0.86445236, 0.58027625, -0.9002855, -5.3528204, -0.55857396, 0.7311409], [0.0, -0.7627971, 0.73433703, 0.18778507, 534.734, 0.20139015, -0.09940158, -0.8534074, -7.2500577, -0.25237033, 0.38141602], [0.0, -0.2899062, 0.5827374, 0.54031116, 534.88745, 0.044279933, 0.13424005, -0.82041216, -6.896301, -0.32389143, -0.38788712], [0.0, 0.5004065, 1.2511632, -0.5121108, 535.901, -0.3888163, -0.5725629, 0.2753402, -7.212902, -0.47704318, 0.37228197], [0.0, -0.82383776, 0.54005283, -0.4857575, 534.638, -0.6938026, 0.9131212, -0.31800216, -7.0222607, -0.12097165, 0.9450484], [0.0, -0.2706849, 0.36628264, -0.7861094, 534.27966, -0.85342145, -0.00050626416, 0.55514, -6.084273, 0.47687247, -0.92058915], [0.0, 0.43968284, 0.9038058, -0.16441377, 534.2946, 0.8130677, -0.92303777, 0.07859647, -7.0511646, 0.21719578, -0.05936676], [0.0, 0.6884215, 1.0651045, 0.214482, 535.63916, 0.86863685, -0.030099493, -0.15588701, -6.61402, 0.56183475, 0.2623207], [0.0, -0.23920166, 0.8428634, -0.55449903, 534.7736, 0.71747756, 0.6710706, 0.500185, -7.260936, 0.5832595, 0.3654551], [0.0, -0.4074077, 0.81111485, -0.43477932, 535.8196, -0.14217031, -0.74135876, -0.47754663, -6.560955, -0.20800707, 0.3113398], [0.0, -0.21486127, 0.18275303, 0.4459614, 534.596, -0.025023818, 0.9275601, 0.08668935, -7.046998, 0.6402373, 0.69189936], [0.0, -0.12737381, -0.32397544, -0.20896824, 534.46716, 0.070373654, -0.95711184, 0.5823636, -6.1878905, -0.20563957, 0.19163221], [0.0, -0.24860442, 0.8874281, -0.6173533, 534.44684, 0.82779956, 0.32554546, 0.53326154, -5.5191364, -0.90521437, 0.8930028], [0.0, -0.5672683, -0.38059968, 0.54062945, 535.2775, 0.8594928, -0.04691158, -0.0551852, -6.6741157, 0.2633169, 0.048795167], [0.0, 0.36940444, 0.9546066, 0.4481837, 535.0995, 0.20062411, -0.9810059, -0.26973027, -6.0743833, 0.37099794, -0.7844121], [0.0, -0.8035879, 1.2919276, -0.87286085, 535.4945, 0.6667707, -0.5491583, 0.06937182, -6.490372, -0.89787513, -0.9778778], [0.0, -0.20020497, -0.20340812, -0.27770463, 535.0706, 0.8285887, -0.19956385, 0.31619036, -7.1345735, -0.89062387, 0.661995], [0.0, 0.2696935, 1.2334657, 0.3568813, 535.3359, 0.30285418, -0.4320828, -0.7733176, -5.434055, -0.008728709, -0.35696638], [0.0, 0.92727757, 1.1082389, -0.99529904, 534.11096, -0.5468289, -0.5365395, -0.11541641, -6.346389, -0.18459103, -0.92544526], [0.0, -0.8288269, -0.2829088, 0.16071598, 534.8539, 0.16669977, 0.4532365, -0.028022885, -7.138462, -0.05353948, 0.13558954], [0.0, 0.02040422, -0.31684363, -0.9285504, 534.2727, -0.9955733, 0.21166147, -0.6729009, -6.8455486, 0.8735418, -0.35954964], [0.0, -0.70168734, 0.19451398, -0.21087678, 535.88904, 0.69470334, 0.44746628, 0.24228013, -5.714349, 0.878926, -0.7938065], [0.0, 0.41577923, -0.27382886, -0.9699797, 535.3623, 0.5984297, -0.0146368565, -0.7199874, -6.1928287, -0.5455899, 0.07745165], [0.0, -0.87694454, 0.7947281, -0.5271913, 535.825, -0.46206826, 0.14634408, -0.47417802, -6.7296147, 0.81390756, 0.9685648], [0.0, -0.21473849, -0.42499894, 0.7468286, 535.4198, -0.02605617, 0.95308614, -0.043976903, -6.25701, -0.0077588223, 0.9672199], [0.0, 0.12046158, 0.21110123, -0.8110928, 534.5991, 0.8657694, -0.28733125, 0.9242039, -5.8849454, -0.29134396, -0.84854215], [0.0, -0.31163114, 0.6996171, -0.41599312, 534.00055, 0.15789163, 0.9264643, 0.20443857, -6.2860208, 0.682018, 0.84088737], [0.0, -0.004480958, 0.14638609, -0.2879323, 534.2415, 0.047151685, -0.058128458, 0.2236327, -5.362035, -0.72706467, -0.43356454], [0.0, 0.44107068, -0.22210443, -0.9631333, 534.4595, 0.19476807, -0.27273718, 0.09609592, -5.536502, 0.95287555, -0.5426694], [0.0, -0.39647955, 0.5796055, -0.3939394, 534.7331, -0.5251512, 0.44911948, 0.90140843, -6.0275917, 0.6049401, -0.19215757], [0.0, -0.085241914, -0.64999336, 0.9346722, 534.923, 0.9753275, -0.67216253, 0.8518808, -6.8388753, -0.200582, 0.54849416], [0.0, 0.17381465, -0.105982184, -0.24419458, 535.7476, 0.9917145, 0.07665266, 0.33832324, -6.4621005, -0.012482133, 0.83339506], [0.0, 0.2565242, -0.6126465, -0.71365565, 534.7178, 0.64831614, -0.833148, 0.11238849, -6.5799565, 0.3164747, 0.49286717], [0.0, 0.43085968, 0.7649514, -0.1240743, 535.04443, -0.47128576, 0.04976191, 0.49090445, -6.566386, -0.92506963, 0.85281855], [0.0, 0.2664305, -0.056690574, 0.094110645, 534.1017, -0.16299522, -0.8030462, -0.078039765, -5.460347, 0.4917114, 0.76298386], [0.0, -0.26046437, 0.30021185, -0.72454995, 535.11127, 0.027238965, -0.429711, -0.30523676, -6.3895187, 0.96875733, 0.13683909], [0.0, -0.4604215, 0.75377244, 0.9109877, 534.2216, -0.49292177, 0.59444594, 0.30828893, -7.1892405, 0.5901858, -0.5665022], [0.0, -0.93678, 0.64974374, -0.49824157, 534.0423, -0.80653095, -0.41313186, 0.8478694, -6.3831015, 0.7558691, -0.7136101], [0.0, 0.41863263, -0.4831726, 0.6240621, 535.53217, -0.98667383, 0.1445588, 0.88090587, -6.8750777, -0.9318531, -0.3225597], [0.0, -0.9206836, 0.7529308, -0.99232835, 534.54877, -0.18995154, 0.8887625, -0.18061912, -6.706197, 0.14698675, 0.75446993], [0.0, 0.84722114, 0.9376181, 0.6417816, 534.5564, 0.53871965, 0.44906893, 0.4603945, -5.986926, 0.2703326, -0.29549897], [0.0, 0.42592227, 0.20090479, 0.7510789, 534.1029, -0.99947214, 0.6510458, -0.5122599, -6.6786127, 0.17660525, -0.69431084], [0.0, -0.45307082, -0.60355824, -0.89428824, 535.36285, -0.6768794, 0.60724854, 0.56096864, -5.437131, -0.8964117, -0.90314144], [0.0, 0.9167695, 0.1930663, 0.34853068, 535.1141, 0.3052417, -0.15627895, 0.60682654, -6.9823375, 0.97477216, 0.8092156], [0.0, 0.55722237, -0.15343821, -0.66040343, 535.8369, 0.35354245, 0.36796156, -0.5779962, -5.4189987, 0.19962981, -0.81173056], [0.0, -0.7642107, 0.4660408, -0.40375605, 534.928, 0.8711431, 0.23323168, -0.7307117, -6.3236113, -0.76901776, -0.076129735], [0.0, 0.58478117, -0.054295897, 0.6123174, 535.1852, 0.77811813, -0.23468934, 0.39067638, -6.115777, 0.03040937, -0.45743096], [0.0, -0.81871676, -0.46596283, 0.24558799, 535.67694, -0.21801889, -0.86339045, 0.2568525, -6.6358857, -0.20262954, -0.14817649], [0.0, 0.10425842, -0.50202817, 0.6359063, 535.42584, 0.8492856, -0.8888874, 0.12253606, -5.7082887, -0.7472423, 0.4876129], [0.0, -0.8924618, -0.15862882, 0.32862034, 534.4055, 0.17030084, -0.16295491, 0.42456615, -5.564307, 0.20745733, -0.23243958], [0.0, 0.3404628, 0.21446389, -0.16553219, 534.5213, -0.3390016, -0.8572233, -0.34538835, -6.677576, -0.14617512, -0.858149], [0.0, -0.7485144, -0.34717125, -0.13782652, 534.6641, 0.6201222, 0.58747125, -0.9918337, -7.3053503, -0.7397757, -0.595292], [0.0, -0.2966792, -0.59243125, -0.950489, 535.64844, 0.41557252, 0.42527452, -0.9838741, -6.8789763, -0.54527307, 0.7580233], [0.0, -0.7550931, -0.16485393, 0.22908728, 534.3753, -0.7164581, -0.500925, -0.7837267, -6.2803926, -0.40974906, -0.57497704], [0.0, 0.98714066, 1.1237779, -0.23619111, 534.6534, 0.9618342, 0.090176, 0.60352707, -7.080202, 0.15003303, 0.58775216], [0.0, -0.48933333, 1.0760419, 0.3009154, 534.4962, 0.84330845, -0.7183435, 0.1830014, -7.3176055, 0.96558994, 0.40778583], [0.0, -0.40741175, 0.17978781, 0.8001569, 534.73254, 0.9236543, -0.49871984, 0.37316906, -6.1198535, -0.7053006, 0.32526177], [0.0, 0.18505204, 0.4155864, 0.64902526, 534.51526, 0.6394732, -0.66786766, -0.77282596, -5.4628057, -0.9254258, 0.45184416], [0.0, -0.03293979, 0.7715809, -0.48302832, 535.9435, 0.8342526, 0.822896, 0.5344076, -5.852406, 0.7092387, 0.5239158], [0.0, -0.5215468, 0.30186123, -0.84093565, 534.488, 0.6347444, 0.3164157, 0.06424844, -5.9782495, -0.5587926, 0.8249331], [0.0, -0.56913966, 0.62582606, -0.8792543, 534.41595, 0.9478867, -0.6163537, 0.4956578, -5.644371, 0.4594448, -0.32629836], [0.0, -0.048775077, 0.13309401, -0.7470624, 535.7555, 0.7325294, -0.40173617, -0.8175039, -5.5262747, 0.17564586, 0.29774326], [0.0, 0.05249417, 0.7762999, -0.1067365, 534.17303, 0.026824594, 0.25953928, 0.11218679, -6.984252, 0.97158164, 0.9617346], [0.0, -0.41124743, 0.90483385, -0.8599493, 534.46265, 0.36959827, 0.79616356, 0.7689798, -5.5665703, -0.3025258, 0.64292365], [0.0, 0.8456032, 0.8643277, -0.19072731, 534.9342, 0.035885453, -0.08226763, 0.92077637, -7.1858807, 0.07364395, 0.46477264], [0.0, 0.051637053, 0.9391995, -0.78799456, 535.24536, -0.07477105, -0.13217507, -0.85848975, -7.332899, 0.8568539, 0.8158286], [0.0, 0.8167236, -0.57172793, 0.00046364573, 534.76526, 0.44773543, -0.17020093, 0.03944099, -6.191459, 0.07897332, 0.87912637], [0.0, 0.63838816, 0.6077494, 0.42222396, 535.64233, -0.58662146, 0.9481323, -0.8149514, -5.919982, -0.8971742, 0.4174859], [0.0, 0.19009984, 0.2420029, 0.115980305, 534.6587, 0.98828983, 0.31851307, 0.975296, -5.691629, -0.99095184, 0.8762489], [0.0, 0.23922074, 0.22413248, -0.99028987, 535.67804, -0.524702, -0.73120904, -0.8845546, -7.0365477, -0.40252855, -0.23560244], [0.0, 0.05170691, 0.098236024, 0.44348136, 534.9696, -0.12915957, -0.033093315, -0.50650185, -5.8578367, 0.91635674, -0.87324184], [0.0, 0.8776622, 0.7265355, 0.11868373, 534.2425, -0.26748103, -0.65732145, -0.956939, -5.7066984, 0.3582113, 0.72752434], [0.0, 0.77456236, 0.772386, 0.45037666, 535.27576, -0.8426392, 0.4341053, -0.49543422, -6.615209, -0.3091028, 0.06672448], [0.0, -0.3647396, 0.02433312, 0.08520452, 535.43866, 0.5198853, -0.6731498, -0.6434026, -6.6454353, 0.17787603, -0.590454], [0.0, -0.6593151, 0.18140858, 0.34543076, 535.0971, -0.45824975, -0.7911854, 0.7972119, -5.691784, 0.6410355, 0.48922104], [0.0, 0.8539636, 1.119494, 0.9852126, 534.0804, 0.4510175, 0.20827521, 0.7823539, -6.411114, -0.83268887, 0.82110435], [0.0, 0.06346476, 0.5016052, 0.30132928, 534.14856, 0.34029305, 0.91322184, 0.29551208, -6.5556393, -0.48535755, 0.16902083], [0.0, 0.017722726, 0.51370233, 0.90285593, 535.4029, 0.64988065, -0.29911414, -0.8745084, -6.861624, -0.32118657, -0.86550206], [0.0, 0.7899897, 0.28389806, -0.49713436, 535.71344, 0.33263028, 0.81407, -0.4608187, -6.9219007, -0.51098776, -0.5803019], [0.0, 0.2227968, -0.1415776, -0.5654236, 534.2013, 0.6161432, -0.59172314, -0.2640664, -5.5093045, 0.3673766, 0.001017036], [0.0, 0.62615395, 1.0572009, 0.6031018, 534.4518, -0.757637, 0.861011, 0.35195625, -6.6557884, -0.2674723, 0.0014202019], [0.0, 0.9369209, 0.26196474, 0.048927944, 534.4575, 0.43144906, -0.04810415, -0.5925614, -5.6486607, 0.4532931, 0.7890776], [0.0, -0.8383975, 0.9834953, 0.3868672, 534.4088, -0.5747296, 0.80194044, 0.60285974, -6.6672935, -0.9751535, -0.31198156], [0.0, 0.61113167, 0.5255086, -0.7445113, 534.7255, -0.78500366, 0.90414834, 0.6455381, -6.9312387, -0.26788667, -0.6986231], [0.0, 0.7258818, 0.13304085, 0.22040527, 534.187, -0.046434045, 0.78330183, -0.6555345, -6.822025, -0.46347025, -0.88042897], [0.0, 0.8348038, -0.4454679, -0.77646154, 534.39655, -0.7716248, -0.6479857, 0.23448718, -7.146047, -0.75672823, 0.8655451], [0.0, -0.27376455, 0.05057305, -0.116368614, 535.56647, 0.090581775, 0.26367798, -0.10044491, -6.5541344, 0.27878478, 0.9768444], [0.0, 0.7417121, 0.6994731, 0.32086173, 535.7249, -0.5964741, -0.21590506, -0.29924077, -5.7342014, 0.5257732, -0.78719014], [0.0, 0.016012311, 0.3815803, -0.9395682, 535.5876, -0.55536574, -0.75397277, -0.013371587, -6.4905295, -0.4033914, -0.89528626], [0.0, -0.35134548, -0.6332895, 0.31832114, 535.0653, -0.6844773, 0.73187876, 0.5452354, -5.5343637, -0.7562049, -0.53205144], [0.0, 0.36592782, -0.5845224, 0.44572058, 535.4854, 0.59085584, -0.09344421, -0.4481215, -7.1995754, 0.73794836, -0.8708357], [0.0, -0.97593427, -0.39469475, -0.008806784, 535.57623, -0.31030673, -0.6643305, -0.28385824, -5.7484727, -0.30837706, 0.9325803], [0.0, -0.34374613, 1.255661, -0.9850208, 535.35223, 0.9257946, 0.66226196, -0.9779544, -6.0380335, -0.48051098, -0.16649252], [0.0, -0.09459531, 1.1851454, 0.42312565, 535.55286, -0.20129836, -0.8039918, -0.6746373, -6.6603923, 0.015184436, 0.7402075], [0.0, 0.6188922, 0.70424503, -0.5462333, 535.5115, 0.16489446, -0.0225874, -0.5117633, -7.104974, 0.03302959, 0.51305085], [0.0, 0.88215137, 0.12608093, -0.37827936, 535.82153, 0.83320093, -0.6457064, -0.4478752, -5.699026, -0.90665084, 0.34788316], [0.0, 0.75154424, 0.8216825, 0.3750719, 534.70935, 0.22661221, -0.11516772, -0.30048198, -6.507612, -0.08434889, 0.3212437], [0.0, -0.42928046, 0.13764042, 0.49822727, 534.619, 0.2341789, -0.9033387, -0.79503536, -7.3389025, 0.74311894, -0.8331379], [0.0, -0.028470635, -0.4876179, 0.7214001, 535.6701, -0.6927986, -0.58185333, -0.51241034, -5.559476, -0.72339183, -0.24959451], [0.0, -0.5662963, -0.24098194, -0.6014954, 534.5079, 0.90686965, -0.22916542, -0.061279416, -5.398867, 0.36757258, -0.07646042], [0.0, -0.32698268, 1.010561, 0.31421223, 534.77826, -0.39726347, 0.8022151, -0.9232185, -6.222325, -0.9248286, -0.5628487], [0.0, -0.93216014, -0.49362558, 0.43578425, 535.9269, -0.645519, -0.8660579, -0.97531843, -6.1223216, -0.27192166, -0.80092186], [0.0, 0.067088485, 0.90962917, -0.23320968, 534.98004, -0.502299, 0.6821737, -0.98636246, -6.779773, -0.7881959, 0.040783588], [0.0, 0.82316494, 0.011737943, -0.7685067, 534.5545, 0.77022815, -0.8772383, 0.3740288, -5.416886, -0.24665424, 0.31104964], [0.0, 0.6558318, 0.5317313, -0.7193853, 533.98865, -0.8107021, 0.72439146, -0.71206284, -5.552069, 0.2476981, 0.34758228], [0.0, -0.038629174, -0.037118316, 0.9990199, 535.52435, -0.9718809, 0.75501704, 0.8620136, -7.1138277, 0.7398061, -0.37102807], [0.0, 0.105727315, -0.101652265, -0.84887165, 534.35474, 0.78667665, 0.2166468, -0.15642369, -5.759533, -0.9515243, -0.43551552], [0.0, 0.891423, 0.64116925, -0.3518404, 534.349, -0.14910829, -0.3871025, 0.31561625, -6.011697, -0.45166615, -0.877212], [0.0, -0.71077514, 0.7700979, 0.10091368, 535.8966, 0.53792524, 0.5915148, 0.7968707, -7.1123776, -0.019502368, -0.44043887], [0.0, 0.07360637, 0.83859235, 0.07403866, 535.5462, 0.07181013, 0.7698171, 0.19699895, -5.8422174, 0.56493014, 0.9723833], [0.0, -0.9929967, 1.2135358, 0.040181797, 535.55054, 0.44744313, 0.86616516, -0.25554103, -5.8230495, 0.9788024, -0.36803973], [0.0, -0.21243346, 0.22812861, -0.44532958, 535.28046, -0.82620406, 0.632262, 0.08764279, -7.3305936, 0.16833523, 0.07688135], [0.0, 0.44680655, -0.67309064, 0.93585855, 534.69293, 0.71046877, -0.071598634, 0.50456166, -7.3036265, 0.5647599, 0.37074274], [0.0, 0.5016937, 1.2273021, -0.99878997, 535.8068, 0.030189633, -0.2743396, 0.859874, -6.720743, -0.64121205, -0.56553614], [0.0, 0.86894107, 0.14642233, 0.7224451, 534.6765, -0.45211428, 0.009412426, -0.83566475, -5.409399, -0.030740943, 0.25074786], [0.0, 0.2671684, 0.75159377, -0.8786401, 535.6053, -0.16542614, 0.95497584, -0.605365, -5.921491, 0.29115298, 0.92567855], [0.0, -0.44360632, -0.5336513, -0.03653868, 534.8887, 0.4192978, 0.00015105586, -0.978595, -5.900148, 0.7573511, -0.31545293], [0.0, -0.9088175, -0.611545, -0.84747547, 534.358, 0.95506597, -0.4373261, 0.91569734, -6.8727307, 0.37977913, 0.9978538], [0.0, 0.7664869, 0.5410747, 0.5498453, 535.084, -0.8694012, -0.6685982, 0.02481401, -6.948562, -0.66335493, -0.6340813], [0.0, -0.03769481, -0.15905702, -0.89846534, 535.0495, -0.27883452, -0.5432281, 0.06310642, -6.6760697, 0.28466967, 0.58306104], [0.0, 0.7367513, 1.0513902, -0.1915458, 535.05035, 0.46677268, -0.9286897, 0.5950568, -6.374571, -0.9543024, -0.601441], [0.0, 0.6970706, 1.2006207, -0.48093286, 534.4871, -0.38137668, -0.6866443, -0.09610474, -5.4242897, -0.22928712, -0.8456027], [0.0, -0.17122304, 1.1431196, -0.7060725, 534.2715, 0.29644215, 0.6993122, 0.35250437, -5.4842997, -0.77567893, 0.9480668], [0.0, -0.87065554, 0.9479471, 0.059907835, 535.6056, -0.10118353, -0.7044029, 0.54448247, -7.145394, -0.2968357, -0.30001962], [0.0, -0.60850495, 1.0496197, 0.8543096, 534.1519, 0.7325139, 0.6835232, -0.7637675, -5.7569942, -0.11560008, -0.45790398], [0.0, 0.57082224, -0.6197023, 0.80570275, 534.443, 0.9471369, 0.33491746, 0.6580074, -7.2537413, 0.09274939, 0.13925713], [0.0, -0.8704498, -0.58692425, 0.21264355, 534.9853, 0.051883817, -0.7622378, -0.7212331, -5.8201556, 0.15533212, 0.7076431], [0.0, 0.3022877, 1.1775239, -0.4999384, 534.53345, -0.61738056, -0.6603935, -0.68715477, -5.822716, 0.5405969, -0.024939595], [0.0, 0.5279257, 0.4855196, -0.20866306, 534.2948, 0.40703356, 0.5542302, 0.706759, -5.749328, -0.086111754, -0.83972734], [0.0, -0.5250158, 0.3245973, -0.19867618, 535.4707, 0.74524665, -0.17480956, -0.6013934, -6.2703133, -0.18706724, -0.002301989], [0.0, -0.6596434, 0.8392735, 0.29214922, 534.30396, 0.019340634, -0.6321127, 0.32054722, -6.37135, 0.06902817, -0.1851731], [0.0, -0.2746033, 0.93419844, -0.65680283, 534.0455, 0.2894708, 0.31084052, -0.62791514, -5.9352303, 0.36232713, -0.017704306], [0.0, -0.4299361, -0.6964776, -0.75610274, 534.39197, -0.4054169, -0.55976146, -0.00046503544, -5.784086, -0.039218154, 0.90533], [0.0, -0.7165148, -0.61820716, 0.6215549, 534.7757, 0.7005732, 0.6026721, 0.4795636, -5.6090508, 0.4201961, 0.32306617], [0.0, -0.4491834, 1.1548278, -0.7860629, 535.66754, -0.6056444, -0.053395372, -0.78792906, -6.596161, 0.4397383, -0.5556811], [0.0, 0.00089609623, 0.8262122, -0.49509087, 534.4908, -0.69892216, -0.92415047, -0.29348916, -7.186372, 0.45877412, -0.77476114], [0.0, 0.74980044, -0.67269295, -0.85083765, 535.07153, 0.46127546, -0.9591608, -0.68781877, -5.5928235, -0.17437407, 0.4994859], [0.0, -0.87980247, 0.71678513, -0.62732667, 535.5695, 0.58547044, 0.046340365, -0.4185459, -7.1566124, -0.65216285, 0.3325979], [0.0, -0.12556636, 0.94926053, 0.9563332, 535.7237, 0.34957588, 0.5318229, -0.954139, -6.723293, 0.11786488, -0.19330531], [0.0, -0.62712693, -0.24011958, 0.66946703, 534.05994, -0.730113, 0.018910784, -0.6528542, -5.683262, 0.56161207, -0.5173508], [0.0, -0.94078875, -0.65006727, -0.6297726, 534.29956, 0.865741, -0.21318255, -0.09181535, -5.6373725, -0.7589057, 0.5637117], [0.0, 0.53312135, 1.0387099, 0.07788507, 534.325, 0.43775308, 0.1500143, -0.30565065, -6.140843, 0.4115148, 0.20000666], [0.0, 0.025016189, -0.5138201, 0.82750255, 535.6384, 0.030244946, -0.9510355, -0.99858665, -7.2091274, 0.3671985, -0.63410395], [0.0, -0.51214164, -0.3805179, 0.38293758, 534.7429, -0.30326957, 0.71988845, -0.9703536, -6.086941, -0.907491, 0.24975723], [0.0, -0.8716223, -0.53502244, -0.47139397, 535.83154, -0.72106767, 0.3597342, -0.54704565, -6.909884, 0.9058923, -0.6680309], [0.0, -0.32273763, 0.6552436, 0.23687904, 535.911, -0.43063968, 0.5833483, -0.07076061, -7.1449366, 0.5134329, 0.04297537], [0.0, -0.7245498, -0.19358408, 0.28452888, 534.99005, -0.124433875, -0.0035954537, 0.28471768, -6.006125, 0.09145048, -0.51034224], [0.0, 0.38857663, 1.1097591, 0.19425885, 535.8349, -0.5703024, 0.51208854, -0.043766618, -6.385543, -0.4437838, -0.11905843], [0.0, -0.5749199, 0.75116366, -0.18098505, 535.35443, -0.40216202, -0.7916355, 0.661186, -5.633866, -0.2841926, 0.12814134], [0.0, 0.6402774, 0.54899424, 0.10294501, 534.37024, -0.06348407, -0.59573644, 0.036217332, -6.6840563, 0.569416, 0.8379827], [0.0, 0.39023578, 0.99842864, -0.0586315, 535.66296, 0.7106285, 0.4064969, 0.8124962, -6.7920322, -0.5387504, 0.9303418], [0.0, -0.8712845, 0.58710545, -0.380165, 534.60345, -0.8652282, 0.6353469, -0.10105574, -6.3113165, 0.45790794, 0.1505093], [0.0, -0.11345279, 0.57386535, 0.37671748, 534.48816, 0.22632992, -0.9553776, 0.6088371, -7.07932, -0.25195357, -0.46899784], [0.0, -0.49659342, 0.95008117, 0.74725205, 534.87573, -0.36747974, -0.4428083, -0.21264493, -5.4666615, 0.022236858, 0.13340992], [0.0, 0.74530697, -0.32640922, -0.33597127, 534.8585, 0.7153616, -0.9584749, -0.06959951, -5.548341, -0.25943258, 0.2986254], [0.0, -0.74871564, 0.28828973, 0.13021772, 535.79956, 0.111885905, -0.065638885, -0.32666677, -6.812223, 0.7711689, -0.82805413], [0.0, -0.19366181, 0.98149973, 0.41554967, 535.766, 0.264372, -0.528393, 0.5772455, -5.876265, 0.7168469, 0.20242876], [0.0, 0.923578, -0.58256334, -0.82373875, 535.3135, -0.99818516, -0.90043616, -0.14885795, -6.0356455, 0.429091, -0.49432075], [0.0, 0.700161, 0.79760057, -0.34185424, 535.6383, 0.3927282, 0.9666321, -0.07250345, -6.4877357, -0.54368925, 0.397577], [0.0, 0.16983044, -0.15481031, 0.51702124, 534.3629, 0.72610116, 0.108001366, -0.055175424, -7.1175957, 0.34098557, -0.71951693], [0.0, 0.936651, -0.5901992, -0.56374204, 534.3289, 0.50504684, -0.6591935, 0.076862454, -6.407641, 0.52900046, 0.5543967], [0.0, -0.023732781, 0.8168424, 0.50092536, 534.42725, -0.5108709, -0.083885536, 0.41324794, -6.974477, 0.94283146, 0.73761326], [0.0, 0.8498759, -0.6166007, -0.93095344, 535.41406, 0.38691795, 0.53193426, -0.49993056, -6.536247, -0.99945194, 0.54549056], [0.0, 0.41385186, 1.0650375, -0.6122261, 534.14417, -0.59067816, -0.9723015, -0.67322016, -6.1260567, 0.3915613, 0.33944625], [0.0, 0.9639666, 0.64172906, 0.10965458, 535.48474, -0.3598582, -0.5193054, 0.2346946, -6.228201, -0.28016213, 0.017321052], [0.0, 0.22467148, -0.46099132, -0.021435816, 535.0843, 0.11328471, 0.6013572, -0.94179916, -5.8988223, -0.47172502, -0.7366647], [0.0, 0.095427394, -0.69933575, 0.6009677, 534.03314, -0.022383094, 0.90555644, -0.7447088, -5.9309382, 0.98950094, 0.11293715], [0.0, 0.7005966, -0.70295614, 0.48061863, 535.2327, -0.2542352, 0.89680576, 0.0926739, -5.9096894, -0.8911529, 0.14624041], [0.0, 0.674299, -0.45351547, 0.1632611, 535.10486, -0.24064004, -0.48681584, 0.41294324, -6.1746216, -0.67092973, 0.6379276], [0.0, -0.34276026, -0.6662261, 0.29320517, 535.46606, -0.4453928, 0.24598493, -0.9673412, -5.600562, -0.9218884, 0.11768192], [0.0, -0.45895618, 0.96113616, -0.24872358, 535.65955, 0.44181955, -0.5971884, -0.5923087, -5.9527593, 0.5693206, 0.78371125], [0.0, -0.50920075, 0.76602834, 0.74416095, 535.0823, -0.54009694, 0.4477004, 0.2366656, -7.1671896, -0.99978477, -0.0007436852], [0.0, -0.5255348, 0.7737672, -0.5498837, 535.253, 0.14262998, 0.84649086, 0.42441547, -5.905689, -0.91787845, 0.7336858], [0.0, -0.119662166, 0.08651227, 0.3234283, 534.4587, -0.5612685, -0.295118, -0.21306479, -5.4389353, 0.8040468, -0.40175283], [0.0, 0.6658273, -0.3390178, 0.14216511, 535.2736, 0.117630124, 0.80768967, -0.094313025, -6.0376925, 0.8698155, -0.14753562], [0.0, -0.19538009, 0.24479479, 0.043147486, 534.2042, -0.0338794, -0.61450166, 0.9744675, -6.9428177, -0.26986244, -0.11566621], [0.0, -0.11050904, 0.78343976, -0.022789462, 195.0805, -0.04612553, -0.198029, -0.5682532, -1.4500926, -0.898861, -0.93817675], [0.0, -0.6118917, -0.10426038, -0.23335542, 198.43387, -0.10792148, 0.8483446, -0.016326308, -3.1219115, -0.62975407, -0.24329726], [0.0, -0.7251997, 0.89228666, 0.5009521, 194.91602, 0.87264204, -0.5245273, 0.6988354, -2.9264274, -0.63898546, 0.75590503], [0.0, 0.30855858, -0.5524428, 0.66341835, 190.12814, 0.7668083, -0.8971238, -0.13098395, -2.1124835, -0.4857524, -0.40854654], [0.0, 0.45884168, 0.9302483, -0.8224365, 203.44208, -0.182001, 0.11215102, -0.27351707, -2.4565172, -0.81652397, -0.5962431], [0.0, -0.7923393, 0.79489446, -0.63297826, 196.68147, -0.36066478, -0.07147896, 0.03133619, -3.131162, 0.41089556, -0.023458438], [0.0, -0.9931567, -0.87511504, -0.07378839, 194.73483, -0.4839453, 0.35852125, 0.3086084, -1.7987363, 0.16492921, -0.40035537], [0.0, -0.9610009, 0.592391, -0.06039938, 201.77138, 0.77941084, -0.5733392, 0.94407153, -3.1866493, -0.08072517, 0.72949886], [0.0, -0.40162796, 0.39537784, -0.75682557, 195.33586, 0.99511576, -0.7094708, 0.88969326, -2.8066037, -0.48523974, -0.42414525], [0.0, 0.092123866, 0.47396946, -0.5093819, 201.55475, -0.53724307, 0.41036895, -0.4453742, -1.7855847, 0.47630718, 0.19364628], [0.0, -0.88532376, -0.17440644, -0.78083664, 197.5243, 0.03929007, 0.9422877, -0.44193667, -2.7948701, 0.45881674, -0.55959964], [0.0, -0.25485867, -0.13351154, 0.6951683, 201.29619, 0.96280766, 0.18232825, 0.7003386, -1.7598994, 0.02520039, -0.7065182], [0.0, -0.9700384, -0.26482022, -0.40897068, 203.92557, 0.34626973, -0.4376244, 0.5724752, -2.301046, -0.11841614, -0.88834715], [0.0, -0.6822827, 0.83766234, -0.69600576, 201.78337, -0.8224013, -0.22722837, -0.65330553, -1.6190786, 0.29174808, -0.67117], [0.0, -0.49038166, 0.52711856, -0.362139, 197.19243, -0.87154675, 0.9472678, -0.7425566, -2.4430285, -0.21602586, -0.41368154], [0.0, 0.23773062, 0.1229887, -0.61366975, 202.38385, 0.13576996, 0.7880215, 0.7766261, -2.2752776, -0.82566416, -0.5477449], [0.0, 0.80212975, -0.028342344, -0.53479767, 196.7609, 0.008733153, -0.5937192, 0.11576855, -2.8164318, 0.89330584, 0.88490504], [0.0, -0.6580844, 0.6510354, -0.84318537, 202.07701, -0.4430887, -0.9462927, 0.91852784, -2.2590299, -0.5623997, -0.44931862], [0.0, -0.9664428, -0.807581, 0.92435026, 200.18968, 0.24018061, 0.23653765, 0.09534943, -1.5218253, -0.84295607, -0.74132806], [0.0, -0.56788844, -0.61163133, 0.36662766, 203.24687, -0.42728466, -0.02952421, 0.3796624, -3.052218, -0.9317846, 0.011642811], [0.0, 0.7712326, -0.31376347, 0.65863454, 194.28156, -0.69706845, 0.62658924, 0.3900355, -1.5715768, 0.0039554266, -0.16273235], [0.0, 0.5833335, 0.9828987, 0.16255075, 196.2844, 0.56166553, -0.0376724, -0.83538723, -3.2907948, 0.22759363, -0.08153243], [0.0, -0.95084214, -0.42069316, 0.5158651, 199.1434, -0.041615605, 0.736141, 0.90902877, -2.9536316, -0.29866523, -0.23418419], [0.0, -0.66508555, 0.1723504, 0.61740476, 201.46419, -0.03818786, -0.643426, 0.17611921, -2.6628964, 0.6184002, -0.2710416], [0.0, 0.2417301, -0.4314862, -0.21936807, 201.17294, 0.5324755, 0.77442473, -0.29945678, -2.3321013, 0.8593465, 0.16239437], [0.0, -0.42289537, 0.3940112, -0.77708095, 202.84329, -0.9108918, -0.24426448, -0.4039194, -1.4619296, -0.46999896, 0.1453706], [0.0, 0.4329723, 0.9121793, -0.8914072, 204.39288, 0.21031201, -0.5647132, 0.49803245, -2.9530745, -0.20565827, 0.040261146], [0.0, -0.16742122, -0.10055902, -0.88376343, 195.9454, -0.0938791, -0.9949096, -0.57442087, -2.106861, 0.15118462, -0.88040674], [0.0, -0.6267011, -0.69408166, -0.8244425, 195.70172, 0.26789677, -0.3363121, -0.4175114, -1.8621811, 0.069627345, 0.35865214], [0.0, -0.9256277, 1.0582373, -0.7438522, 196.93367, 0.99825406, 0.011921285, 0.40673912, -2.824853, 0.21644995, 0.53263324], [0.0, 0.89254546, 0.67494965, 0.08765513, 196.33983, -0.44143194, 0.07999408, -0.2734372, -3.0819762, 0.23081872, 0.1720789], [0.0, -0.9970634, 0.8371254, -0.58376676, 194.92616, -0.60579056, -0.9309712, 0.7676499, -1.936478, -0.7416652, -0.2830172], [0.0, 0.14244688, -0.73820794, 0.30232528, 195.17491, 0.38730395, 0.6658773, 0.62116194, -3.0904052, -0.12256664, 0.6623074], [0.0, 0.6684556, 0.9516706, 0.57032824, 199.74336, 0.43978727, 0.42066333, -0.6881571, -1.3811779, -0.8404889, -0.33589196], [0.0, 0.80764866, 0.5596733, -0.21227702, 202.31926, -0.60464495, -0.34311512, 0.28682983, -2.1996655, 0.49047592, -0.008417991], [0.0, 0.939193, -0.3001631, -0.27370968, 201.8051, 0.1514405, -0.7154539, -0.27055138, -2.1767583, -0.27939036, -0.8006377], [0.0, 0.7437422, 0.61398816, 0.36272532, 196.6573, 0.5659232, -0.6539979, 0.07546127, -2.9504974, -0.5626029, 0.99102443], [0.0, 0.7750325, -0.34084737, 0.5709987, 204.09981, 0.9210224, 0.6764858, 0.50925636, -2.7007382, -0.20810707, -0.91216016], [0.0, -0.94811726, -0.14922883, -0.20116213, 193.90257, -0.97140193, 0.30610988, -0.9907141, -1.6449907, 0.028616346, 0.5849682], [0.0, 0.549345, 0.6572034, -0.7061133, 534.6169, -0.42574352, 0.5703292, -0.20286381, -6.4809856, 0.47093633, 0.5702346], [0.0, 0.33090866, -0.32463276, -0.10109385, 535.53125, 0.34808958, -0.036731105, -0.6271899, -6.6672297, -0.27853277, 0.023913326], [0.0, -0.263941, 0.06177181, -0.28981343, 534.4594, 0.71436167, 0.77514076, 0.8256848, -6.169602, -0.72122127, -0.7076425], [0.0, -0.6071462, -0.04322064, -0.7233214, 535.22076, -0.5913798, -0.94277644, 0.97983575, -6.0266685, 0.052854333, 0.18010706], [0.0, 0.7542274, 0.19637388, 0.7034758, 535.4853, 0.96864057, -0.18312846, -0.0881809, -6.4099455, 0.08156708, 0.5832084], [0.0, 0.89892244, 1.2235065, -0.8531329, 535.9377, 0.29341424, 0.5974152, 0.06014645, -5.7476377, 0.15273288, -0.488335], [0.0, -0.08463991, 0.6165177, -0.6807706, 533.9673, -0.8007021, -0.28165475, -0.892684, -6.5903344, -0.3406811, 0.2283842], [0.0, -0.90350676, -0.49284977, 0.19533221, 534.8587, -0.06326592, 0.38191453, -0.8413141, -5.401114, 0.8542816, -0.7853405], [0.0, 0.99681425, 0.2949173, -0.6993026, 534.89716, -0.21959603, -0.9165704, 0.8230407, -5.7699766, 0.72553676, 0.18496317], [0.0, 0.7434757, 1.1052382, -0.13047083, 534.7832, 0.7991333, 0.10257925, -0.8668697, -7.046904, -0.26421073, -0.7870161], [0.0, -0.43075913, -0.48330373, -0.5724398, 535.1129, -0.27524656, 0.27427855, 0.69201636, -6.8311043, 0.62241334, -0.38173378], [0.0, -0.24549258, 0.025909968, 0.6249871, 198.89015, -0.31601447, 0.75188404, 0.5507617, -2.8886085, 0.24138892, 0.20094092], [0.0, 0.17539942, -0.48540813, -0.05141076, 202.03986, 0.33904755, 0.80110043, -0.6449013, -2.1234193, -0.93897426, -0.21166244], [0.0, -0.39790243, -0.20865828, 0.7979005, 201.81734, -0.6993985, 0.2534106, 0.5933044, -2.5202827, 0.6712204, -0.43986127], [0.0, 0.12569606, 0.09076826, -0.57627857, 203.55554, -0.2066499, 0.23446476, -0.7199135, -2.5559936, 0.08669608, -0.08990586], [0.0, 0.7326493, -0.34478486, -0.19915418, 203.83392, -0.20787203, 0.8606708, 0.8711815, -2.4555364, -0.8349406, 0.30268395], [0.0, -0.68019676, 0.48218203, -0.6334297, 200.5431, -0.36911744, -0.9767495, -0.49317044, -2.8935232, 0.57774746, -0.047502663], [0.0, 0.9286833, 0.25846913, 0.9498455, 207.42703, 0.9905412, 0.30419257, -0.76468515, -2.396884, -0.71391165, -0.79271764], [0.0, -0.8222952, -0.45061022, -0.7965495, 202.37834, -0.42593712, 0.7198886, -0.3281483, -3.1197593, 0.56082165, -0.9449651], [0.0, 0.966933, 0.4887523, 0.3854632, 204.06482, -0.9962776, -0.52548164, -0.97849345, -2.9770896, -0.12707956, 0.99411535], [0.0, -0.600367, -0.0055012703, -0.57180536, 201.50668, -0.2237593, 0.22385862, 0.8239136, -2.148366, -0.41456583, -0.056195404], [0.0, -0.30375952, -0.7617747, 0.75377446, 203.81195, -0.689013, 0.5249562, -0.18945324, -3.0381536, -0.24788482, -0.049686078], [0.0, -0.36715692, 0.5822398, -0.8955206, 203.7726, 0.40582073, -0.60305876, 0.9709914, -3.2638133, 0.4024822, -0.06553638], [0.0, 0.8900485, -0.28681314, 0.52804977, 202.73473, 0.030698657, 0.05479824, -0.104488015, -3.210828, 0.4437384, -0.40095156], [0.0, -0.10877168, -0.31601897, 0.26552707, 196.37373, -0.22292674, -0.23786676, 0.079409, -2.3232374, 0.7501491, 0.20897178], [0.0, -0.6410532, -0.097489454, -0.7019492, 196.27931, 0.22598112, -0.010128619, -0.09773314, -3.2230625, -0.33113775, -0.754541], [0.0, 0.051770568, 0.043097496, 0.054363165, 201.862, -0.44976252, -0.3435109, -0.652838, -2.3155947, -0.03306792, 0.104340166], [0.0, -0.30886263, 0.9594931, 0.24831305, 199.31026, -0.58499044, 0.5819276, -0.16091216, -1.5710535, 0.10642444, 0.07326395], [0.0, 0.77001524, -0.21258831, -0.5835554, 198.82133, -0.49708742, -0.39927205, 0.5070996, -1.8484685, 0.7315688, -0.6270128], [0.0, 0.44459116, -0.28869522, -0.6640164, 204.42143, 0.15150368, -0.5163724, 0.9850075, -2.9542665, 0.7720757, 0.68602324], [0.0, -0.13620365, -0.78895754, -0.9284417, 204.06442, -0.80924726, -0.6683316, -0.15746415, -2.5545464, 0.21333997, 0.79072523], [0.0, -0.6660459, 0.38612884, -0.7135865, 202.5414, 0.5238788, 0.68621063, -0.7827506, -3.3401196, 0.25519246, 0.6889627], [0.0, 0.83785486, 0.03128998, -0.6511628, 202.60948, -0.8966322, -0.77595186, -0.5739984, -3.1803467, 0.4708168, -0.49648398], [0.0, 0.6802492, -0.45299935, 0.815779, 199.96976, 0.700119, -0.25209406, 0.33066, -2.7379525, 0.64240766, 0.15232094], [0.0, 0.53453684, 0.5536944, 0.62779146, 204.47906, 0.59595776, -0.573528, 0.37615097, -1.858629, -0.91902465, -0.8712976], [0.0, -0.72423935, -0.54844326, -0.57082784, 203.70515, 0.7840662, 0.20236623, 0.74186134, -3.4156566, 0.569532, -0.035291318], [0.0, -0.70650816, 0.6938217, 0.12062831, 203.91264, 0.17748463, 0.85704875, -0.026005149, -1.6745999, 0.89388806, 0.33379638], [0.0, -0.6829705, -0.62387455, -0.47747436, 201.43019, 0.81459045, -0.59942746, -0.7628648, -2.4380126, 0.96115506, -0.5729446], [0.0, -0.66074157, 0.29258054, 0.13574882, 202.55705, 0.84382105, 0.07076227, -0.9959433, -2.6884227, 0.5891383, 0.76552796], [0.0, -0.60570234, 0.962335, 0.28205743, 201.17555, -0.498923, -0.0917935, 0.18775475, -2.256215, -0.31986263, -0.77837133], [0.0, 0.40144813, 0.1658489, 0.6707135, 203.56752, 0.84820485, -0.535165, -0.032557607, -2.2665443, 0.028803755, -0.8089566], [0.0, 0.22557604, 0.64570147, 0.6142674, 202.77905, 0.32668865, -0.8233011, -0.0808512, -3.1468031, 0.53472716, -0.83822155], [0.0, -0.92376804, 0.5245859, 0.957238, 202.75122, -0.2731499, -0.1250261, 0.62187386, -3.1240876, 0.67542106, -0.0724653], [0.0, -0.40563625, 0.10189953, -0.84445006, 198.08104, -0.7926371, 0.2850176, -0.45266336, -1.7891164, 0.06530115, 0.95788854], [0.0, -0.31611294, 0.4474756, 0.6073809, 204.39731, -0.13309968, 0.049404975, 0.010273337, -3.2953553, 0.51664215, 0.4287809], [0.0, -0.77224207, 0.8568331, -0.34304133, 200.49043, 0.1903888, -0.776038, 0.974354, -1.7944791, -0.55380565, 0.7122264], [0.0, 0.43550003, -0.6620535, 0.44005725, 204.00484, 0.16784608, 0.54342127, 0.0258888, -2.82967, -0.89423054, 0.78563786], [0.0, -0.16957796, -0.2030285, -0.732192, 200.77512, 0.5403476, 0.02037624, -0.41156572, -1.4782326, -0.5754424, -0.6730094], [0.0, -0.44939822, 0.9666129, -0.4747835, 203.89822, -0.8325653, -0.8870158, -0.47577828, -1.9119725, -0.700447, 0.30088437], [0.0, -0.4470293, 1.0736648, -0.8868932, 201.87923, -0.4923393, -0.6648162, 0.96145606, -1.4549382, -0.74116266, 0.82070565], [0.0, -0.15688479, 0.25285333, -0.4741799, 535.46686, -0.17429674, -0.9915533, 0.82199955, -5.871446, -0.11754963, 0.15079087], [0.0, 0.82683825, 0.33636898, 0.6636699, 534.2196, -0.7278321, 0.7444618, -0.14001524, -7.040394, 0.42548278, -0.41064084], [0.0, 0.6865337, -0.09670627, -0.96842974, 535.0268, -0.871207, 0.30854955, 0.31298864, -5.735618, 0.6032862, 0.21494573], [0.0, 0.66010165, -0.51085585, -0.6847858, 535.5605, -0.13292158, 0.24190868, 0.53507066, -7.0107164, 0.055005345, -0.426942], [0.0, 0.25433838, 1.0806849, -0.49425593, 535.80774, 0.5182998, -0.9221077, 0.4655155, -5.976007, 0.17489055, -0.4450978], [0.0, 0.6857059, 1.1671388, -0.95224565, 535.8368, 0.8380511, -0.71299386, -0.30128735, -6.656434, 0.113722116, -0.066239655], [0.0, 0.7715943, 0.58081144, 0.068087734, 535.9409, -0.27102464, 0.22010292, 0.68602943, -6.2125893, -0.877081, 0.7235182], [0.0, 0.5058563, 0.4244768, 0.052103203, 535.9278, -0.21063697, 0.9077265, 0.8151288, -5.4974823, 0.80921334, 0.54866177], [0.0, -0.6030089, 1.0252588, 0.89620954, 534.5041, 0.647722, -0.9690137, 0.46212113, -6.243843, -0.29000333, 0.22716969], [0.0, -0.56460375, 0.6650426, -0.78806156, 535.66565, 0.27217567, -0.40242735, 0.105115056, -6.0075884, 0.5797488, 0.18964714], [0.0, -0.7773137, 0.92112714, 0.18112366, 534.2479, 0.39115918, 0.33254948, -0.6805184, -6.39266, -0.09606311, -0.42438948], [0.0, -0.17277873, -0.71493715, 0.4496884, 202.8857, 0.31592572, -0.59211606, 0.88847995, -2.9625976, 0.41539377, -0.7846136], [0.0, 0.01104486, 1.0433396, 0.86283666, 200.59196, -0.28060812, -0.6993275, 0.16641271, -3.2170432, 0.73430264, 0.104403585], [0.0, 0.70982766, -0.22221531, -0.16921835, 204.35806, -0.451873, 0.6776421, -0.24501932, -1.6540141, 0.19873445, 0.99623847], [0.0, -0.5115058, 0.9961363, 0.5646762, 208.53134, -0.89246035, 0.118870534, 0.19594944, -2.059401, -0.3276442, -0.041046217], [0.0, 0.005571246, 0.78634006, -0.98955244, 203.3626, -0.29435128, -0.42164344, 0.8694656, -2.5079422, 0.12573354, -0.8143828], [0.0, 0.077593446, 0.84796005, -0.8899378, 203.56091, 0.7318597, 0.009188051, 0.026872516, -2.5334945, 0.0036639464, 0.051964875], [0.0, -0.2651469, -0.45453355, 0.7654375, 206.1473, 0.78090143, 0.7038854, 0.54853845, -3.0388215, -0.7197154, 0.5178652], [0.0, 0.5321677, -0.16748738, 0.010627614, 198.80638, 0.75697136, 0.78644735, -0.18498862, -3.248245, -0.8275814, 0.90195006], [0.0, -0.50139064, -0.28925693, -0.38184533, 203.60645, -0.26700538, 0.45458257, 0.77452946, -2.2610679, -0.016686749, 0.39828718], [0.0, 0.1539098, 0.14641371, 0.19546992, 196.55075, 0.67728066, -0.0022937078, -0.72361445, -1.9189907, 0.8393627, -0.010756688], [0.0, 0.89396024, 0.9929441, -0.35179487, 200.72484, 0.2014693, -0.73165566, 0.5515969, -2.8226695, 0.9301535, -0.64557123], [0.0, -0.2791726, -0.8577632, 0.5238176, 201.29758, -0.33980483, -0.7953289, 0.5427878, -2.9997537, 0.91302764, -0.80204916], [0.0, 0.24280274, 0.534955, -0.64436287, 202.20566, 0.8937714, -0.3911982, -0.28372854, -2.199862, 0.10124185, -0.1618382], [0.0, 0.089221835, -0.39675504, -0.015876142, 202.35948, 0.35556877, 0.26337984, -0.19166958, -2.8282752, 0.6651963, -0.27088186], [0.0, 0.40020216, 1.076206, -0.3077917, 197.95694, -0.75618005, -0.6995549, 0.0360924, -3.1816773, -0.70436615, 0.5432672], [0.0, 0.47207367, 0.8721845, -0.24603987, 204.7131, 0.33755982, -0.85124296, -0.40644926, -2.823824, -0.68706685, -0.45977512], [0.0, -0.453669, -0.6195945, 0.6776312, 202.66687, -0.16285145, 0.8317201, 0.31133497, -3.349358, 0.70270306, 0.3483895], [0.0, -0.17365324, 0.8560359, 0.3582505, 199.63963, 0.06594002, -0.18621401, 0.6528938, -3.1550977, 0.43227923, -0.77828985], [0.0, 0.6665456, 0.12241626, 0.93922144, 201.36551, 0.14681876, 0.71406406, -0.5243079, -3.1428535, -0.31599167, 0.25271067], [0.0, -0.5437662, -0.5154733, -0.89691514, 203.09172, 0.37955296, -0.40554184, -0.28903812, -2.333507, 0.7207237, -0.41957158], [0.0, -0.22732651, 0.48098686, -0.08900018, 208.44518, 0.2755674, 0.4702814, -0.37389845, -1.8728404, -0.83038247, 0.9111772], [0.0, 0.88878465, 0.91057426, -0.6631953, 204.22679, -0.07971966, 0.28483713, -0.25005502, -2.0475554, -0.8317031, -0.9870186], [0.0, 0.23460686, 0.5287742, -0.23787098, 204.20961, -0.6488364, 0.7385185, -0.7398915, -2.437971, -0.79880065, 0.77445984], [0.0, -0.3497433, -0.8119209, -0.4555052, 205.03508, 0.27861583, 0.26150793, 0.78997564, -1.7462854, 0.97028774, -0.70915437], [0.0, -0.14238417, -0.026636198, 0.7982705, 202.51701, -0.589817, 0.5411389, -0.7199776, -2.4545097, 0.04595058, -0.69139934], [0.0, 0.29629266, 0.8473485, 0.15546866, 204.07358, 0.5532265, -0.8289795, -0.2853753, -3.1795444, -0.95072097, 0.29419386], [0.0, 0.46660435, -0.40648848, 0.3312396, 201.14911, -0.46015757, -0.1140246, -0.5382382, -1.4096565, 0.54362404, 0.5700836], [0.0, -0.20240223, -0.113414764, -0.88960403, 201.64207, 0.65129733, 0.8586623, -0.25922555, -2.4118452, -0.9534539, -0.8454509], [0.0, -0.6439588, 0.8142818, -0.76513547, 201.7222, -0.15104115, 0.76427764, 0.34171236, -3.2345967, 0.5977284, -0.32368442], [0.0, -0.48461002, -0.36938155, -0.85052866, 203.507, 0.82400274, 0.48957145, 0.10349119, -1.8888922, 0.4748885, 0.9483392], [0.0, 0.54957247, -0.8817089, 0.6303601, 199.33875, -0.6443181, -0.23936968, -0.077751994, -2.0478292, 0.7485292, -0.081539325], [0.0, -0.40371174, 1.0041797, -0.6947506, 197.1049, -0.9389782, 0.33513606, 0.60151935, -2.781073, -0.4241968, -0.7411433], [0.0, -0.996634, -0.8386212, -0.22669806, 200.15486, -0.17697942, -0.7490975, -0.0068255663, -2.4861832, 0.021216746, -0.49415898], [0.0, -0.90074825, -0.24012065, 0.44909942, 199.18791, 0.3665923, 0.7678955, 0.7804513, -2.9413328, 0.8584788, -0.37235498], [0.0, 0.27970016, 0.914808, 0.88829875, 200.22078, 0.16239488, -0.67176217, -0.16402304, -2.4885302, -0.5142352, -0.05562418], [0.0, 0.20318067, 0.8891518, 0.023613276, 197.64401, -0.36772698, 0.8242266, 0.9629848, -1.9561247, -0.38234767, 0.102278754], [0.0, 0.6453259, -0.015802145, -0.37219682, 202.1833, -0.045541883, 0.8673515, -0.90151477, -2.747047, 0.64301074, -0.20188871], [0.0, 0.07807815, -0.15465106, 0.67982227, 202.59535, -0.3851871, -0.3951804, 0.15003908, -2.6960144, -0.2795626, 0.4006356], [0.0, -0.5061082, 0.5027272, -0.07761769, 202.65103, 0.5155904, -0.16017473, -0.3628325, -2.9509342, 0.13931338, 0.724174], [0.0, 0.17220056, -0.08436191, -0.3620707, 534.13104, -0.9018185, -0.18843971, -0.2469083, -6.222119, -0.5364938, 0.13709205], [0.0, -0.5512616, -0.21968734, 0.46139064, 534.20245, 0.42408907, 0.39505616, 0.21751702, -5.798073, 0.05104259, 0.6792856], [0.0, -0.020300984, 0.90870506, 0.8992029, 534.3476, -0.89469576, 0.6692643, 0.95639944, -6.5181727, -0.11669728, 0.51005036], [0.0, -0.736804, 0.4500653, 0.67216164, 535.30133, -0.29007477, -0.7132063, -0.6527295, -5.447959, -0.51027775, -0.5258075], [0.0, -0.803329, 0.3921892, -0.5405661, 535.3166, -0.8401482, 0.8875387, -0.023971915, -6.961998, 0.2147589, 0.82680565], [0.0, -0.47788757, 1.2081072, -0.029833157, 535.87384, -0.23131406, -0.22317515, -0.28004903, -5.384034, -0.6755081, -0.14519411], [0.0, -0.9248173, 0.34199685, -0.68998736, 534.03784, 0.47540152, -0.9504409, -0.5791308, -6.7934484, -0.04277369, -0.9682285], [0.0, 0.73113513, 0.3733973, -0.5248159, 535.7357, -0.83014584, 0.5860977, 0.8171363, -6.2120094, 0.67449564, -0.16095573], [0.0, 0.53246856, 0.2610597, -0.37276378, 535.8503, 0.8372836, -0.55398196, 0.6041255, -6.9853964, -0.40018013, -0.7789039], [0.0, 0.6989672, 0.04261148, -0.15003546, 534.46344, 0.45478547, 0.21237291, 0.12528741, -5.759734, 0.96620005, 0.8302155], [0.0, -0.36488503, 0.8204058, -0.15125974, 535.48517, -0.00633204, -0.18526612, -0.06259549, -5.8330355, 0.33911422, 0.65966064], [0.0, 0.6865721, 0.014219448, -0.8508529, 202.75275, 0.3025583, -0.45565528, 0.5632949, -1.816685, 0.9836803, 0.9199581], [0.0, 0.5253444, -0.75106543, -0.9670643, 203.59914, -0.31911057, 0.83942556, 0.9857185, -2.5928812, 0.16801946, 0.083512425], [0.0, 0.7626107, -0.06930733, 0.6650966, 200.5068, 0.047918677, 0.31946924, -0.05170405, -3.2227166, 0.59116614, 0.61184144], [0.0, 0.5226729, 0.683204, 0.2522647, 203.07057, -0.49720615, -0.07481516, -0.516329, -3.2253375, 0.11750954, -0.42981], [0.0, 0.9725468, 0.35858315, -0.10148005, 203.50455, -0.2097615, 0.8242111, 0.32778895, -3.1295955, 0.7240127, -0.5430507], [0.0, 0.6116364, 0.5820961, -0.69743866, 200.61111, 0.35385907, -0.63229686, 0.64480734, -2.7233686, -0.8019899, 0.13173684], [0.0, -0.33506364, 0.38295627, 0.5832408, 202.1584, -0.42590016, -0.28533056, 0.78686905, -2.9230976, 0.12873176, -0.28144047], [0.0, 0.19465768, -0.6339436, 0.6082945, 200.0056, 0.67837, 0.31523392, 0.73670554, -1.695416, -0.71364474, -0.0014802736], [0.0, 0.35714376, -0.5101851, 0.47213385, 204.11214, -0.31286353, -0.48054975, 0.99124336, -2.7008994, 0.93427616, 0.27498543], [0.0, -0.87954617, 0.54690534, -0.7709074, 198.83948, -0.9038813, -0.17104153, 0.029421449, -2.1289482, 0.38035214, -0.05139845], [0.0, 0.4465598, -0.8420643, 0.6438878, 203.61008, -0.8907466, -0.8999741, -0.2129494, -2.469174, -0.20424421, -0.44899243], [0.0, -0.0037902594, -0.24779953, 0.72304064, 202.90413, -0.48059624, 0.8138063, -0.16245162, -1.5778055, 0.59842306, 0.47526658], [0.0, -0.030819058, 0.6833138, 0.4614948, 200.20705, 0.40090144, 0.9065164, 0.047210097, -2.5792055, -0.32874125, 0.5486843], [0.0, -0.55163115, -0.43144846, -0.84872746, 199.49101, 0.90786386, 0.94503886, 0.89350986, -2.9267724, -0.5849008, -0.29168224], [0.0, -0.2552833, 0.65096277, -0.020419387, 193.92453, 0.20132458, -0.07466964, -0.0617975, -1.643553, 0.033119358, -0.697837], [0.0, 0.6667609, 0.67970145, -0.30730167, 200.96838, -0.591654, 0.86238045, -0.90227437, -2.4498005, 0.12578228, 0.34167203], [0.0, -0.013499856, 0.6708647, 0.061809216, 201.02925, 0.78727484, 0.68984884, -0.35275382, -2.0311923, 0.8814076, 0.8757973], [0.0, -0.6252694, 1.0203924, 0.7141226, 204.25221, 0.49068367, -0.9977696, -0.33630484, -2.692941, 0.41599864, 0.335837], [0.0, -0.6407175, 0.16259935, 0.1151834, 208.21466, 0.5856118, -0.022104468, -0.20429122, -2.2432437, -0.5040689, 0.25498003], [0.0, 0.29625833, -0.4927228, -0.81111926, 200.52614, 0.38624823, 0.26060298, 0.20292866, -3.3447247, 0.22858599, -0.56306356], [0.0, -0.39079517, -0.44149947, -0.075304404, 199.74728, -0.36679167, 0.23502202, -0.24869907, -1.9243969, 0.7426386, -0.83893853], [0.0, -0.33567256, 1.0991793, -0.605066, 199.24448, 0.35676944, 0.4925098, -0.69940877, -1.7288468, 0.53937006, 0.79451674], [0.0, 0.32259786, 0.99852735, 0.9809962, 204.3751, 0.050391793, -0.13494384, -0.27247947, -3.2683108, 0.29533118, 0.87291145], [0.0, 0.546129, 0.524173, -0.83003706, 201.33676, -0.9220779, -0.7023197, 0.3035456, -2.0430064, -0.010118462, 0.7458477], [0.0, 0.21929014, 0.2914992, -0.70122623, 200.02771, 0.27561796, 0.15654202, -0.8942144, -2.3818145, 0.31892025, 0.7790155], [0.0, -0.95320725, -0.2826994, -0.26858535, 201.5359, -0.14862573, 0.3661168, 0.8707509, -1.8866496, -0.29590586, 0.985518], [0.0, 0.331123, -0.82449186, -0.5360242, 201.51291, -0.5799095, 0.32026556, 0.49642217, -2.654231, -0.15421173, 0.33848628], [0.0, -0.789448, 0.38240877, -0.7711609, 197.24632, -0.84116745, 0.3744117, 0.0749017, -2.26764, 0.2362828, 0.25624493], [0.0, 0.83695793, 0.20357053, -0.6018244, 204.03209, -0.3657512, -0.0072497176, -0.38680476, -2.7062428, 0.3600778, 0.5902982], [0.0, 0.37235725, -0.8752197, -0.2412003, 201.28682, 0.41788375, 0.2424629, -0.028347611, -2.2999582, 0.23602131, -0.11486998], [0.0, 0.4188918, 0.5512247, -0.7388286, 201.14526, -0.9469476, -0.17387077, -0.21666229, -2.6984184, -0.066028334, 0.28358945], [0.0, -0.3841068, 0.43547812, 0.8194346, 198.02576, 0.4934162, -0.70269513, -0.07012093, -1.5986214, 0.5759197, 0.7921259], [0.0, -0.16952527, -0.0026261806, -0.932152, 201.70404, -0.0028356314, 0.6500899, 0.12821019, -1.5148959, -0.75188005, 0.057414625], [0.0, 0.33247244, -0.24768914, -0.7243127, 203.62956, 0.614131, -0.6088359, -0.3207566, -2.3859057, -0.6469683, 0.8424351], [0.0, 0.65021586, 0.51589864, 0.3413429, 203.96577, 0.4602362, 0.83343744, -0.17339265, -3.2841144, 0.39064234, -0.7718463], [0.0, 0.22088659, -0.5756775, -0.8921298, 195.11342, 0.059529185, 0.16081028, 0.5774894, -2.8297746, 0.85290164, 0.39131287], [0.0, 0.8332422, -0.19047475, 0.5484195, 199.5478, -0.45774335, -0.3149465, -0.5031962, -2.255712, -0.31144446, 0.98569626], [0.0, 0.20228732, -0.5477562, -0.7713841, 206.4478, 0.5221615, 0.44487566, 0.3374561, -3.3878832, -0.86847, -0.9686048], [0.0, -0.7938323, 0.4896621, 0.9049316, 203.37317, 0.9090531, 0.57159066, -0.1048733, -1.7682638, 0.6437288, 0.6777866], [0.0, -0.59435695, -0.6230418, -0.345148, 534.62317, 0.8757684, -0.35026374, 0.2850188, -5.9299636, -0.17024371, 0.012314023], [0.0, 0.8515887, -0.5430369, 0.17666166, 535.3256, 0.37590063, 0.2585136, 0.8162694, -6.0802097, 0.9370224, 0.8020337], [0.0, 0.8157654, -0.32114065, -0.56011593, 535.81244, 0.60272074, 0.45867816, 0.0059529543, -6.692275, 0.45553663, 0.34782308], [0.0, 0.97710085, -0.41980785, 0.7267147, 534.3483, -0.5059728, -0.47938505, 0.6808717, -6.1266174, 0.6124465, 0.91306573], [0.0, -0.08836901, 0.1765334, 0.8154741, 535.83997, -0.6460588, -0.22948943, 0.413746, -6.0056963, -0.6488078, 0.027268114], [0.0, -0.43542236, 0.17746371, -0.47456208, 534.4776, -0.9081354, 0.45506445, 0.74110484, -5.67834, -0.66680294, -0.97404426], [0.0, 0.24156606, 0.4204387, -0.84202546, 534.44727, 0.8287723, 0.8042407, 0.834002, -6.7314076, -0.18313095, -0.40008008], [0.0, -0.9384303, -0.4892828, 0.72313887, 535.3619, 0.8980479, -0.5617501, -0.14409912, -7.0165052, 0.63266987, 0.10500711], [0.0, -0.19964969, -0.37132257, 0.66983396, 534.507, -0.39246267, -0.37393966, -0.66155195, -7.134792, -0.3111587, -0.34171164], [0.0, 0.61570954, -0.2911898, 0.36455598, 534.4002, -0.4163937, 0.08738722, 0.23609293, -6.399746, -0.52740884, -0.6513793], [0.0, -0.7184253, 0.23806828, 0.2600967, 534.4413, -0.33115667, -0.80165005, 0.46045315, -6.1363897, -0.105838746, -0.20563728], [0.0, 0.16686761, -0.8137414, 0.6110559, 203.44646, 0.22074091, 0.41502202, -0.30879253, -1.9339772, -0.81097335, -0.29738277], [0.0, -0.9048228, 0.8241252, 0.5245024, 195.23189, -0.7858472, -0.8049751, -0.82778025, -2.9039183, 0.13248068, -0.106320366], [0.0, 0.99906063, -0.21444947, -0.8440327, 202.27878, -0.065558314, -0.13443229, -0.7142348, -2.4279532, 0.148999, -0.48065493], [0.0, -0.6036934, 0.004758522, 0.03996964, 203.74115, 0.51113296, -0.886039, -0.27411073, -1.5156355, -0.39039266, -0.3434922], [0.0, -0.15417087, -0.76570016, -0.3542394, 198.51012, 0.7182696, -0.59122, 0.29329312, -2.9510427, 0.70612216, 0.05015523], [0.0, 0.4539441, 0.70003957, -0.4236526, 199.589, 0.21320808, -0.67907065, 0.5974114, -1.4074783, 0.042801734, 0.49752408], [0.0, 0.18534625, -0.19928178, -0.29712656, 194.51593, 0.94460106, 0.84907097, 0.31703937, -1.7247808, -0.99547035, 0.98113453], [0.0, -0.1721803, -0.41993842, -0.6422626, 194.25, -0.5812139, -0.07160827, -0.21850407, -1.7602441, 0.90412563, -0.576448], [0.0, -0.953881, 0.676844, -0.27071014, 201.74088, 0.47275555, -0.86929804, -0.1980344, -1.9251128, 0.07158806, 0.93053913], [0.0, 0.09549868, -0.7707428, 0.65438014, 200.4335, -0.98459005, -0.49607232, 0.51005864, -1.6599174, -0.17701957, 0.74816704], [0.0, 0.85040736, 0.4173224, -0.7358851, 202.1464, 0.4969753, 0.9712071, -0.33129686, -1.5234818, -0.6416153, -0.13786665], [0.0, 0.0755831, 0.9795163, -0.5590476, 203.30136, 0.23942006, 0.5772822, -0.46939868, -3.2392545, 0.37100238, 0.90309], [0.0, -0.81734705, -0.8666593, -0.93608296, 195.29785, 0.552068, 0.8987784, 0.3717128, -2.817474, 0.28959805, 0.23515846], [0.0, 0.9615207, -0.7384993, 0.4592618, 201.8489, -0.43173522, -0.17392632, 0.6096163, -3.329653, 0.34504893, -0.5560157], [0.0, -0.79461455, -0.41103783, 0.46807724, 196.27629, -0.88072777, 0.22866023, -0.7842741, -3.0298717, -0.28895983, 0.3182247], [0.0, 0.44221175, -0.027345754, -0.69575626, 197.83153, -0.11671579, -0.8061054, 0.06595218, -3.0872455, -0.6124073, -0.27239087], [0.0, -0.07248914, -0.490088, 0.5080869, 199.38667, -0.090561986, 0.4149818, -0.95669603, -1.9590384, -0.3367893, -0.4753461], [0.0, -0.91917276, 0.3549723, 0.8122509, 203.0603, 0.47131932, -0.55179995, 0.70624566, -2.2944202, 0.8477784, 0.9844167], [0.0, -0.3825032, 0.3144517, 0.06921354, 200.68953, 0.9156158, -0.3106604, -0.664417, -1.5176764, -0.68052924, 0.4701186], [0.0, -0.40331763, -0.5293312, -0.4432702, 197.24113, -0.66293645, 0.58423805, -0.19830334, -2.928613, 0.12010047, -0.25416663], [0.0, -0.03720939, 0.44125953, -0.044276416, 197.30042, -0.23447025, 0.9038482, 0.34283078, -2.3844523, -0.5600287, -0.09680863], [0.0, 0.15123641, 0.20573288, 0.22650968, 199.33311, 0.35842407, 0.93756276, 0.29761636, -2.623303, -0.6511903, 0.9079954], [0.0, -0.5110149, 0.20736247, -0.15610851, 198.92757, 0.9867141, -0.16298585, 0.7386534, -1.54035, 0.5538876, -0.28219676], [0.0, 0.63337207, 0.15211391, 0.39189664, 202.26596, 0.14148939, -0.079749785, 0.6309571, -1.637989, -0.2744079, 0.81627035], [0.0, -0.40393728, -0.78995484, 0.67408615, 202.90704, 0.36833942, -0.68589187, 0.65589356, -1.5695417, -0.9116003, 0.9441507], [0.0, 0.8302231, 1.0101008, 0.031021895, 197.32394, -0.79895425, -0.81353784, 0.13756359, -1.6350753, -0.8443877, 0.15241222], [0.0, 0.7845533, -0.029370382, 0.90603477, 204.26508, -0.89075255, -0.32158273, -0.5945193, -1.8187752, 0.7423082, 0.43112957], [0.0, 0.38716376, -0.015116766, 0.23088403, 204.49368, -0.8351867, 0.9510443, -0.7663822, -2.6925497, -0.22618969, 0.57137203], [0.0, -0.43043298, 0.18742067, -0.15678681, 199.0972, -0.47400397, 0.5613902, 0.64926004, -2.5529585, -0.83748007, -0.8254195], [0.0, -0.29124683, -0.37800705, 0.43743655, 204.2083, -0.7013893, 0.009721155, -0.12051928, -2.5663185, 0.059272695, -0.22094429], [0.0, -0.40295333, -0.010762624, 0.62457824, 199.68716, 0.01764524, 0.6253689, -0.27427882, -1.5532241, -0.37341374, 0.11191351], [0.0, -0.7870045, 0.8796076, -0.22412552, 199.38356, 0.7697258, 0.068658784, 0.5461235, -1.6317732, 0.5552628, -0.30315948], [0.0, -0.8778429, -0.1315914, -0.3728324, 204.44193, 0.4998778, 0.23221886, -0.7621572, -1.8121853, 0.8805869, 0.43993938], [0.0, 0.5914984, -0.49073654, 0.45496002, 202.38235, -0.1250912, -0.039014064, -0.84646726, -3.1872668, -0.6970643, 0.1206983], [0.0, 0.8403554, 0.2958808, -0.024140207, 201.81442, -0.06103623, 0.7345547, -0.8701525, -2.9299319, -0.5519634, -0.35868523], [0.0, 0.5090742, -0.33800417, 0.5502499, 201.032, -0.8602245, -0.8043547, -0.5927579, -2.6041803, -0.7597369, -0.5896961], [0.0, 0.73813605, -0.26686946, -0.7369929, 196.96025, -0.14576256, 0.18923914, 0.6827688, -2.9224353, -0.6659004, 0.64030236], [0.0, -0.44803113, 0.57179326, 0.63385755, 203.78784, 0.48492372, 0.8638296, 0.5459931, -1.8400707, -0.29211247, 0.43043697], [0.0, 0.022521377, 0.10466504, 0.4782888, 201.16193, 0.34273064, -0.6719933, -0.27946538, -3.319544, -0.7723042, 0.6244259], [0.0, -0.019091487, 1.1853762, -0.816276, 534.3178, -0.05332458, -0.3686563, -0.77402973, -7.1357, -0.26269177, -0.3290378], [0.0, 0.35562146, 0.5601427, 0.95535, 534.87854, 0.6477797, 0.60895014, -0.9375999, -6.685045, -0.22472951, -0.028355656], [0.0, -0.9342487, 1.1137393, -0.37438098, 534.0354, -0.4292521, 0.36712733, -0.7413702, -7.1619434, 0.49617615, 0.80335075], [0.0, -0.8013203, 0.98176795, -0.6406893, 535.7148, -0.16141975, 0.8191259, -0.5729005, -6.283144, -0.53290105, 0.14697045], [0.0, 0.4571513, 0.5123901, -0.69142073, 535.95746, -0.7987311, -0.06656681, 0.056690097, -7.221761, -0.925329, -0.8845896], [0.0, -0.3077554, 0.27741474, 0.88322264, 534.1081, -0.23238885, 0.89522576, -0.15668046, -6.884682, 0.42687276, -0.44904482], [0.0, -0.1408621, 0.1969015, 0.4325575, 534.6298, 0.9160228, 0.04611625, -0.7795279, -6.5790434, -0.9257589, 0.043597165], [0.0, 0.95700336, 1.2764263, 0.22086231, 534.22833, 0.26434028, -0.24591433, -0.07742679, -6.932284, 0.51898164, -0.8714618], [0.0, -0.087834, 0.73853034, 0.30294362, 534.9365, -0.81722, 0.36556068, -0.067571044, -6.330899, -0.68276507, 0.08120412], [0.0, 0.1913749, -0.42909473, 0.60586315, 534.54083, 0.061865687, 0.27704206, -0.36705202, -7.1251087, 0.7588846, 0.017735185], [0.0, 0.004554391, -0.49487013, -0.53385866, 534.9208, 0.41132653, -0.4564766, -0.4546196, -5.9854383, -0.9400273, 0.76504475], [0.0, -0.9779, 0.40022916, -0.9403991, 203.23718, -0.068448186, 0.7849536, 0.15795767, -1.4710269, -0.37156928, 0.6148019], [0.0, 0.80564284, 0.9736904, 0.46428326, 194.88051, -0.8821318, 0.938811, -0.5705549, -2.2822857, -0.90736324, -0.6639954], [0.0, -0.872318, 1.0889215, 0.9809558, 197.26949, 0.5666797, 0.08719337, -0.71249723, -3.242241, 0.31145737, -0.102174714], [0.0, -0.6398778, 0.971378, 0.16248451, 200.07053, -0.8581855, 0.3878846, 0.6747389, -1.7692537, 0.8478644, -0.9786225], [0.0, 0.12926471, 0.46937552, -0.9761923, 198.02011, -0.885751, 0.2124964, 0.21994627, -1.3569918, -0.17563727, 0.10928564], [0.0, -0.17483318, 0.17245823, 0.9211316, 199.72523, -0.66155005, 0.38792178, 0.29807794, -2.9241505, 0.18622172, 0.5244245], [0.0, 0.06325209, 0.42797375, 0.20308295, 202.2288, -0.21713984, 0.2143617, -0.00073206425, -1.4015985, -0.0310416, -0.80823636], [0.0, 0.54759026, 0.6319362, 0.5462085, 194.7504, -0.36486548, -0.9914251, 0.24538839, -2.4466853, 0.1272307, 0.6493429], [0.0, -0.056584, 0.81948155, 0.8002962, 193.80888, -0.7142968, -0.07224635, -0.12796915, -1.7260411, -0.44645873, 0.08419656], [0.0, -0.48368353, 0.99645656, 0.83387136, 198.50406, -0.6105482, 0.38446972, 0.103227735, -1.6321402, 0.10026728, -0.679051], [0.0, 0.7167103, -0.84099895, -0.63470316, 200.25365, 0.402794, -0.48879394, 0.5519464, -2.0932817, 0.791883, 0.64024395], [0.0, 0.6315923, -0.18148223, 0.30548865, 196.91875, 0.050267816, -0.8862138, 0.3532008, -1.4505756, 0.8138111, -0.38781002], [0.0, 0.8820076, -0.24303585, -0.5503601, 202.24884, -0.49312037, -0.9614604, -0.5874216, -2.970934, -0.079340674, -0.35664937], [0.0, 0.4214393, 0.43943197, 0.52240753, 199.77509, -0.30602187, 0.46735904, -0.119208455, -2.017837, 0.07442462, -0.7392648], [0.0, -0.5600013, -0.6317291, -0.37959194, 197.19899, 0.94969225, -0.44434518, -0.88507485, -2.8126097, 0.33778378, -0.07060404], [0.0, 0.9398041, 1.0704943, -0.12122616, 200.48332, 0.41934454, -0.26887658, -0.10109699, -2.7819185, 0.030080102, 0.8337033], [0.0, 0.97856283, 0.44833037, -0.49245766, 195.15862, 0.23234022, 0.105217256, 0.598732, -3.0914075, -0.5016732, -0.765524], [0.0, 0.69499564, -0.6032526, -0.3000985, 203.3755, -0.25256914, 0.5057955, -0.79884577, -2.8303187, 0.30982202, -0.30598897], [0.0, -0.3741259, -0.28510776, 0.2224186, 197.34344, 0.07906878, 0.50117826, -0.9447751, -1.6059725, -0.4565538, -0.9610701], [0.0, 0.7610395, 1.093567, 0.7908023, 200.46553, -0.64555216, 0.6256806, -0.69270706, -2.7047894, -0.66643465, 0.37858853], [0.0, -0.48146766, 0.05576253, -0.018560497, 202.20021, -0.7997453, -0.54724455, 0.471125, -1.5780509, -0.60523087, 0.038261745], [0.0, -0.7919104, -0.033564977, -0.26714486, 198.84589, -0.57880396, 0.726306, 0.38386142, -2.8927648, 0.4531256, 0.9866356], [0.0, -0.39193577, 0.15001361, -0.37647066, 203.97328, 0.11738837, 0.14833009, 0.14383733, -2.1330118, 0.90511805, -0.61398476], [0.0, 0.86233854, -0.29750216, 0.74229676, 202.74406, 0.3520018, 0.007447834, -0.35798258, -1.6208715, -0.13007458, 0.32164133], [0.0, -0.666564, 0.90437984, -0.5681784, 198.12689, -0.037098765, 0.5566094, 0.6979642, -1.5944512, -0.26146922, -0.63329774], [0.0, 0.96874857, 0.99517715, -0.23248085, 201.65799, -0.8158076, 0.06646494, 0.8291247, -2.2169719, -0.5568579, 0.13220415], [0.0, -0.037425637, -0.30539662, -0.81413215, 201.87491, -0.6011111, 0.69762677, 0.13401997, -2.409515, -0.15924951, 0.14444026], [0.0, 0.15810049, -0.87288624, -0.7098079, 198.91402, -0.68754625, -0.59678733, -0.3299319, -3.0586486, -0.5001871, 0.9307193], [0.0, 0.78737426, -0.31360847, -0.666166, 201.18166, -0.70919585, -0.6112442, -0.35242146, -1.467586, 0.143976, 0.8036537], [0.0, -0.61714643, 0.8357931, -0.8599779, 203.24547, 0.31098187, -0.41937202, 0.7085686, -3.3381975, 0.02277558, 0.16184962], [0.0, 0.9795644, 0.46744055, -0.3982397, 202.77066, -0.5674197, -0.41126698, -0.20466173, -1.9863418, -0.0052450406, 0.44721162], [0.0, -0.3205492, -0.012013033, 0.6340926, 203.76193, -0.1383344, 0.20148456, -0.57482356, -2.0933719, 0.15048687, 0.0662843], [0.0, -0.40185565, -0.6910148, -0.38527745, 200.18034, -0.8588059, 0.08444686, -0.0808121, -2.6491754, -0.28872126, -0.8858412], [0.0, -0.5062503, -0.62617064, 0.22514635, 196.40161, -0.080423474, 0.32881248, 0.82223487, -2.8196793, -0.11132005, -0.39336923], [0.0, -0.9371054, 0.37312475, -0.8413611, 196.45682, 0.53138995, 0.0039907675, -0.9575877, -1.507858, -0.6838195, -0.8817063], [0.0, -0.327336, 0.80923575, 0.99186397, 199.14473, 0.20751417, -0.44092187, 0.94468665, -3.0590677, 0.3955325, -0.3012178], [0.0, -0.58965963, -0.16207281, 0.23202592, 196.68922, 0.15648258, 0.940933, -0.419218, -3.1422293, 0.39921424, -0.18349262], [0.0, 0.22976816, 0.2713832, -0.24916142, 197.6278, -0.7039242, 0.8085246, -0.8290796, -2.300715, 0.4180574, 0.2730873], [0.0, -0.31913704, -0.8696171, -0.84319705, 201.3944, -0.065622926, -0.12024375, -0.058437467, -1.5831485, -0.43203238, 0.8985903], [0.0, -0.6453974, 1.0223444, -0.35423818, 535.077, -0.7574091, -0.29177085, 0.38308418, -5.814933, -0.7520142, 0.62776], [0.0, 0.8983729, 0.2934577, 0.069628395, 534.64166, 0.8914838, -0.04852448, -0.5218925, -5.768258, -0.050193276, 0.8641923], [0.0, 0.073933005, 1.0246804, 0.17913167, 534.6314, 0.37395418, -0.11705385, -0.60164803, -6.960773, -0.8843091, -0.41123426], [0.0, -0.22323358, 1.1949806, -0.2793745, 534.56635, 0.4746946, 0.033362765, 0.18034852, -6.864809, -0.22855327, 0.653045], [0.0, 0.6117687, 1.1887293, 0.88346916, 535.1989, 0.10864532, 0.013901371, -0.24173081, -6.333617, -0.47009352, -0.22569948], [0.0, 0.42346418, 0.1967768, 0.6772452, 535.2951, -0.8393254, -0.50025433, 0.13004673, -6.9308696, 0.08536461, -0.25886548], [0.0, 0.7045958, -0.45488662, -0.5024837, 535.2527, -0.096128106, 0.45476428, 0.5315707, -6.732909, -0.08658835, -0.035013016], [0.0, 0.27014434, -0.25685632, 0.049136322, 535.19257, -0.47251672, 0.66059804, -0.62826395, -6.4515057, -0.4542425, 0.62598807], [0.0, -0.92339754, 0.108177364, 0.09608332, 535.52655, -0.5821602, 0.7850516, -0.045559287, -6.8150907, 0.7005448, -0.06456095], [0.0, -0.6862695, 0.5981962, 0.04089729, 535.8944, 0.29870832, 0.4346396, -0.00968039, -6.9524612, 0.8218581, 0.039858285], [0.0, 0.72532964, 0.779221, -0.53391635, 535.5019, 0.6876435, -0.46759358, -0.52782744, -6.9423203, -0.5007856, -0.99079436], [0.0, -0.49509066, 0.41376978, 0.41149843, 198.66605, 0.79554677, 0.49974307, -0.5677127, -3.1668484, 0.30891335, -0.8645287], [0.0, 0.64343953, -0.35560784, -0.29340914, 194.34091, 0.5842495, 0.0751882, 0.8087728, -2.3485732, 0.069349825, -0.33238414], [0.0, 0.9935849, -0.85973155, -0.28609946, 195.82713, 0.40827453, 0.68654984, -0.2993731, -1.9948515, 0.43260175, -0.12989925], [0.0, 0.5037775, 0.36487842, -0.31166044, 201.96759, 0.8854935, 0.49015048, 0.07354319, -1.9424709, -0.56842667, -0.44639608], [0.0, 0.24856198, 0.90139353, 0.9025537, 194.99147, -0.12594259, 0.7185244, 0.48782694, -2.559638, 0.8525025, 0.23992635], [0.0, -0.06893504, 0.32197323, 0.8190858, 196.45508, -0.26957196, 0.011015771, 0.18636143, -1.5274446, 0.3359637, 0.8228397], [0.0, -0.04900396, -0.059386924, 0.13964245, 192.14679, 0.034648538, 0.7969907, -0.17643416, -1.4941654, -0.29844823, -0.7887703], [0.0, 0.6733093, -0.09987762, 0.6659974, 194.12355, -0.9864383, 0.5852017, 0.22716296, -2.9866488, -0.09192985, 0.7718164], [0.0, 0.7857168, -0.84152156, 0.957927, 198.96977, -0.85242224, -0.78887886, -0.68704796, -2.2090364, -0.60069126, 0.24362381], [0.0, -0.27895993, -0.58338153, -0.2338725, 201.58253, 0.8482053, -0.18663475, 0.912514, -2.5448442, -0.59531575, 0.5872307], [0.0, -0.73486686, -0.52248585, -0.22345947, 195.62193, -0.18313086, 0.97682184, 0.21607435, -1.9572622, 0.29622775, -0.07572363], [0.0, 0.95664954, -0.08662329, -0.5220218, 196.96486, 0.2556678, 0.89529014, 0.94636273, -3.3055503, 0.12170932, 0.8005194], [0.0, 0.13356054, 0.77951086, 0.79538304, 202.3237, 0.5251758, -0.16718313, -0.9133177, -2.3232613, 0.87961614, -0.9684093], [0.0, 0.9531567, 1.0759743, -0.19645523, 195.65837, -0.7827096, -0.60963583, -0.001986146, -2.6352482, -0.62453485, 0.1546321], [0.0, -0.6713195, 0.1753565, 0.30645913, 191.4817, 0.43923104, 0.83179545, -0.95445657, -2.4323888, -0.77401793, 0.9417642], [0.0, -0.3372311, 0.65464777, 0.47139037, 199.7238, 0.0055240393, 0.7470415, -0.5454833, -3.0551445, 0.046275016, -0.868398], [0.0, 0.97189355, 0.6794741, 0.6002292, 196.69446, -0.87933826, -0.015781524, 0.38561594, -3.0960064, -0.115052015, -0.87098604], [0.0, -0.68304276, -0.3094449, 0.59308076, 198.37238, 0.4607457, -0.52122605, -0.4941811, -2.5313635, -0.269453, -0.51411676], [0.0, 0.72699237, 0.27582455, -0.6808261, 201.3457, -0.5342011, -0.75202376, 0.4099251, -1.7173021, -0.6451186, -0.44754836], [0.0, -0.7382126, 0.68251777, -0.9741201, 190.74663, -0.8569987, -0.75505733, -0.700665, -1.7852272, -0.32740122, -0.4227341], [0.0, -0.15048611, 0.8040285, -0.99010926, 197.53804, -0.33132428, 0.4778539, -0.8062279, -1.6907892, -0.010143548, -0.78601867], [0.0, 0.697845, 0.49903408, -0.9427524, 198.09775, 0.57622147, -0.9495971, 0.9249339, -2.811454, 0.25141785, -0.19549866], [0.0, 0.93040633, 0.14030853, 0.40273625, 196.75581, 0.007768512, -0.9037678, 0.4263643, -2.7510624, 0.8481267, 0.6224207], [0.0, -0.020548463, -0.40149093, -0.008373051, 193.1239, 0.11320889, -0.97798485, 0.7633815, -1.8778361, -0.79280204, -0.92703116], [0.0, -0.32727975, -0.06768062, 0.70893157, 195.96075, 0.58118653, -0.12201472, 0.57555103, -1.869687, 0.21747929, 0.4580393], [0.0, 0.9691894, 1.0837424, 0.8780365, 199.47212, 0.040419698, 0.70816237, 0.197765, -2.430513, -0.5481624, 0.48034436], [0.0, -0.5725414, -0.3823514, 0.43974626, 198.8786, 0.86120844, 0.22018738, -0.44678992, -2.0902038, -0.8210008, -0.40401793], [0.0, -0.40597123, 0.0070691556, 0.1605849, 193.89066, -0.43708366, 0.842851, 0.19595993, -2.8996499, 0.2424399, -0.1911118], [0.0, 0.99297404, -0.18964654, 0.30799642, 201.74687, -0.8469827, -0.8551863, 0.2318958, -3.2180185, -0.8812157, 0.56538296], [0.0, 0.94692683, 0.6679553, 0.7013947, 195.14932, 0.9538431, -0.579684, -0.93461776, -2.0396829, -0.4869225, -0.38870147], [0.0, -0.9021957, -0.43069613, 0.90558034, 203.53717, 0.0276016, -0.3813302, 0.6496699, -1.8794975, -0.5698854, -0.43272203], [0.0, 0.7458124, 0.46299464, 0.6937854, 199.52388, 0.6188743, -0.03526811, 0.53699446, -2.0343094, -0.07757414, 0.429632], [0.0, 0.26982248, -0.16252106, -0.25137722, 190.0124, -0.4952311, -0.93591714, -0.42297906, -1.4476037, -0.56821805, 0.9217847], [0.0, -0.86754346, 1.0410417, -0.4790025, 196.02986, 0.14419138, -0.16058894, 0.8956268, -2.818181, -0.74687845, 0.7815062], [0.0, 0.19418418, 0.35865122, 0.8249662, 199.82678, 0.69781804, -0.56998074, 0.14922535, -2.421163, 0.84816456, 0.5222797], [0.0, -0.29430836, -0.0990355, -0.344422, 200.7138, 0.6459973, 0.032492198, -0.019590974, -3.2484145, 0.21704176, 0.5585704], [0.0, -0.95172405, 0.9504854, -0.3203308, 198.67319, -0.8325119, -0.45878205, -0.8267069, -1.9679643, -0.67807865, 0.86411756], [0.0, 0.48913395, -0.59204227, 0.37071335, 199.71591, -0.7833431, 0.7260788, 0.59659624, -1.5036385, -0.6484046, 0.72443837], [0.0, 0.7346201, 0.9800829, -0.077772275, 198.52768, 0.9101863, 0.66979104, -0.84810424, -1.453893, -0.09292925, 0.6998252], [0.0, 0.38404405, 0.6119434, -0.6545717, 534.41315, -0.8993902, -0.89434457, 0.86330366, -5.884227, 0.7069542, 0.010023775], [0.0, -0.83478713, 0.21320504, 0.60844594, 535.05084, 0.61594224, 0.34461322, -0.25268596, -6.1906314, 0.3940113, -0.64545316], [0.0, 0.12551916, 1.2689834, -0.7785272, 535.0163, 0.6574938, -0.31768313, 0.22791255, -6.7588105, -0.55819035, -0.34739506], [0.0, -0.9813447, 0.004159093, 0.019866388, 534.6954, 0.10981476, -0.51849, 0.7448919, -6.798296, 0.019711528, -0.18870431], [0.0, -0.8264756, 0.5757019, -0.13750179, 535.8508, -0.58519834, -0.21920739, -0.14480293, -7.015957, 0.85496396, 0.4362933], [0.0, -0.4375021, 0.15374154, 0.18349735, 535.52673, -0.26518434, 0.2542242, 0.31884181, -5.650001, -0.2860203, 0.6368275], [0.0, -0.44380945, 0.7823569, -0.15636499, 535.1474, -0.55926937, -0.5786726, 0.5114505, -5.875282, 0.62211245, -0.03044015], [0.0, -0.3634426, 1.1204753, -0.5797366, 534.83154, -0.47524422, -0.15524136, -0.101941705, -6.951292, 0.80453414, -0.7489945], [0.0, 0.26239645, -0.3802206, 0.40559164, 535.69745, 0.45423114, -0.9221461, -0.8991263, -7.19244, 0.69041675, -0.46168315], [0.0, 0.2499758, 0.46350974, 0.56076103, 534.0866, -0.49469775, 0.49868205, -0.00752604, -6.967351, -0.81312233, -0.46996415], [0.0, -0.17601526, -0.40289086, 0.83372194, 535.6492, 0.31604564, -0.0632516, -0.44495934, -5.7040043, 0.12009624, -0.6498577], [0.0, -0.801373, -0.27499127, 0.8734964, 193.66925, 0.8269484, -0.8176376, -0.8275244, -2.113771, -0.9491109, 0.4305477], [0.0, -0.59445757, 0.52688223, -0.7080722, 199.32256, -0.082288384, 0.85114366, -0.60572904, -3.0407753, 0.037491437, -0.96248823], [0.0, -0.008864284, 0.33435795, -0.12615941, 195.27911, 0.6244459, 0.1413968, 0.058736682, -3.027166, 0.0843001, -0.7450131], [0.0, -0.4529037, 0.754912, 0.64781916, 195.47772, -0.93008757, -0.66024524, 0.40855753, -1.3929527, -0.52442336, -0.3652387], [0.0, -0.15419304, -0.4023048, -0.5324459, 197.29683, -0.9344537, 0.2547804, -0.20080745, -3.27515, -0.67523974, -0.18614598], [0.0, -0.2565121, 0.13816854, 0.87808955, 194.96416, -0.18125069, 0.26082304, 0.93080664, -2.1971831, 0.12499648, 0.412823], [0.0, 0.44480455, -0.58666164, -0.16849735, 192.96571, 0.36130798, 0.23405547, 0.24255383, -1.3199501, -0.65925735, 0.47690058], [0.0, 0.42653263, 0.73893285, 0.04566866, 198.05942, -0.5876815, 0.74524045, 0.80963373, -1.5687511, -0.6234993, -0.34033588], [0.0, 0.98037815, 0.115643, 0.76874745, 194.62473, 0.65570235, 0.2682698, 0.91470075, -3.214847, 0.97518104, 0.31093958], [0.0, 0.61074305, 0.97311825, -0.96084917, 192.37465, 0.17713296, 0.2665498, -0.55601066, -3.2025514, -0.46582904, -0.8152844], [0.0, -0.009860635, 0.2627003, -0.8860456, 195.06802, 0.95366406, -0.8122745, -0.5523469, -1.8017228, 0.3495372, 0.628435], [0.0, -0.8442972, 0.53028, 0.9216855, 191.40717, -0.7109051, -0.09901798, 0.56841135, -2.740921, 0.28752947, -0.5103675], [0.0, -0.76441383, -0.53096086, -0.26701578, 192.70578, -0.675179, 0.51070696, -0.2537014, -3.1873991, -0.59411705, 0.48099923], [0.0, 0.38437998, -0.15092579, 0.11461455, 197.59328, 0.13371193, -0.040638804, -0.458435, -1.5782073, 0.2908363, -0.9848824], [0.0, 0.023465037, 0.7624657, -0.026541648, 197.04546, 0.7610903, 0.05107057, -0.06440604, -1.5919194, -0.02352956, 0.8022341], [0.0, 0.3680085, -0.22736944, 0.36815998, 204.18922, 0.26784503, -0.38349074, -0.2534961, -3.3414035, -0.11030466, -0.6987171], [0.0, 0.8232534, 0.160888, -0.11567095, 193.00069, -0.38370508, 0.67228895, 0.16893041, -2.1867309, -0.8283164, 0.62443745], [0.0, -0.61622447, -0.714047, -0.12321772, 199.71953, 0.6059799, -0.7337653, 0.2360419, -1.4671798, -0.07780159, 0.9292864], [0.0, -0.13856828, -0.67152387, 0.39096543, 193.90004, -0.7915189, -0.8625788, -0.16802943, -1.7415578, -0.055975996, -0.95674765], [0.0, 0.18123043, -0.083528735, -0.7860165, 186.16425, -0.5964243, -0.3362876, 0.17286408, -2.2775054, 0.8710144, -0.7056088], [0.0, -0.11859906, 0.93712693, 0.21635187, 188.39403, 0.47002995, -0.013745744, 0.929894, -3.1088762, -0.12063517, 0.25312585], [0.0, 0.8891709, 0.9649447, 0.6207937, 195.79935, 0.5410073, -0.7548447, 0.0821718, -1.3995569, -0.10330266, 0.34930137], [0.0, -0.14595091, 0.68376327, -0.2617042, 196.34425, -0.05989802, 0.51304364, 0.8151469, -2.1327472, 0.37321183, -0.22839876], [0.0, -0.45769972, -0.13074163, 0.45340875, 194.39754, 0.04127133, 0.7130646, 0.5516813, -2.2276106, 0.9472231, 0.66195095], [0.0, -0.1537987, -0.4082242, 0.59384334, 195.62619, -0.85831356, -0.9420474, -0.3535244, -2.680123, 0.76353663, -0.5775817], [0.0, 0.44156754, -0.17264542, 0.98538244, 195.72049, -0.4622926, -0.11136981, -0.6882663, -2.1105876, -0.29625797, 0.25210598], [0.0, 0.53227925, -0.42152596, -0.7245743, 200.11592, 0.99438643, -0.947056, 0.08247149, -3.0046663, 0.5967858, 0.61081856], [0.0, 0.9268029, 0.4702312, 0.3902691, 196.33517, 0.7242074, 0.08742416, -0.32903045, -1.5155411, -0.023263961, -0.7666982], [0.0, 0.15210664, 0.7925519, 0.07447864, 194.28905, 0.25106418, -0.5938914, 0.78110695, -2.5939124, -0.14044446, -0.93742526], [0.0, 0.3497442, -0.061178066, -0.91835576, 197.25029, 0.5466821, -0.065045476, -0.66526127, -2.929315, 0.8795741, 0.2172399], [0.0, -0.7060518, 0.7345121, -0.23414582, 197.04977, 0.16861165, -0.012936952, 0.0693084, -3.2724156, 0.55530125, -0.045803268], [0.0, -0.86140394, 0.6324837, -0.652576, 197.81125, 0.9034662, 0.2560755, 0.28770912, -2.4591055, 0.7400277, 0.17528848], [0.0, -0.8919339, -0.6381711, -0.05672525, 194.7473, 0.42139208, 0.7138919, 0.93269897, -2.1830502, -0.96762234, -0.87799394], [0.0, 0.34775174, -0.78240836, -0.32151344, 195.772, 0.004458308, 0.05969099, -0.06586254, -2.5620346, 0.99278873, 0.90336406], [0.0, 0.50600743, -0.84269315, 0.22474214, 193.28694, -0.36858243, 0.49558493, -0.08329642, -3.1964738, -0.4460911, -0.787285], [0.0, -0.12440932, -0.4358263, 0.049235076, 193.61752, -0.08140218, -0.2319725, 0.92324066, -2.257043, -0.081489645, -0.1185906], [0.0, -0.47878593, 0.46512777, 0.3844961, 199.27083, -0.98423576, -0.1322742, 0.97307706, -2.9640741, -0.8668325, 0.5367252], [0.0, -0.09468377, 0.45610377, -0.25513104, 194.35468, 0.51784253, 0.50605196, -0.50814694, -2.176959, 0.7716066, 0.7451209], [0.0, -0.661191, -0.62661195, 0.32300228, 190.1436, -0.3458132, -0.8213427, 0.47206604, -2.970044, -0.1651132, -0.6946878], [0.0, -0.52419347, 0.62306756, -0.036489088, 535.9497, 0.13856089, 0.84863496, 0.41308463, -5.4195747, -0.34433725, -0.56176007], [0.0, -0.33361405, -0.13355672, -0.85687774, 534.6841, -0.42787117, -0.63317037, -0.17039478, -6.661522, 0.9646513, 0.21568102], [0.0, -0.36217707, 0.02285397, -0.558144, 534.92194, -0.34921283, 0.30142394, -0.70729256, -6.632624, -0.85058933, 0.8885012], [0.0, -0.75257945, 1.1430604, -0.039366324, 534.36896, 0.86872196, -0.9052017, -0.4010939, -6.9101305, 0.3260174, -0.24245101], [0.0, -0.2150482, 0.96074563, 0.9679521, 534.93726, 0.09479153, 0.86095643, 0.8555827, -5.5453005, 0.76402706, 0.8414529], [0.0, 0.7660165, -0.0116375685, 0.919988, 535.5657, -0.9900327, 0.67366576, 0.18991458, -6.56728, 0.79650587, -0.71693724], [0.0, -0.81881833, 0.5860216, -0.3896357, 534.552, 0.012805581, 0.48316446, -0.51267856, -6.047064, -0.42995837, -0.20262605], [0.0, -0.34484953, 0.122273624, -0.7188656, 535.074, 0.21898425, 0.09412779, -0.57266325, -6.0112514, -0.12558338, 0.5372868], [0.0, 0.4194728, 0.13799232, 0.644182, 534.0434, 0.592916, -0.20112644, 0.39238584, -6.271682, -0.35306814, 0.5105956], [0.0, -0.2628767, 0.49985713, -0.51060617, 535.2899, -0.6085159, 0.4065663, -0.12489641, -7.223511, -0.081212014, 0.16549844], [0.0, -0.8549626, 0.82156926, -0.6040081, 535.4198, 0.6599026, -0.9060714, 0.65806913, -6.9842386, 0.31591776, -0.3864187], [0.0, 0.5570731, 0.6187036, 0.19776183, 196.95697, -0.502201, -0.08727276, 0.62841773, -2.4707675, 0.17417213, -0.49718502], [0.0, 0.786603, -0.8014798, -0.21694167, 191.61371, -0.089070916, 0.8712094, -0.48289722, -1.3354697, -0.5159741, 0.914769], [0.0, -0.6797552, -0.40304637, -0.39511356, 192.01787, -0.067103505, -0.0062873764, 0.08633268, -2.2169056, -0.7519204, -0.83920777], [0.0, 0.80720353, 0.76305795, -0.087008655, 196.50159, 0.5039787, -0.23518789, -0.013705611, -2.4474034, -0.6181518, 0.64828366], [0.0, -0.13826811, -0.39911684, 0.42183402, 194.66417, 0.6066835, 0.9131178, -0.7017381, -1.3311429, 0.017711464, 0.021494884], [0.0, -0.3716635, 0.7930588, 0.92253983, 193.01631, -0.8351362, -0.58950794, -0.3507921, -2.9090362, 0.298247, 0.92860186], [0.0, -0.6424818, 0.04089663, -0.6091688, 194.29729, 0.8230283, -0.38478735, -0.3446502, -1.5752137, 0.37520844, -0.032642107], [0.0, -0.79414177, 0.19893071, 0.34906462, 194.2536, 0.56737995, -0.22520228, -0.6104252, -1.3538723, -0.19366735, -0.13992117], [0.0, -0.5578851, -0.28976172, 0.07704322, 190.68484, -0.35588163, 0.6209779, 0.6056428, -2.5987577, 0.059550535, 0.80478483], [0.0, 0.9971361, 0.83130324, 0.6046668, 195.1387, 0.39611995, 0.03805379, -0.47391218, -1.9009372, -0.03226417, -0.34382346], [0.0, -0.21828711, 0.17035758, -0.8989591, 190.82852, 0.4511534, -0.44534558, -0.77695537, -1.7347562, 0.25125313, -0.6688463], [0.0, 0.51806855, -0.15150174, 0.73881733, 195.93777, 0.56092286, -0.6359425, 0.4276427, -1.6534657, -0.750485, 0.6179937], [0.0, 0.3102125, 0.553759, 0.97077173, 196.67076, -0.47070354, -0.54064626, 0.7748983, -2.8459177, -0.039085895, -0.69893676], [0.0, -0.24025834, 0.08143065, 0.4045699, 194.359, -0.19941008, 0.72457856, 0.5046294, -2.069622, -0.14112848, 0.2174616], [0.0, -0.9020567, -0.50199604, -0.392665, 193.09065, 0.24553049, -0.48372182, 0.07421267, -2.9914982, 0.75009185, -0.7322587], [0.0, 0.21212566, 0.6444608, 0.41732147, 194.61298, 0.10929501, 0.8725278, -0.44030374, -2.6435673, 0.6726491, 0.6094085], [0.0, -0.5521371, -0.17360991, -0.09548934, 191.4749, 0.8984976, -0.93142843, -0.32805485, -2.3868546, 0.70482194, -0.34800205], [0.0, 0.9507408, 0.3949509, -0.72551996, 187.40927, -0.7671988, -0.90518826, -0.15864265, -2.0707674, -0.0972126, -0.78678626], [0.0, 0.6233568, 0.45305917, 0.25043848, 194.89044, 0.57736254, 0.043847837, -0.48998874, -2.7971575, 0.85374206, -0.044369917], [0.0, 0.9430108, 0.6536719, 0.78152025, 193.40237, -0.072055936, 0.021687945, 0.73885083, -1.7951075, 0.34360614, -0.78865016], [0.0, 0.46276987, -0.27688622, -0.38642463, 193.7877, -0.79452205, -0.46494564, -0.7539253, -1.8625602, 0.35804167, 0.24715257], [0.0, -0.7599435, 0.7156068, -0.0315523, 195.63708, -0.49383897, -0.75523454, 0.71910787, -3.1672778, -0.04677623, 0.7714261], [0.0, 0.30942237, 0.20522991, -0.89384323, 197.14548, 0.6231961, -0.22602808, -0.8687093, -3.0654438, -0.2796069, -0.457464], [0.0, -0.060516477, -0.4102219, 0.88998973, 195.76364, -0.5240826, 0.7214379, -0.97311497, -2.3183079, -0.23888272, -0.6495956], [0.0, 0.6166723, -0.06860497, 0.71299183, 196.03912, 0.4993652, 0.19507031, -0.8351557, -1.6029975, 0.63012904, 0.021672267], [0.0, 0.42440093, 0.2360613, -0.67253053, 194.97034, -0.48702854, 0.58339804, -0.99291277, -2.6132371, 0.91056603, -0.66386616], [0.0, -0.6634753, -0.6141339, -0.95224476, 199.2041, -0.79361916, -0.39832148, -0.6051149, -1.3921967, 0.27675092, 0.4434455], [0.0, 0.39059222, 0.8353207, 0.56779665, 197.36887, -0.7802651, -0.48889416, 0.66401434, -1.5620604, 0.15359947, -0.8834289], [0.0, -0.25806874, 0.89844555, -0.612917, 192.95844, 0.22979844, 0.633015, 0.23598325, -2.3105793, 0.7887581, -0.06425095], [0.0, 0.6890867, 0.87797755, 0.6955751, 193.38078, -0.28602523, 0.37473628, 0.2918836, -1.8072957, 0.46242467, 0.18919516], [0.0, 0.2575153, -0.28624445, -0.97006434, 201.73563, 0.58260894, -0.052154027, -0.8549783, -3.3755836, 0.56854403, 0.13088593], [0.0, 0.26623785, -0.8034726, -0.27588242, 198.92905, -0.5897066, -0.14559059, 0.5360105, -2.543841, -0.9030895, 0.07353885], [0.0, 0.03441894, -0.08961441, 0.18992068, 195.68582, 0.037868142, -0.6518522, 0.89090705, -1.50037, 0.004784408, 0.30653313], [0.0, 0.1572057, -0.2868062, 0.2426932, 194.55013, 0.71777296, -0.9572311, 0.09570801, -1.6361847, -0.39335465, -0.65104854], [0.0, -0.17940319, 0.017694354, 0.8659139, 191.07759, -0.7833197, 0.4272803, 0.6111157, -2.989857, -0.95617926, -0.92330116], [0.0, 0.36526215, 0.100029685, 0.6615015, 194.15862, -0.9822886, -0.17378135, -0.30457824, -1.7956021, -0.93453056, 0.8341025], [0.0, 0.7118914, -0.3231295, 0.19071437, 194.71446, 0.2001332, -0.42765024, 0.21439826, -3.0241148, -0.07753295, -0.28530458], [0.0, -0.39430946, -0.23979498, 0.74895084, 192.52678, 0.31020272, -0.38573322, 0.7433965, -3.1491275, 0.36992994, 0.503584], [0.0, -0.749624, -0.44871727, 0.78220505, 196.44778, 0.60510874, -0.719656, 0.23234427, -2.4157858, -0.23253182, 0.60045904], [0.0, 0.0389477, 0.015380979, 0.50823313, 534.7497, -0.17058527, 0.3343269, -0.57231134, -6.795491, 0.40376976, 0.6932872], [0.0, 0.37016428, -0.093040824, 0.33816472, 534.0999, -0.85723233, -0.9871509, -0.62407416, -5.417358, 0.4649165, 0.44907206], [0.0, -0.39932722, -0.053597808, -0.5363153, 535.79456, -0.07904065, -0.93887687, 0.27824485, -7.24481, 0.17623404, -0.15440756], [0.0, 0.95136523, 0.91940933, -0.8474621, 535.1276, -0.24049222, 0.49572948, 0.92578816, -6.69144, 0.5488822, -0.3042401], [0.0, 0.6314292, -0.19843829, -0.37234607, 534.18604, -0.5401575, 0.07957925, 0.9651823, -5.983391, 0.51951855, 0.88830954], [0.0, -0.08301842, -0.68858975, 0.87081057, 535.55237, 0.39438045, 0.8807347, -0.7839377, -7.0425186, 0.4015608, 0.26419252], [0.0, -0.65491486, 0.111436546, -0.06579622, 534.8747, -0.8082497, 0.95740294, 0.59524035, -5.373398, -0.3804734, -0.7187752], [0.0, -0.6471946, 0.64388674, -0.5640048, 535.6217, 0.4170748, -0.020831209, 0.27248442, -6.9155803, -0.8503168, -0.55329883], [0.0, 0.515362, -0.56084317, 0.32425848, 535.5968, -0.4669463, 0.92487144, -0.9626026, -6.517554, -0.81523544, 0.32433504], [0.0, 0.26516402, 0.9231737, -0.6506571, 535.5837, 0.24008358, 0.6302693, -0.2467953, -6.315386, -0.19421837, -0.9316227], [0.0, -0.30824775, -0.0072134733, 0.44445387, 535.58673, -0.76655483, -0.7218189, 0.13586462, -6.201325, 0.84968823, 0.8706656], [0.0, -0.6160657, -0.3422591, -0.5177249, 190.31984, -0.6691575, -0.12276304, 0.47132933, -1.4747658, -0.87568724, -0.42223677], [0.0, 0.030042052, 0.515766, -0.65441126, 189.97536, -0.7233536, -0.35538596, 0.5709057, -1.3599892, -0.31772524, 0.8293453], [0.0, 0.19609559, 0.11476831, 0.57296693, 192.28189, 0.5658128, -0.8484134, 0.9614601, -3.1563773, 0.75504595, 0.48738766], [0.0, -0.19348371, 0.03479781, -0.00046938486, 197.98074, 0.9176645, 0.5861325, -0.31265873, -2.3078384, 0.3240356, -0.420105], [0.0, 0.37732446, -0.24606372, 0.8966273, 192.11206, 0.08869231, 0.2872226, 0.043856025, -2.2133074, 0.07136885, 0.87685287], [0.0, 0.4098016, 0.1036859, 0.5911418, 193.03757, 0.027606606, -0.24989347, 0.45339382, -2.604233, 0.29167214, -0.89323676], [0.0, 0.84899545, -0.19063641, 0.14247271, 192.80045, 0.4515673, -0.12837891, 0.34817588, -1.3550489, 0.2683653, -0.08623148], [0.0, 0.5269561, 0.45135957, 0.6117426, 193.53694, -0.22251475, 0.83497745, 0.7922666, -1.8481773, 0.867147, 0.74380934], [0.0, 0.3567661, -0.3145491, 0.25732744, 188.60506, 0.030493379, 0.9873385, -0.59958905, -2.5411842, 0.21760403, -0.4242934], [0.0, 0.5653477, 0.7655145, -0.8730544, 194.81708, -0.36484808, -0.9216288, -0.6576712, -2.3185477, 0.36372453, -0.9671725], [0.0, 0.07371867, -0.2061483, -0.87150484, 198.06369, -0.22277653, 0.04646194, 0.72489, -2.4743667, 0.26672098, -0.28201464], [0.0, 0.010864854, 0.8315112, 0.530295, 192.64563, -0.19345534, -0.81739706, 0.721859, -3.0348427, 0.16885152, 0.56999123], [0.0, -0.896616, 1.0381352, -0.106952935, 193.0204, 0.2233764, 0.21534248, 0.60308814, -2.9207377, 0.20631638, -0.11238433], [0.0, -0.3972196, -0.19990629, 0.47219223, 191.4425, 0.8789315, -0.87724495, 0.28091347, -1.9605776, 0.7756158, -0.13972428], [0.0, -0.49831933, 0.3159115, -0.22371505, 195.02817, 0.1475805, -0.753902, 0.08480728, -1.6026144, 0.37960726, 0.91716564], [0.0, -0.35158294, -0.8418455, -0.34164608, 190.34251, -0.07789981, 0.10713184, -0.9760921, -2.30892, -0.3589204, -0.7878787], [0.0, -0.87390375, 0.625983, 0.8153444, 191.67583, -0.9276674, 0.36640012, -0.5809857, -3.1835432, 0.028784046, -0.7278325], [0.0, 0.4287852, 0.3647641, -0.88611525, 190.79051, 0.09115517, -0.9525113, -0.46123046, -2.6160126, -0.74255574, -0.7999832], [0.0, 0.76916695, -0.22988051, -0.5353013, 191.16525, 0.6219058, -0.9212079, 0.010918498, -2.1825914, -0.92203844, 0.63666326], [0.0, 0.5027468, 0.091243625, 0.2046899, 190.13466, -0.19551122, 0.40984976, -0.86611533, -2.5690432, 0.6742395, 0.16315791], [0.0, 0.08000338, 0.081158996, -0.04601796, 190.33537, 0.7758117, 0.8787484, -0.8800881, -2.4266505, -0.5194562, -0.39154586], [0.0, 0.6236615, 0.81525475, 0.1460458, 187.95761, -0.44889873, -0.10157938, -0.10284054, -2.0072627, 0.64612985, 0.24463052], [0.0, 0.32993376, -0.017478012, -0.9852382, 196.06708, 0.38888586, -0.16590686, 0.8889444, -2.3973842, -0.5996299, -0.1665337], [0.0, 0.5804405, -0.86698014, 0.42950746, 193.18108, -0.050935388, 0.7952381, -0.08039749, -2.6974034, 0.9469715, -0.9367448], [0.0, -0.56023306, -0.008727573, 0.28789452, 194.90892, 0.25407636, -0.38792947, -0.78190374, -1.7821896, 0.2717715, 0.8761152], [0.0, -0.32506078, -0.21325794, 0.45446688, 197.70769, 0.68058443, -0.20594347, 0.9162102, -2.2434173, -0.43678054, 0.083057925], [0.0, -0.7135093, 0.5916381, -0.037483677, 194.59013, -0.24299777, -0.7489794, -0.9777353, -1.6117778, 0.7134389, 0.33083132], [0.0, -0.62696433, 0.8689027, -0.29561555, 190.56004, 0.46366465, 0.75220585, 0.6075041, -1.9429163, 0.11180211, 0.8305116], [0.0, 0.34980547, 1.088805, -0.8811371, 190.62767, -0.52819246, 0.55901194, -0.1928879, -2.2856584, 0.07139588, -0.31824884], [0.0, -0.48807186, -0.36180854, -0.022789268, 193.22491, -0.33377665, -0.49513993, -0.03744948, -2.5677333, -0.58727324, 0.79318774], [0.0, -0.56867737, 0.09314804, -0.25658616, 192.38577, -0.21379602, -0.33440527, -0.6890774, -2.4719234, -0.1498054, -0.60497195], [0.0, 0.202129, -0.22987773, -0.268622, 192.03273, 0.65797377, 0.7504993, 0.18657577, -2.449586, -0.4554521, 0.7041644], [0.0, 0.8055208, -0.26052412, 0.44838527, 195.13524, -0.4363491, 0.6721937, 0.15760458, -2.2352462, -0.26195884, 0.14541318], [0.0, -0.8772969, 0.77362454, -0.41248968, 195.74937, 0.08765185, 0.7990381, -0.5950896, -2.6353543, -0.94522387, -0.89842284], [0.0, 0.032755494, 0.53147566, 0.66977674, 190.08934, -0.56397146, 0.72742987, 0.9115031, 